def score(input):
    var0 = -0.000002808262714611295 + input[0] * -0.00005620790916464725 + input[1] * -0.0004293907081756226 + input[2] * -0.00042472616112543835 + input[3] * -0.00027460726817403746 + input[4] * -0.0003117489307493307 + input[5] * -0.00036099727545312906 + input[6] * -0.0002879656125949717 + input[7] * -0.000028782872692440034 + input[8] * 0.00007796414073322434 + input[9] * -0.00003866325010845736 + input[10] * -0.00004752766509068805 + input[11] * -0.000058944608606607626 + input[12] * -0.00011482032917729079 + input[13] * -0.00000753133617716528 + input[14] * -0.00003953371688659193 + input[15] * 0.000058994570921357544 + input[16] * -0.00007119445075754253 + input[17] * 0.00009613715605247946 + input[18] * -0.000637013680762417 + input[19] * 0.00032358760925608397 + input[20] * -0.0012815811294598532 + input[21] * -0.0003865738144975805 + input[22] * 0.00007234288616498817 + input[23] * -0.0002794133772713583 + input[24] * -0.00029534429074061226 + input[25] * -0.00028171737421950615 + input[26] * -0.00009237704834413158 + input[27] * -0.00013975873976255503 + input[28] * -0.00022486212702501902 + input[29] * 0.000036424633941819465 + input[30] * -0.00017098019521624542 + input[31] * -0.00015222767651058066 + input[32] * -0.000026739907037693424 + input[33] * -0.00014451747687361415 + input[34] * -0.00009445465841444783 + input[35] * -0.00012102718002935733 + input[36] * -0.000821516561994675 + input[37] * 0.0020140894581958755 + input[38] * -0.0007618821485648539 + input[39] * -0.00007491562926833893 + input[40] * 0.0004063456312859294 + input[41] * -0.00020696059870091129 + input[42] * -0.00002447468088092269 + input[43] * 0.000018819242978628483 + input[44] * -0.00020600056139298518 + input[45] * -0.00022737279537072102 + input[46] * -0.00007626793219895611
    var1 = input[47] * -0.00003432873706798241
    var2 = var0 + var1 + input[48] * -0.00014941601763082725 + input[49] * -0.00012170276471280359 + input[50] * -0.00006252532452942322 + input[51] * -0.00011149766356460443 + input[52] * -0.00015046939714947718 + input[53] * -0.00009250260669805114 + input[54] * -0.00036685906649717374 + input[55] * -0.0005455636446719777 + input[56] * -0.0003186723729815509 + input[57] * -0.0003601461582928974 + input[58] * -0.0001976348974382901 + input[59] * -0.00029639346782509566 + input[60] * -0.00010521156107195735 + input[61] * 0.00015676836845428065 + input[62] * -0.000020525672789552555 + input[63] * -0.000010081749760544391 + input[64] * -0.0000040437503790816055 + input[65] * -0.00006888434813074413 + input[66] * -0.0000976516965833501 + input[67] * -0.00007880263853816726 + input[68] * 0.0000240433368922758 + input[69] * 0.000011576699170599516 + input[70] * 0.000052652494931550885 + input[71] * 0.000030580851603849114 + input[72] * 0.000020746522936776344 + input[73] * -0.00009892614025789262 + input[74] * -0.000980399585938585 + input[75] * -0.0000962950224155332 + input[76] * -0.00028362295731014037 + input[77] * -0.00010276717261395182 + input[78] * -0.00025794089640293817 + input[79] * -0.0001213063872712484 + input[80] * -0.000144271500002131 + input[81] * -0.000046377873902452966 + input[82] * -0.00007229492528564423 + input[83] * -0.0000731938650576258 + input[84] * -0.0001490580903532566 + input[85] * -0.00005354852756759215 + input[86] * -0.00005594646673238306 + input[87] * -0.00002818870274920699 + input[88] * -0.00005768553510357396 + input[89] * -0.00007092841015191053 + input[90] * -0.00014072302446388514 + input[91] * 0.000030142797281177036 + input[92] * -0.0008980092913361374 + input[93] * -0.00007186740095810261 + input[94] * -0.00022777370707656192 + input[95] * 0.00004748197101605223 + input[96] * -0.00005947453556124165 + input[97] * 0.000004642939842884909 + input[98] * -0.00016911462039547796 + input[99] * -0.00007148396305000657 + input[100] * -0.00009069240720137832 + input[101] * -0.00008565710589346332
    var3 = input[102] * -0.0000867978329631334
    var4 = var2 + var3 + input[103] * -0.00019137650654732898 + input[104] * -0.0001321542625999049 + input[105] * -0.00015229683896278987 + input[106] * -0.00017751094973171276 + input[107] * -0.00021343583747115237 + input[108] * -0.00046435148375763497 + input[109] * -0.00005926196732480268 + input[110] * -0.000019502562029913526 + input[111] * -0.0000896533755742972 + input[112] * -0.0000772400833236134 + input[113] * 0.00021062523253656448 + input[114] * -0.00006972396285805252 + input[115] * -0.00009853413583708708 + input[116] * -0.000019048161439378783 + input[117] * 0.000019951104178774385 + input[118] * -0.00006516643591086424 + input[119] * 0.000056235714753592703 + input[120] * -0.000003028803016997344 + input[121] * 0.0000513733683223285 + input[122] * -0.000017128107478654343 + input[123] * -0.00003065618741424575 + input[124] * -0.00015630305118807849 + input[125] * -0.00013204305464924835 + input[126] * -0.002032276601830006 + input[127] * 0.002851720374776431 + input[128] * -0.000750534714117924 + input[129] * -0.00022460817245052077 + input[130] * 0.00023399746477310501 + input[131] * 0.00036750461487330467 + input[132] * -0.0001089427537464838 + input[133] * 0.00007526260717935566 + input[134] * 0.00005522472875619094 + input[135] * 0.000142260277026509 + input[136] * -0.00004886743271409002 + input[137] * 0.000002594927862889808 + input[138] * 0.000008971648580036741 + input[139] * 0.00005586031109789333 + input[140] * -0.000033667197678473445 + input[141] * 0.000016956177257358346 + input[142] * -0.00001914543453216729 + input[143] * 0.000028158132566113357 + input[144] * 0.00014815738842962326 + input[145] * 0.0012463004003768789 + input[146] * -0.000019226246874973323 + input[147] * 0.0004905098642575962 + input[148] * 0.000010898501561655118 + input[149] * 0.0001556741645144048 + input[150] * 0.00015105945276970044 + input[151] * -0.000004699269370038137 + input[152] * 0.00003918749915677504 + input[153] * -0.000028030227324702954 + input[154] * 0.0000352919706890106 + input[155] * 0.000013378958128719731 + input[156] * -0.00008381175880554471
    var5 = input[157] * 0.00001139885262876704
    var6 = var4 + var5 + input[158] * -0.000015396640441420846 + input[159] * 0.0000182445105382548 + input[160] * 0.000008759578150720641 + input[161] * -0.000023029703058057277 + input[162] * 0.000451655202664948 + input[163] * -0.00040098313859480473 + input[164] * -0.00024100539671620863 + input[165] * -0.00026922779114836246 + input[166] * -0.00034498790341316643 + input[167] * -0.0005458344384083286 + input[168] * -0.00015488850606921098 + input[169] * -0.00023214761424922842 + input[170] * -0.00016617777012200376 + input[171] * -0.00025396153120693806 + input[172] * -0.0001970899198705577 + input[173] * -0.00014039520312002774 + input[174] * -0.00010198526109724912 + input[175] * -0.00014168668550303958 + input[176] * -0.00006223989213758387 + input[177] * -0.00013373750209364936 + input[178] * -0.00011247230234982328 + input[179] * -0.00010282474928472299 + input[180] * 0.0007613997083806902 + input[181] * -0.00038857134371981405 + input[182] * 0.0006592512941871369 + input[183] * 0.00010987828194736611 + input[184] * -0.00005963902350470555 + input[185] * -0.00009718610429306667 + input[186] * 0.00008921002838481005 + input[187] * -0.00009960432291094744 + input[188] * -0.00008643779574145347 + input[189] * 0.000052562951021955125 + input[190] * 0.00012119855323201847 + input[191] * -0.00004152931302905379 + input[192] * 0.00004175365308601413 + input[193] * 0.000059262454486167636 + input[194] * 0.00006910282492829094 + input[195] * -0.0000591734421100282 + input[196] * 0.00010460369501814086 + input[197] * 0.00006518538724722678 + input[198] * 0.0002811103736877671 + input[199] * 0.0009239305720148887 + input[200] * -0.0002931675219403056 + input[201] * -0.00032875460434786294 + input[202] * -0.00003685626994082403 + input[203] * -0.0000659342773905762 + input[204] * -0.00014461583082714114 + input[205] * -0.000033580617647106705 + input[206] * -0.00003783844446727578 + input[207] * -0.00006296635024898527 + input[208] * -0.00005142336929208298 + input[209] * -0.00004155942732924876 + input[210] * -0.00010994322715237814 + input[211] * -0.00004112006567552881
    var7 = input[212] * -0.00004812126723917871
    var8 = var6 + var7 + input[213] * -0.00006624762907248649 + input[214] * -0.00001676242821033888 + input[215] * -0.00007120531319995084 + input[216] * 0.0003296956996056984 + input[217] * -0.0005621585053715025 + input[218] * 0.00020246591367087724 + input[219] * 0.00012675022763987843 + input[220] * 0.00002901322462779196 + input[221] * -0.00041209400084033177 + input[222] * -0.00011057057410639728 + input[223] * 0.00020174912278644048 + input[224] * 0.00024599867549811034 + input[225] * 0.0001440894568177501 + input[226] * 0.00003708516201136303 + input[227] * 0.00004717796180554928 + input[228] * 0.0000728698769195281 + input[229] * 0.000011406997164667712 + input[230] * 0.00013550182260730224 + input[231] * 0.00012347679023945175 + input[232] * 0.00007821740831803147 + input[233] * 0.00011977687742198506 + input[234] * 0.0009114664218713227 + input[235] * -0.0010525110001688384 + input[236] * -0.0006424162545027744 + input[237] * -0.0006727084235455364 + input[238] * -0.0004977650256500825 + input[239] * 0.00014565930928950373 + input[240] * -0.0003946524563869931 + input[241] * -0.00019048291999288912 + input[242] * 0.000035041908591175244 + input[243] * -0.00010122946605220642 + input[244] * -0.00007252857027439965 + input[245] * -0.0002734374939797724 + input[246] * 0.000029487726249848367 + input[247] * -0.00007656231747778107 + input[248] * -0.00005584134370092892 + input[249] * -0.00003913204008446197 + input[250] * -0.000024719831920541107 + input[251] * 0.00022896815346764722 + input[252] * -0.002000650133906338 + input[253] * 0.0013058718887880361 + input[254] * -0.0008500771080308645 + input[255] * -0.00028555986941664643 + input[256] * -0.00043263491631954215 + input[257] * 0.0006713044795709465 + input[258] * -0.00018298171804114022 + input[259] * -0.00011802735366577287 + input[260] * 0.00008919123185267945 + input[261] * 0.00013170135499743902 + input[262] * -0.00006516008101296574 + input[263] * 0.000051216639888210634 + input[264] * -0.000018057071853105897 + input[265] * 0.00003048022257414312 + input[266] * 0.00003757270219679612
    var9 = input[267] * 0.00008253536139814116
    var10 = var8 + var9 + input[268] * -0.00005533668724840579 + input[269] * 0.00009327301132732406 + input[270] * -0.0004452801647144072 + input[271] * -0.0006001705964481824 + input[272] * -0.00008258934230413624 + input[273] * -0.00027431564452352447 + input[274] * -0.0002344179611383254 + input[275] * -0.00015759927731000636 + input[276] * 0.00008262777639540155 + input[277] * -0.00011550151653587582 + input[278] * -0.0001827094112777887 + input[279] * -0.00014842777691999957 + input[280] * -0.000051513050417861177 + input[281] * -0.00007383760082373272 + input[282] * -0.000058056113238130916 + input[283] * 0.00007428704116795468 + input[284] * 0.00006737355609621821 + input[285] * -0.00000926320874367264 + input[286] * 0.00004675588923228642 + input[287] * 0.00016402622468844515 + input[288] * -0.0005645064849618621 + input[289] * -0.0010962721939130708 + input[290] * 0.0011889861697158067 + input[291] * -0.0005872980160741747 + input[292] * -0.00018979302148822396 + input[293] * 0.00006871660628186741 + input[294] * 0.0004234044913075946 + input[295] * -0.00023230808027077 + input[296] * -0.000022849618609019777 + input[297] * -0.00009909689551316953 + input[298] * 0.0003117365560602462 + input[299] * -0.00008680525100743018 + input[300] * 0.000009317338728584497 + input[301] * 0.00000857409290242021 + input[302] * 0.00008083545374429101 + input[303] * 0.00006190694700705307 + input[304] * 0.00002766990497195492 + input[305] * 0.00005258408749042135 + input[306] * 0.00030770953504816276 + input[307] * 0.0012467429706118196 + input[308] * -0.0000393196035335605 + input[309] * 0.00016803657815051728 + input[310] * 0.00019282947955752083 + input[311] * 0.000057263649971242915 + input[312] * 0.00005637164540450414 + input[313] * 0.00004181590818307007 + input[314] * 0.00003504368521108764 + input[315] * -0.000007624629094392862 + input[316] * 0.000052507463774952934 + input[317] * -0.000020402974089423616 + input[318] * 0.0000347156983910356 + input[319] * -0.000029369032486391462 + input[320] * -0.00002471414533765847 + input[321] * 0.000010995820392020789
    var11 = input[322] * -0.000019287624744671523
    var12 = var10 + var11 + input[323] * 0.00000031765550394506626 + input[324] * -0.0005118615635752136 + input[325] * -0.001071000943931778 + input[326] * 0.00008430020470404748 + input[327] * -0.0003148242973048741 + input[328] * -0.000249402344898685 + input[329] * -0.00014048704697386857 + input[330] * -0.00010178864870501231 + input[331] * -0.0001126528618778332 + input[332] * -0.00015030878988875256 + input[333] * -0.00011633137659839832 + input[334] * -0.0000914925742181429 + input[335] * -0.00011311376585089397 + input[336] * -0.00009444010992026505 + input[337] * -0.00014127978727222654 + input[338] * -0.00009045278659473604 + input[339] * -0.00005073319514985042 + input[340] * -0.000002717834084890052 + input[341] * -0.000051506270448540635 + input[342] * 0.002060320326088287 + input[343] * 0.00033699646454506056 + input[344] * 0.00021916482511462882 + input[345] * 0.00026141200780553073 + input[346] * 0.00003608751748550815 + input[347] * -0.00020677820697158594 + input[348] * 0.0001530471847119424 + input[349] * 0.000018422286118060296 + input[350] * -0.00013345454710024746 + input[351] * -0.00006417207124709044 + input[352] * -0.00007107057427319877 + input[353] * -0.000010899152512443011 + input[354] * -0.00005677061260798108 + input[355] * 0.00003220627756272015 + input[356] * -0.00007309009762053887 + input[357] * 0.00009562769826655101 + input[358] * 0.000058863532019270525 + input[359] * -0.00002592806520396725 + input[360] * -0.000717613944001868 + input[361] * 0.0012917019037044426 + input[362] * -0.00007627150748200301 + input[363] * 0.00009938685611041386 + input[364] * 0.00021091665110563844 + input[365] * 0.00007995025614266924 + input[366] * 0.00008136639449037099 + input[367] * -0.00003518277277118314 + input[368] * -0.00001777991892154133 + input[369] * -0.00004974888062952613 + input[370] * -0.00021999620249893385 + input[371] * -0.00005782676110039331 + input[372] * -0.000030081594112644916 + input[373] * -0.00006951962326976876 + input[374] * -0.00011417823150067066 + input[375] * -0.00004848400988118688 + input[376] * -0.00007734810023694054
    var13 = input[377] * -0.00008295094108180336
    var14 = 0.000001583202519606445 + input[0] * 0.00007062616607394068 + input[1] * 0.000759842779541775 + input[2] * 0.0005776967710128727 + input[3] * 0.0004287403265652076 + input[4] * 0.00046593379762067223 + input[5] * 0.0005567532711992747 + input[6] * 0.00043709487487150495 + input[7] * 0.00016735918594365583 + input[8] * 0.000048221231769676664 + input[9] * 0.00017188112759220663 + input[10] * 0.00018523920157180045 + input[11] * 0.0002345442875430132 + input[12] * 0.00025805451585617203 + input[13] * 0.00009505888734671584 + input[14] * 0.0001400185670604398 + input[15] * 0.00008243621595487709 + input[16] * 0.0001855550881778845 + input[17] * 0.00009933880463462083 + input[18] * -0.0008085038251931353 + input[19] * -0.0005618530986346849 + input[20] * 0.00012835751350156392 + input[21] * 0.00005247033546088683 + input[22] * -0.000057095489902241944 + input[23] * 0.00006978714892009975 + input[24] * 0.00011551155253828872 + input[25] * 0.00007957294467890908 + input[26] * 0.00010220142314948589 + input[27] * 0.00015412840945844354 + input[28] * 0.00009839815660130644 + input[29] * -0.000013492420161298608 + input[30] * 0.000043862841404046725 + input[31] * 0.00006102800890132871 + input[32] * -0.00003090239953238845 + input[33] * 0.00008325167422091164 + input[34] * 0.0000594562087974829 + input[35] * 0.00005775885679944342 + input[36] * 0.0008181552656736063 + input[37] * -0.0009873964141300753 + input[38] * -0.00016528892654143316 + input[39] * -0.0001337840793014046 + input[40] * -0.00019596172572066916 + input[41] * 0.00006074067255459436 + input[42] * 0.000009872471503544124 + input[43] * -0.000008744358794364234 + input[44] * 0.00008102991312970116 + input[45] * 0.00012733915479595575 + input[46] * 0.00002659660632384804
    var15 = input[47] * 0.000056396999143859886
    var16 = var14 + var15 + input[48] * 0.000051697822044930095 + input[49] * 0.000007648268246034948 + input[50] * -0.000009524933932412697 + input[51] * -0.000011927778871048235 + input[52] * 0.000027065565751767445 + input[53] * 0.00008586860219910251 + input[54] * -0.00045171689771273093 + input[55] * -0.0005465492678611319 + input[56] * -0.00007223088200063939 + input[57] * 0.0001008098327439377 + input[58] * 0.000060631959452389644 + input[59] * 0.00029307853595932575 + input[60] * 0.00008540355112782608 + input[61] * -0.0001408603900071568 + input[62] * -0.000047289729986425766 + input[63] * -0.00005834781135092686 + input[64] * -0.000015990770922775037 + input[65] * 0.000040090728988937524 + input[66] * 0.00009541809339822462 + input[67] * 0.000055227566639574236 + input[68] * 0.000008487386639126599 + input[69] * 0.000012536634610556992 + input[70] * -0.00001302899035354057 + input[71] * -0.000021481951569413922 + input[72] * -0.00018461646754690784 + input[73] * -0.0002807162604787413 + input[74] * -0.0005486744544726693 + input[75] * -0.00039127978336344385 + input[76] * 0.00010292310691200708 + input[77] * -0.00013929277076119294 + input[78] * -0.00005092611870823496 + input[79] * -0.00012565564547177774 + input[80] * -0.0001238726251719901 + input[81] * -0.00007192270843047752 + input[82] * -0.00008069027251964127 + input[83] * -0.00009554709603678681 + input[84] * -0.00013949836936291113 + input[85] * -0.00010929669315791299 + input[86] * -0.00005501889845630905 + input[87] * -0.00013576095111921926 + input[88] * -0.00010641969536693988 + input[89] * -0.00010600800866962081 + input[90] * 0.00018173218027722673 + input[91] * -0.00046841161734096417 + input[92] * -0.0004991845821194895 + input[93] * -0.00016382393554990036 + input[94] * 0.00003599687989056247 + input[95] * -0.0002327601750547414 + input[96] * -0.0000730383719902592 + input[97] * -0.00012193564507119781 + input[98] * -0.0001007710383113119 + input[99] * -0.00011154807514582188 + input[100] * -0.00007929073400808848 + input[101] * -0.00008069559665886018
    var17 = input[102] * -0.00007866924823059916
    var18 = var16 + var17 + input[103] * -0.00016645460953522832 + input[104] * -0.00010797093356259886 + input[105] * -0.00015610855251694657 + input[106] * -0.00010029908554065045 + input[107] * -0.00012528600151697134 + input[108] * 0.0005098080380638071 + input[109] * -0.0008061189395476723 + input[110] * -0.000592575014059771 + input[111] * -0.0002942259838805235 + input[112] * -0.00030649739255297377 + input[113] * -0.0002952463876000237 + input[114] * -0.00010885600836755481 + input[115] * -0.00007919091320597553 + input[116] * -0.00008800003353476303 + input[117] * -0.00009060254924347257 + input[118] * -0.000013681234468244233 + input[119] * -0.00011963972789914273 + input[120] * -0.00010433213119216019 + input[121] * -0.00008733818423439432 + input[122] * -0.000004648997485316751 + input[123] * 0.0000032760899135580524 + input[124] * 0.00014382319049493152 + input[125] * 0.00019380237140153333 + input[126] * 0.0020755240812251564 + input[127] * -0.0006658258804034604 + input[128] * 0.0007050862715659495 + input[129] * 0.0003573011943224542 + input[130] * 0.00009917528676565349 + input[131] * 0.0002280414127674429 + input[132] * 0.00016583497156085852 + input[133] * 0.00008381088225222947 + input[134] * 0.00005137884079961236 + input[135] * -0.0000067395782718542745 + input[136] * 0.00018235674051541602 + input[137] * 0.00003233638949018541 + input[138] * 0.00009720951116792355 + input[139] * 0.000044897965840350705 + input[140] * 0.00009776878172106997 + input[141] * 0.0000601866473522528 + input[142] * 0.0001048645917838084 + input[143] * 0.00003875279008223759 + input[144] * -0.0015394755745462235 + input[145] * -0.001034258364925939 + input[146] * 0.00004890465374828697 + input[147] * -0.0003239969960870424 + input[148] * 0.00012562692669445825 + input[149] * -0.00009014907351968327 + input[150] * -0.000044474287732678735 + input[151] * 0.000004542402698442844 + input[152] * -0.00010384229365113675 + input[153] * -0.00003295268365740624 + input[154] * -0.000013954557482524501 + input[155] * -0.00010898819272191158 + input[156] * 0.000004359696215032208
    var19 = input[157] * -0.000024805247529462527
    var20 = var18 + var19 + input[158] * 0.000004776971424729441 + input[159] * 0.0000018091347112823362 + input[160] * 0.00000015638178555002282 + input[161] * 0.00002441642518306265 + input[162] * -0.0003677846939005018 + input[163] * 0.0008185238959739426 + input[164] * 0.00014943813716916145 + input[165] * 0.00045801045134785044 + input[166] * 0.0005138598170799437 + input[167] * 0.000819274369164091 + input[168] * 0.00017895846885547135 + input[169] * 0.00031874686074824944 + input[170] * 0.00009588904898061442 + input[171] * 0.00023116940374474018 + input[172] * 0.00017677238273284616 + input[173] * 0.00017639679816405538 + input[174] * 0.00008821691363244029 + input[175] * 0.00012135019050671943 + input[176] * 0.00006070121219493261 + input[177] * 0.00013471683748877264 + input[178] * 0.00014770518177632585 + input[179] * 0.00015433287950440534 + input[180] * -0.0027387871037349936 + input[181] * 0.0026849949825242343 + input[182] * -0.0005135481736467043 + input[183] * 0.0001799014863569592 + input[184] * 0.0004400036187560025 + input[185] * 0.0005992620292321155 + input[186] * 0.00010008775862332547 + input[187] * 0.0004053338183324219 + input[188] * 0.0003312930770644386 + input[189] * 0.00016756119598229885 + input[190] * 0.00005444647563351656 + input[191] * 0.00029492233812688286 + input[192] * 0.00017329760252188272 + input[193] * 0.00017274334022107234 + input[194] * 0.00009997222259784441 + input[195] * 0.00020844139497429607 + input[196] * 0.0000883983341968182 + input[197] * 0.0001266837266184252 + input[198] * -0.000006197353372129134 + input[199] * -0.0005566148096492828 + input[200] * -0.00008000344151091307 + input[201] * 0.0002477210125708077 + input[202] * -0.00008547873439108062 + input[203] * 0.000019725339767672288 + input[204] * -0.000045295675057796486 + input[205] * -0.000056426446485252394 + input[206] * -0.000026272559322586322 + input[207] * 0.000006557132612190225 + input[208] * -0.00004862035374596559 + input[209] * -0.00007034815369550778 + input[210] * -0.00001337279050024428 + input[211] * -0.000014131054015414926
    var21 = input[212] * -0.000011080675897833796
    var22 = var20 + var21 + input[213] * -0.00002862025492705114 + input[214] * -0.000021085304557146452 + input[215] * -0.0000012491112603444424 + input[216] * -0.0002957862042311572 + input[217] * 0.0007877755051620287 + input[218] * -0.00011259838760698336 + input[219] * 0.000009334043971175982 + input[220] * 0.00023044991670941896 + input[221] * 0.0007995571441271399 + input[222] * 0.00026153384803473547 + input[223] * -0.00012571253473273687 + input[224] * -0.00007209527518068311 + input[225] * -0.00006408082058660328 + input[226] * 0.00005680796506646384 + input[227] * 0.00008279060153343812 + input[228] * 0.00005048552280789313 + input[229] * 0.00005083805690299984 + input[230] * 0.000014038769706814932 + input[231] * 0.000047718104375862065 + input[232] * 0.00008902319556750156 + input[233] * 0.00003490506334470061 + input[234] * -0.000008525851678737838 + input[235] * 0.0009326529725260997 + input[236] * 0.000019659742014859274 + input[237] * 0.0009858064807077567 + input[238] * 0.000011923600196470817 + input[239] * -0.00011161228537587132 + input[240] * 0.00031325212127470884 + input[241] * 0.000007342708991204342 + input[242] * -0.00011426061588821371 + input[243] * 0.00009726662354584725 + input[244] * -0.000011686447246460581 + input[245] * 0.00007905671190803819 + input[246] * -0.00003867886798728739 + input[247] * -0.000038515956424771514 + input[248] * 0.000024200019852780182 + input[249] * -0.0000287221069281921 + input[250] * -0.000045659176489331414 + input[251] * -0.000132485337584828 + input[252] * 0.000652555589319383 + input[253] * -0.0016173761539150413 + input[254] * 0.0007836913291369317 + input[255] * 0.00023268827922345126 + input[256] * 0.00014560268110302128 + input[257] * -0.0002806092817159219 + input[258] * 0.00005636636912934107 + input[259] * 0.00003528815271652978 + input[260] * -0.0001338956148592696 + input[261] * -0.0001594257672802266 + input[262] * 0.0000024004830396258973 + input[263] * -0.00007766417869162808 + input[264] * -0.00009637421911657018 + input[265] * -0.00009248598120762424 + input[266] * -0.00004920032846076798
    var23 = input[267] * -0.00008542012875242191
    var24 = var22 + var23 + input[268] * -0.00004081426565480599 + input[269] * -0.0001240866712371642 + input[270] * 0.00024054921587123726 + input[271] * 0.0007000313180389984 + input[272] * 0.00010166455491990393 + input[273] * 0.00016148849116453626 + input[274] * 0.0003838352620449313 + input[275] * 0.0003276904636095814 + input[276] * 0.00005871344370394875 + input[277] * 0.00007610537660038959 + input[278] * -0.00006509232039535065 + input[279] * -0.000018556723312974487 + input[280] * 0.00003966326350751171 + input[281] * -0.000018355882490627062 + input[282] * -0.000004809352072963457 + input[283] * -0.00006765715012709876 + input[284] * -0.00003896723982561955 + input[285] * 0.00006538989381169394 + input[286] * -0.00007250492427235754 + input[287] * -0.000002384764732762565 + input[288] * 0.0005024668956823756 + input[289] * 0.00018781816015188882 + input[290] * -0.0005710519235729101 + input[291] * 0.00031314553120203605 + input[292] * 0.00010138492998987277 + input[293] * -0.00004780921242923035 + input[294] * -0.0002589995687727141 + input[295] * 0.00007218441807262024 + input[296] * 0.000009134786742578648 + input[297] * 0.00002236535157188225 + input[298] * -0.00013716784733022866 + input[299] * 0.00007166071126708947 + input[300] * -0.000009179384561558509 + input[301] * -0.00000011620974407818665 + input[302] * -0.0000771712474746196 + input[303] * 0.000031561527916520935 + input[304] * -0.000029780990983934326 + input[305] * -0.000024579430298465875 + input[306] * 0.0004727240634201377 + input[307] * -0.0020725430591132746 + input[308] * -0.000012497506649147597 + input[309] * -0.00027301280905198035 + input[310] * -0.0002703920350244613 + input[311] * -0.00021913465249394628 + input[312] * -0.000043876933884256776 + input[313] * -0.000202564809721827 + input[314] * -0.0000885593382954812 + input[315] * -0.00007521480544025598 + input[316] * -0.000058564456310479965 + input[317] * -0.00009733227610225325 + input[318] * -0.00005918711383314543 + input[319] * -0.00006303833727431732 + input[320] * -0.0001370640628890246 + input[321] * -0.00004551950973996368
    var25 = input[322] * -0.000058346473352932826
    var26 = var24 + var25 + input[323] * -0.00006211179066089125 + input[324] * 0.0006941199510563827 + input[325] * 0.0003616017184506819 + input[326] * -0.00012307285456239852 + input[327] * 0.0001743712123524015 + input[328] * 0.00021419259948252226 + input[329] * 0.00015137667744628282 + input[330] * 0.000025133404872969736 + input[331] * 0.00002466169454783211 + input[332] * 0.00005315040316177632 + input[333] * 0.00008735100190509668 + input[334] * 0.00003169410114103427 + input[335] * 0.00004170930667592176 + input[336] * -0.000006179994810626257 + input[337] * 0.0000769675175406624 + input[338] * 0.00005326714626004573 + input[339] * 0.000026498916506308464 + input[340] * -0.00001633161246120563 + input[341] * -0.000011879668323110472 + input[342] * -0.00007802609012753888 + input[343] * 0.0003160034541161722 + input[344] * 0.0000638032872794141 + input[345] * 0.00020026470204439413 + input[346] * 0.00012460325066705595 + input[347] * -0.000016064259096564144 + input[348] * 0.00003743994372831488 + input[349] * 0.0001388596047840519 + input[350] * 0.000017499451151851086 + input[351] * 0.00001172548018506486 + input[352] * 0.00008742262011175028 + input[353] * 0.00018746280981394155 + input[354] * -0.000029282547397097995 + input[355] * 0.000020635338515468957 + input[356] * 0.00006811349316086736 + input[357] * 0.00003428875070492887 + input[358] * -0.0000696148019798397 + input[359] * 0.000017765443991642216 + input[360] * 0.0006354831997941302 + input[361] * -0.0008228362097530619 + input[362] * 0.00013796844279383624 + input[363] * -0.000052163140208764475 + input[364] * -0.000055954356259088256 + input[365] * -0.00016138638930404117 + input[366] * -0.000018126652256166632 + input[367] * -0.00008101226727988044 + input[368] * -0.00005569084135985703 + input[369] * 0.00013675777184008045 + input[370] * 0.0001561662043684116 + input[371] * 0.00011851578943172359 + input[372] * 0.000014515249450879506 + input[373] * 0.00004243902767128943 + input[374] * -0.0000003238826446503304 + input[375] * 0.00003327738432622627 + input[376] * 0.000046591418548365185
    var27 = input[377] * 0.000031416362106102006
    var28 = -0.000001124008626517305 + input[0] * -0.0002904623241984304 + input[1] * -0.00043937416741519263 + input[2] * -0.00022734081584602849 + input[3] * -0.0002077860053222048 + input[4] * -0.00020668999400691416 + input[5] * -0.00025182036373433474 + input[6] * -0.00019757056459577112 + input[7] * -0.00016751025236269113 + input[8] * -0.00015040381357542018 + input[9] * -0.00016019658727548658 + input[10] * -0.00016264763215906753 + input[11] * -0.00020431270535434864 + input[12] * -0.00017313558799524891 + input[13] * -0.00010750529677117829 + input[14] * -0.00012377244562041296 + input[15] * -0.0001621454757149241 + input[16] * -0.0001391870758728293 + input[17] * -0.00021722148413258228 + input[18] * 0.001259447460968879 + input[19] * 0.00011432749330199726 + input[20] * 0.001037952466815141 + input[21] * 0.0002748774360546975 + input[22] * -0.00006819673042047394 + input[23] * 0.0001645527769057173 + input[24] * 0.00013059209856297027 + input[25] * 0.0001595709739940039 + input[26] * -0.00005298805057058037 + input[27] * -0.00005216891158860308 + input[28] * 0.00009087856054838244 + input[29] * -0.000052441882805919446 + input[30] * 0.00009550674252581349 + input[31] * 0.000060624338319294916 + input[32] * 0.000030145660517450563 + input[33] * 0.000032443928956000164 + input[34] * 0.00000828670259433357 + input[35] * 0.00003631908203464104 + input[36] * -0.0002736889131625748 + input[37] * -0.001129210441105134 + input[38] * 0.0008271900331816073 + input[39] * 0.00014882642975503003 + input[40] * -0.0002660800515144097 + input[41] * 0.0000998092731456381 + input[42] * -0.000023176397199301004 + input[43] * -0.000054569761915036236 + input[44] * 0.00007292279884953529 + input[45] * 0.00005590679893606384 + input[46] * 0.000013049909028976758
    var29 = input[47] * -0.00005568246077748933
    var30 = var28 + var29 + input[48] * 0.00006329204412237038 + input[49] * 0.00008133644048869494 + input[50] * 0.00004092646469734162 + input[51] * 0.00009240428746013552 + input[52] * 0.00008996023932468945 + input[53] * -0.000026607439002997736 + input[54] * 0.0005630183274476458 + input[55] * 0.001024459798550589 + input[56] * 0.00033732924587791827 + input[57] * 0.00021291762458608182 + input[58] * 0.00009795468773858253 + input[59] * -0.00004569110571002492 + input[60] * -0.000011166285982877839 + input[61] * -0.000037451328486473005 + input[62] * 0.00004633125567000036 + input[63] * 0.000049399583344490835 + input[64] * 0.0000013191500176735564 + input[65] * 0.000007491847381806949 + input[66] * -0.000020662847403039767 + input[67] * 0.000004020481242886941 + input[68] * -0.00005032808285215621 + input[69] * -0.00004172106791868079 + input[70] * -0.0000565525462425715 + input[71] * -0.000025744124867068728 + input[72] * -0.00004963956878201727 + input[73] * 0.0002680731838107582 + input[74] * 0.0014030685411096958 + input[75] * 0.00042315180940393366 + input[76] * 0.00011798569628401551 + input[77] * 0.00019555945789279626 + input[78] * 0.0002587759993898854 + input[79] * 0.00020720258163387604 + input[80] * 0.00022753897312807126 + input[81] * 0.00008723272571386737 + input[82] * 0.00012423268882131094 + input[83] * 0.00013929695629554952 + input[84] * 0.0002558706820774086 + input[85] * 0.00013790401751557634 + input[86] * 0.00008383392227041554 + input[87] * 0.00013860641056888935 + input[88] * 0.0001389547627015168 + input[89] * 0.0001509615150849685 + input[90] * -0.0003222511881886203 + input[91] * 0.000352189856501863 + input[92] * 0.0012924084436409804 + input[93] * 0.00018038459809036352 + input[94] * 0.00014616655222255667 + input[95] * 0.00014944448616695656 + input[96] * 0.0000960986029537728 + input[97] * 0.00008468816225597011 + input[98] * 0.00023070096729437822 + input[99] * 0.00015400205748092766 + input[100] * 0.00013958916069191918 + input[101] * 0.0001390934369439874
    var31 = input[102] * 0.00013935834107765314
    var32 = var30 + var31 + input[103] * 0.0003292013573963716 + input[104] * 0.00021362794970312932 + input[105] * 0.00028226802500419263 + input[106] * 0.00024962927247173866 + input[107] * 0.0003104154466422647 + input[108] * -0.0003148788797163524 + input[109] * 0.0007920336552727798 + input[110] * 0.0005695459864380082 + input[111] * 0.0003555331715262838 + input[112] * 0.0003586464458950906 + input[113] * 0.00006885628545243799 + input[114] * 0.00015480406657179477 + input[115] * 0.0001526991552418264 + input[116] * 0.00008862767697911355 + input[117] * 0.00004828136127064656 + input[118] * 0.00005618236882433621 + input[119] * 0.00004758770401740464 + input[120] * 0.00009155654577222386 + input[121] * 0.000020266893250486055 + input[122] * 0.00000012451747919360322 + input[123] * 0.0000020078005020771782 + input[124] * -0.000019352805836503707 + input[125] * -0.00009820840994562913 + input[126] * -0.0002582132329645738 + input[127] * -0.002297190515786315 + input[128] * -0.0000517019817230995 + input[129] * -0.00019524016211748456 + input[130] * -0.0003994653227854992 + input[131] * -0.0006618456274439888 + input[132] * -0.0001032711898630832 + input[133] * -0.00020088454916133164 + input[134] * -0.00014145165426002353 + input[135] * -0.00017082789319856852 + input[136] * -0.0001712681056745869 + input[137] * -0.0000662603782851375 + input[138] * -0.00013736990606821393 + input[139] * -0.00013147604354205307 + input[140] * -0.00009432555092051117 + input[141] * -0.00010555071693333119 + input[142] * -0.00011758700466345148 + input[143] * -0.00009436923757509914 + input[144] * 0.0011731383828597142 + input[145] * -0.0002823670773290539 + input[146] * -0.00010081561222831251 + input[147] * -0.00020495737392887256 + input[148] * -0.00018401876980948082 + input[149] * -0.0000953905785758835 + input[150] * -0.00013802434016776385 + input[151] * -0.000027379010488886127 + input[152] * 0.000034353049422283094 + input[153] * 0.00003636928977313294 + input[154] * -0.00004670383693510063 + input[155] * 0.00007365377128334749 + input[156] * 0.00005456609680109946
    var33 = input[157] * -0.000008812755502234425
    var34 = var32 + var33 + input[158] * -0.000010113474684667363 + input[159] * -0.00003974988783090043 + input[160] * -0.0000282862377200964 + input[161] * -0.00002281892667588724 + input[162] * -0.0003049989578622928 + input[163] * -0.0005230125160685182 + input[164] * 0.00004937480737530153 + input[165] * -0.0002381619054086722 + input[166] * -0.00021938370963521436 + input[167] * -0.0003433993724441231 + input[168] * -0.00005197634556097065 + input[169] * -0.00011904954635798748 + input[170] * 0.000046852531998178046 + input[171] * -0.000009719068939569712 + input[172] * -0.000008476499027171006 + input[173] * -0.00006131184438816342 + input[174] * -0.000006931527300893487 + input[175] * -0.000005589089537038831 + input[176] * -0.000017546952011428648 + input[177] * -0.000028326195585070335 + input[178] * -0.00006274046965344394 + input[179] * -0.00007771963841462466 + input[180] * 0.001893693138817729 + input[181] * -0.002615395993950431 + input[182] * -0.0001795551681351663 + input[183] * -0.0003477182355571102 + input[184] * -0.00044527609477207553 + input[185] * -0.0005766575583704403 + input[186] * -0.00022618317219879754 + input[187] * -0.0003572427364754795 + input[188] * -0.0002889041811593933 + input[189] * -0.000251181606176881 + input[190] * -0.00020123524916431363 + input[191] * -0.00029217975725738684 + input[192] * -0.00024410038372519308 + input[193] * -0.00026265107045702875 + input[194] * -0.00019563895037113534 + input[195] * -0.00018301622146531585 + input[196] * -0.000219245961600904 + input[197] * -0.00021733011620276766 + input[198] * -0.0005014378452047483 + input[199] * -0.0005158680124653355 + input[200] * 0.00025646217682522135 + input[201] * -0.000008485841915636405 + input[202] * 0.00006414345981294092 + input[203] * -0.000010678324228898262 + input[204] * 0.0001457920317098903 + input[205] * 0.000050986816593929184 + input[206] * 0.000027809323752617472 + input[207] * 0.00002540392071598822 + input[208] * 0.00006703589210948284 + input[209] * 0.00008465086457703324 + input[210] * 0.00009365563469027138 + input[211] * 0.000028578630887801825
    var35 = input[212] * 0.00003540172373696795
    var36 = var34 + var35 + input[213] * 0.00006921577464254066 + input[214] * 0.00001558580905575323 + input[215] * 0.00004791517795333161 + input[216] * -0.0002757776520741994 + input[217] * -0.0003446134821115509 + input[218] * -0.00013069487772791964 + input[219] * -0.00017593010763088926 + input[220] * -0.0003082618964565801 + input[221] * -0.0004614635257454847 + input[222] * -0.00019741441722014207 + input[223] * -0.00009912090522618484 + input[224] * -0.00019790514219915822 + input[225] * -0.00010262582324134125 + input[226] * -0.000117544089988466 + input[227] * -0.00015694623426986296 + input[228] * -0.0001439570907538765 + input[229] * -0.00008392111859368442 + input[230] * -0.00016781743769029954 + input[231] * -0.00018957884930808898 + input[232] * -0.0001909725060342249 + input[233] * -0.00017529655604040187 + input[234] * -0.001014509643739686 + input[235] * -0.00011350400630887004 + input[236] * 0.0005471019378204623 + input[237] * -0.00041505761148608424 + input[238] * 0.0004306868913229291 + input[239] * -0.000081960033893778 + input[240] * 0.00002645656986334766 + input[241] * 0.00014258247434126474 + input[242] * 0.00004528709356086976 + input[243] * -0.00003222285922332659 + input[244] * 0.00005244462678082885 + input[245] * 0.0001572245007746873 + input[246] * -0.000019655980318721542 + input[247] * 0.0000889230150614498 + input[248] * 0.0000022273220551819057 + input[249] * 0.00004092967336326922 + input[250] * 0.000040983782015900844 + input[251] * -0.00011868664411569152 + input[252] * 0.0010907561617770176 + input[253] * 0.00023248145509867035 + input[254] * -0.00005162340894669796 + input[255] * -0.000009038862856177708 + input[256] * 0.00023179124789278528 + input[257] * -0.0004329576984984501 + input[258] * 0.00009134068146796572 + input[259] * 0.00004567888656706969 + input[260] * 0.000014666321142322221 + input[261] * 0.0000006468348523690518 + input[262] * 0.00003381702404263621 + input[263] * 0.0000028360830199645 + input[264] * 0.0000887419881981676 + input[265] * 0.00003714053526168715 + input[266] * -0.000008486764344464708
    var37 = input[267] * -0.00001785602718880687
    var38 = var36 + var37 + input[268] * 0.00007507393411975344 + input[269] * 0.000009399331445517165 + input[270] * -0.000056252225929400937 + input[271] * -0.00020664359671400715 + input[272] * -0.00008362062666183504 + input[273] * 0.000052848838933013587 + input[274] * -0.00022302060363730829 + input[275] * -0.0002279222452169227 + input[276] * -0.00018043727369158842 + input[277] * -0.0000018012590872724263 + input[278] * 0.0002053726697328056 + input[279] * 0.0001281687608566923 + input[280] * -0.000017078568864312154 + input[281] * 0.00006528486390608524 + input[282] * 0.000035686992675811665 + input[283] * -0.00003072490510618559 + input[284] * -0.00005396966531392866 + input[285] * -0.00008535522611858134 + input[286] * -0.0000056881323517792914 + input[287] * -0.00019102315347702383 + input[288] * -0.00008933131546712648 + input[289] * 0.0007144647867900787 + input[290] * -0.0006968882308123024 + input[291] * 0.0001960980908343329 + input[292] * 0.00003615902215708995 + input[293] * -0.00006447553697964034 + input[294] * -0.00021427742625872265 + input[295] * 0.00011913451562172202 + input[296] * -0.00002150867182868998 + input[297] * 0.00003817521248761045 + input[298] * -0.0002046824187142861 + input[299] * -0.0000147242187522546 + input[300] * -0.00002868059288577211 + input[301] * -0.000035211335719862126 + input[302] * -0.00003072111548256515 + input[303] * -0.00011984717304548661 + input[304] * -0.0000224190357475972 + input[305] * -0.000054656263498756566 + input[306] * -0.0009793633794492617 + input[307] * 0.0006955402176428103 + input[308] * -0.000014544334968476754 + input[309] * 0.00004817320949657955 + input[310] * 0.000029129566005069682 + input[311] * 0.00012629794804655948 + input[312] * -0.00004907157562768409 + input[313] * 0.00013163794395801065 + input[314] * 0.000024514770561158663 + input[315] * 0.000055537353081343975 + input[316] * -0.000016426993024754665 + input[317] * 0.00009194121593275663 + input[318] * 0.000003821811875070092 + input[319] * 0.00006829872959407399 + input[320] * 0.00013946895333003938 + input[321] * 0.000013356433323599998
    var39 = input[322] * 0.000055910724141141715
    var40 = var38 + var39 + input[323] * 0.0000415721510545542 + input[324] * -0.000490847419541092 + input[325] * 0.0005780453553841874 + input[326] * -0.000025305825263430214 + input[327] * 0.00008528054611030898 + input[328] * -0.00001639418631441084 + input[329] * -0.00004992366869316287 + input[330] * 0.00004066556638180346 + input[331] * 0.00006196002063385528 + input[332] * 0.00006920424856120911 + input[333] * 0.000003924133514438215 + input[334] * 0.000035071102715820275 + input[335] * 0.00004741506822914259 + input[336] * 0.00007994046961166043 + input[337] * 0.000039340401066415504 + input[338] * 0.000011839540138940573 + input[339] * -0.0000004833422104883831 + input[340] * -0.000007412552768749222 + input[341] * 0.000027948513301183453 + input[342] * -0.0020782179783231554 + input[343] * -0.0008550182033654675 + input[344] * -0.000379649610598858 + input[345] * -0.0005156856182349331 + input[346] * -0.00021855442955347686 + input[347] * 0.0001588800663690682 + input[348] * -0.00023145461822781196 + input[349] * -0.00019637028166386217 + input[350] * 0.00007079183718788203 + input[351] * 0.000011480424317341636 + input[352] * -0.000052564738711747446 + input[353] * -0.00021183551074993134 + input[354] * 0.00004844922890641626 + input[355] * -0.00008337102616326035 + input[356] * -0.000030045323607596274 + input[357] * -0.00015806405026283192 + input[358] * -0.00001629645737047381 + input[359] * -0.000021977117703873174 + input[360] * -0.00019457349916931864 + input[361] * -0.0006089834926187816 + input[362] * -0.00016066308744441533 + input[363] * -0.00010338026217232509 + input[364] * -0.00020685992893047661 + input[365] * 0.000033518490216939246 + input[366] * -0.00010020439178347966 + input[367] * 0.00007656189685679101 + input[368] * 0.00003843125281866631 + input[369] * -0.00012849855407500818 + input[370] * 0.000015165226918619259 + input[371] * -0.00009597654210197903 + input[372] * -0.000015686668906991122 + input[373] * -0.000005087389693782964 + input[374] * 0.00008276870277493732 + input[375] * -0.000015744983126836353 + input[376] * -0.0000023971714264235313
    var41 = input[377] * 0.000020425552036456832
    return [var12 + var13 + input[378] * -0.0002266730455817907 + input[379] * -0.00031054867768983866 + input[380] * 0.00006626389096350566 + input[381] * 0.00003300785234789119 + input[382] * -0.00005406832199966022 + input[383] * -0.00022730216732840065 + input[384] * 0.00012326821569276882 + input[385] * 0.00008007566777341006 + input[386] * 0.00009166625881329672 + input[387] * 0.000017774372998899833 + input[388] * 0.000050955601089562086 + input[389] * 0.00005568495291156979 + input[390] * 0.00016184780942842184 + input[391] * -0.00003599063769658017 + input[392] * -0.000027460836156893326 + input[393] * 0.000043191809226090116 + input[394] * 0.00003932570201088278 + input[395] * 0.000056389503614828054 + input[396] * -0.0005042225181268117 + input[397] * -0.00011483015906112322 + input[398] * -0.00020290393780636898 + input[399] * -0.00018528429439571941 + input[400] * -0.00019195250754326675 + input[401] * -0.00011182038335771619 + input[402] * -0.00018590661764502286 + input[403] * -0.000056732117478692896 + input[404] * -0.00011330393111688181 + input[405] * -0.000024232703774064824 + input[406] * -0.00006445942957609944 + input[407] * -0.00008827467403936717 + input[408] * -0.00007223731898825442 + input[409] * -0.00009573654750401502 + input[410] * -0.00009048867627685554 + input[411] * 0.0000033527111577181046 + input[412] * -0.00006595743635748609 + input[413] * -0.000016352232575885402 + input[414] * 0.00013532952760994052 + input[415] * 0.00048781582540227025 + input[416] * -0.00042460222606460285 + input[417] * 0.0000021638292519069324 + input[418] * -0.00006958005481288488 + input[419] * 0.000020005771483725044 + input[420] * -0.000054342796616100554 + input[421] * 0.000022945884028731482 + input[422] * -0.00009804807907087155 + input[423] * -0.000033546638570379856 + input[424] * -0.00003099640108583879 + input[425] * -0.00004610063660949619 + input[426] * -0.000038730996901562063 + input[427] * -0.00001111754832621093 + input[428] * -0.000044975516556753456 + input[429] * -0.00014502214208812327 + input[430] * -0.00006819948179551463 + input[431] * -0.0001833634543706174, var26 + var27 + input[378] * 0.0005349889373639729 + input[379] * 0.0005703687918582101 + input[380] * 0.0003378087620276876 + input[381] * 0.0003350280234981066 + input[382] * 0.0004302533349925638 + input[383] * 0.000692756199022717 + input[384] * 0.00006473147125844408 + input[385] * 0.00007448945860428569 + input[386] * 0.00012112420324352192 + input[387] * 0.0001334792080059476 + input[388] * 0.000055477112758316 + input[389] * 0.00013191039895995763 + input[390] * 0.000035739458213611075 + input[391] * 0.00015239050333670144 + input[392] * 0.0001549752982503852 + input[393] * 0.00011452327599339021 + input[394] * 0.00013697499109269586 + input[395] * 0.00007567312958503665 + input[396] * -0.0006853764145675704 + input[397] * -0.0006048455190308605 + input[398] * -0.0006971750514674035 + input[399] * -0.00027476191164516224 + input[400] * -0.0000971284756638262 + input[401] * -0.00030742294860606724 + input[402] * -0.0001325545015490736 + input[403] * -0.0001398253442422514 + input[404] * -0.00012676583869707553 + input[405] * -0.0000959649442722007 + input[406] * -0.00006966934800157149 + input[407] * -0.00010038544962946789 + input[408] * -0.00009078428265299181 + input[409] * -0.00013912852324308544 + input[410] * 0.000007855945720967904 + input[411] * -0.00009184721580575447 + input[412] * -0.0000690853355931796 + input[413] * -0.00009802953526348115 + input[414] * -0.0010766994951641538 + input[415] * -0.0008916501391634097 + input[416] * -0.00023328780599478566 + input[417] * -0.00014890842586273907 + input[418] * -0.000027187966039334853 + input[419] * -0.00010485203921469679 + input[420] * -0.00007840469740671658 + input[421] * -0.00003525052271183281 + input[422] * -0.00004147444019379948 + input[423] * -0.000029212940960229633 + input[424] * -0.00003538824061022785 + input[425] * -0.000044289170328131105 + input[426] * -0.000030229700214719772 + input[427] * -0.000030177913723457945 + input[428] * -0.00005955117949410524 + input[429] * -0.00009771107792735725 + input[430] * -0.00006008117383277902 + input[431] * -0.00019559325678093444, var40 + var41 + input[378] * -0.0005775762502410562 + input[379] * -0.00035695581545488406 + input[380] * -0.00046702279390107264 + input[381] * -0.0004196135610984822 + input[382] * -0.00043229090349984124 + input[383] * -0.0005316722056266015 + input[384] * -0.00021216843055543185 + input[385] * -0.00017864564667343535 + input[386] * -0.00023790117374365775 + input[387] * -0.00017473206229709167 + input[388] * -0.0001251860858563117 + input[389] * -0.00021260503817106395 + input[390] * -0.00021581358502135162 + input[391] * -0.00013827771574764308 + input[392] * -0.00015161124538559486 + input[393] * -0.00017864603981668993 + input[394] * -0.00019933484762732666 + input[395] * -0.00015102273737193164 + input[396] * 0.0009965047800256758 + input[397] * 0.0006350565719194652 + input[398] * 0.0008083252087144181 + input[399] * 0.00041292353517169455 + input[400] * 0.0002279819170287754 + input[401] * 0.00037822607950827627 + input[402] * 0.00027899593132912415 + input[403] * 0.00015958013280857825 + input[404] * 0.00020739698617941598 + input[405] * 0.00009113750129734679 + input[406] * 0.00010601511416087987 + input[407] * 0.00016225259993129607 + input[408] * 0.00013468295049287523 + input[409] * 0.0002113663419414311 + input[410] * 0.00005393647082668232 + input[411] * 0.00006540782617271354 + input[412] * 0.00010889618757242353 + input[413] * 0.00008789843491650811 + input[414] * 0.0007752536096892868 + input[415] * 0.00034795703869202856 + input[416] * 0.0005583474026331087 + input[417] * 0.00009054781234985055 + input[418] * 0.00005083133568806173 + input[419] * 0.000044769185867637075 + input[420] * 0.00009522320538033488 + input[421] * -0.000019927078757807802 + input[422] * 0.00010649912580307302 + input[423] * 0.000034620055436509045 + input[424] * 0.000040583464680837456 + input[425] * 0.00006502157932193474 + input[426] * 0.00004479424594566911 + input[427] * 0.000019202285429682412 + input[428] * 0.00008233092681959106 + input[429] * 0.0002165355974040551 + input[430] * 0.00010460125940332987 + input[431] * 0.0003517437636418957]
