def score(input):
    var0 = 0.0000003028089673538623 + input[0] * -0.0006742174572034971 + input[1] * -0.00011264187149205912 + input[2] * 0.0005870849094770053 + input[3] * 0.001347429758801118 + input[4] * 0.0006035577254260818 + input[5] * 0.0006013921001631486 + input[6] * 0.0008324658982958753 + input[7] * -0.0013405216833778063 + input[8] * -0.0005707414468600654 + input[9] * -0.0007097733358623153 + input[10] * 0.00006283380124857301 + input[11] * -0.0002617090525493982 + input[12] * -0.0004878372439499169 + input[13] * -0.00037624360303011825 + input[14] * 0.0007348769673742487 + input[15] * -0.00031851504808730157 + input[16] * 0.0003900976029031797 + input[17] * 0.0003991127500020171 + input[18] * 0.00012064222204195709 + input[19] * 0.00032955526485935486 + input[20] * 0.0003896214054496401 + input[21] * 0.00033812790070962984 + input[22] * -0.0014686293789336 + input[23] * -0.0019496664093317502 + input[24] * -0.0006446950575104272 + input[25] * -0.0006275547271760627 + input[26] * -0.0003251021452382728 + input[27] * 0.00009637276555829688 + input[28] * -0.0020907428201416525 + input[29] * -0.0019203596432587366 + input[30] * -0.0011813130357334449 + input[31] * -0.000842400351608541 + input[32] * -0.0005889223900146293 + input[33] * -0.0004958798603538452 + input[34] * -0.0005794286397487797
    var1 = input[35] * -0.003229013933757867
    var2 = var0 + var1 + input[36] * -0.002208985748777615 + input[37] * -0.0016256487096266647 + input[38] * -0.001853599400560438 + input[39] * -0.0012275385282449842 + input[40] * -0.0009747991294805293 + input[41] * -0.0009930532136655085 + input[42] * -0.0008970222902279795 + input[43] * 0.00013582931663346426 + input[44] * 0.0001250816857964768 + input[45] * 0.0005861142629350989 + input[46] * 0.00021538490853997846 + input[47] * 0.0004116768089516984 + input[48] * 0.0003225781926695919 + input[49] * -0.0009457967352136336 + input[50] * -0.00046000543273851124 + input[51] * -0.0007073826770598199 + input[52] * 0.00031021210125844627 + input[53] * 0.00022410132803839857 + input[54] * 0.0000028392498114680224 + input[55] * -0.00011136933656721196 + input[56] * -0.001994087675064905 + input[57] * -0.0018080817631798082 + input[58] * -0.0019136107248587388 + input[59] * -0.00048626718929229654 + input[60] * -0.0010038551285943458 + input[61] * -0.000783154032084729 + input[62] * -0.0010748075104640995 + input[63] * -0.0004975038338133542 + input[64] * -0.0008252055581339118 + input[65] * -0.0010419641151972567 + input[66] * -0.000007603650928165049 + input[67] * 0.000254360908228146 + input[68] * -0.00025988418106294046 + input[69] * -0.000127963579019949 + input[70] * -0.001759101099312695 + input[71] * -0.000249729643857131 + input[72] * -0.00003730669969438267 + input[73] * -0.0004472026779703187 + input[74] * 0.00014462662709088093 + input[75] * 0.00034125057709854097 + input[76] * 0.0002878875567482589 + input[77] * -0.0006095895037143564 + input[78] * 0.00017261524488822248 + input[79] * 0.00034517490622186953 + input[80] * 0.000030032248865345425 + input[81] * 0.0001382123179612625 + input[82] * 0.00010866282593723845 + input[83] * -0.00009127101142327753 + input[84] * 0.0021539057436653227 + input[85] * 0.00039489338542243675 + input[86] * -0.0000826532035850231 + input[87] * -0.001145024871203159 + input[88] * -0.0008419000745337212 + input[89] * -0.000919233770708335
    var3 = input[90] * -0.0010336404517181724
    var4 = var2 + var3 + input[91] * 0.0014053075842836587 + input[92] * -0.000515929797650883 + input[93] * -0.000387908127661995 + input[94] * -0.0007085105685934693 + input[95] * -0.000537970835394077 + input[96] * -0.00042559935489625965 + input[97] * -0.00046759696586665714 + input[98] * 0.0016768716634872902 + input[99] * 0.0012017398023714907 + input[100] * 0.0013856078234248846 + input[101] * 0.0010170937327094152 + input[102] * 0.0008067814959514355 + input[103] * 0.000773940884672544 + input[104] * 0.0007904039994331633 + input[105] * -0.0004883401550257124 + input[106] * -0.0007578927193124933 + input[107] * 0.000661383867348376 + input[108] * 0.0004052922401284166 + input[109] * -0.00017350058732212045 + input[110] * 0.00023565371716886835 + input[111] * -0.00004290389261366322 + input[112] * -0.0009627337107370026 + input[113] * -0.0006971267142520821 + input[114] * 0.00009786266944651104 + input[115] * 0.0005758224602330717 + input[116] * 0.0002122179232825915 + input[117] * 0.0000394490876830681 + input[118] * 0.000022902435247669393 + input[119] * -0.00007798625014814565 + input[120] * 0.00036337444533261987 + input[121] * 0.00034636296160995374 + input[122] * 0.0003667839063364471 + input[123] * 0.00017475646680478288 + input[124] * 0.00040657940040428277 + input[125] * 0.0009660874094575837 + input[126] * -0.001183537515919299 + input[127] * -0.0003887317590017853 + input[128] * -0.0005925412073052468 + input[129] * -0.0006523538411152922 + input[130] * -0.00017078419941375116 + input[131] * -0.00024910165172594274 + input[132] * -0.00034204479987098196 + input[133] * -0.003978228688023461 + input[134] * -0.0029809260495876084 + input[135] * -0.0022214000316528584 + input[136] * -0.0007658655365628597 + input[137] * -0.0005637099361884784 + input[138] * -0.0003246940778664124 + input[139] * -0.0003201935396446077 + input[140] * -0.002843669555309684 + input[141] * -0.0017945592471868513 + input[142] * -0.0012894266615442172 + input[143] * -0.0008208225963834502 + input[144] * -0.0005714958448624518
    var5 = input[145] * -0.0004716129684353344
    var6 = var4 + var5 + input[146] * -0.0004970962498381145 + input[147] * 0.0003954312690853746 + input[148] * -0.000008128084684619867 + input[149] * -0.00022314386214510704 + input[150] * 0.0001472129249421084 + input[151] * -0.00010568235555846075 + input[152] * -0.00001641337421196092 + input[153] * -0.00010479716684953474 + input[154] * 0.0018431681271198084 + input[155] * -0.0008488607380429141 + input[156] * 0.00016449024960004811 + input[157] * 0.00030773639727328287 + input[158] * 0.00003757006688911524 + input[159] * -0.000399390572384861 + input[160] * -0.00014392519442255947 + input[161] * 0.0001841793547277628 + input[162] * -0.0009553581568370263 + input[163] * -0.00016998621764600908 + input[164] * -0.00017854059212346344 + input[165] * 0.0001477472348462768 + input[166] * 0.000004529763012791303 + input[167] * 0.00025614320859591595 + input[168] * -0.0006444369827242169 + input[169] * -0.0018516638456815774 + input[170] * -0.0005597917427468845 + input[171] * -0.0005139581895755835 + input[172] * -0.0002795175957471562 + input[173] * -0.0008083768909022662 + input[174] * -0.0010690805942334396 + input[175] * -0.00020318921215490882 + input[176] * -0.001006898862426081 + input[177] * -0.00014976670076900136 + input[178] * -0.0006478192947679648 + input[179] * -0.0004805418357026966 + input[180] * -0.0006248708330208133 + input[181] * -0.0009484957765224787 + input[182] * 0.00013921982753827903 + input[183] * 0.00028698684941712294 + input[184] * 0.0002377604430528384 + input[185] * 0.00002993012483081528 + input[186] * 0.0002368926680847829 + input[187] * -0.00021643020461953606 + input[188] * -0.00012754060733432282 + input[189] * 0.0012122730198049843 + input[190] * 0.0000379000265356048 + input[191] * 0.0013165074924699194 + input[192] * 0.00019103842858007077 + input[193] * 0.00010151580607355916 + input[194] * -0.000022425443160208243 + input[195] * -0.00021826980251949985 + input[196] * -0.0007754506338359874 + input[197] * -0.0005518074437145153 + input[198] * -0.0003608237364297494 + input[199] * -0.0009117801801976357
    var7 = input[200] * -0.0005708890615219467
    var8 = var6 + var7 + input[201] * -0.0002711336948672843 + input[202] * -0.0009476189565238169 + input[203] * 0.001137590260851964 + input[204] * -0.0008086260251722531 + input[205] * -0.000611904863083003 + input[206] * -0.0002657265658564077 + input[207] * -0.0006911106347012403 + input[208] * -0.0004709103910447823 + input[209] * -0.0004966834240683229 + input[210] * 0.0012847636276317118 + input[211] * 0.00023205600773901707 + input[212] * 0.00009605780239908114 + input[213] * -0.00026148013570874044 + input[214] * -0.000041877915506144045 + input[215] * -0.00037126683973555126 + input[216] * -0.000989695076810474 + input[217] * -0.0026062042034285964 + input[218] * -0.0007932639353991354 + input[219] * -0.00034499573471126894 + input[220] * -0.00020683508616513532 + input[221] * -0.00006957563351729816 + input[222] * -0.00014917205430799564 + input[223] * 0.0001360238612272727 + input[224] * -0.0016589895444066884 + input[225] * -0.0003474516656513138 + input[226] * -0.00025284486408789434 + input[227] * -0.0006125165165825412 + input[228] * -0.000008913243181327259 + input[229] * 0.00019164654499608834 + input[230] * -0.000642535173681862 + input[231] * 0.0015835783979775316 + input[232] * -0.00013529917807688125 + input[233] * 0.0006161856990736385 + input[234] * 0.0005266074375927291 + input[235] * 0.0002526965534895774 + input[236] * 0.0002842129301495777 + input[237] * 0.0004764599308288023 + input[238] * -0.00023389195676357623 + input[239] * -0.0016797413470204412 + input[240] * 0.000018316371705089037 + input[241] * 0.0005680832024130423 + input[242] * -0.00027627059004336644 + input[243] * 0.00035862577926559005 + input[244] * 0.00017441529445720312 + input[245] * -0.003061593684799341 + input[246] * -0.0019187551776962334 + input[247] * 0.00039594076564320845 + input[248] * 0.00039855533048994724 + input[249] * 0.00001189166476610053 + input[250] * 0.0004565281529941674 + input[251] * 0.00022786118920235676 + input[252] * -0.0006801650359716589 + input[253] * -0.0009737275738405549 + input[254] * 0.0005403173147160199
    var9 = input[255] * 0.0006624628212680681
    var10 = var8 + var9 + input[256] * 0.000303001152736503 + input[257] * 0.00004360700535476206 + input[258] * 0.00044317607318668543 + input[259] * -0.00031355775095488953 + input[260] * -0.00019636569135258837 + input[261] * -0.0003041549650537696 + input[262] * 0.00007874799775881034 + input[263] * 0.00026363811545054725 + input[264] * 0.0002279382873965022 + input[265] * 0.0003580766137965247 + input[266] * -0.0013190328145247913 + input[267] * 0.00009171103534329736 + input[268] * 0.000624031714872085 + input[269] * 0.00036646861789351603 + input[270] * 0.0002885245925696883 + input[271] * 0.00011015529418868683 + input[272] * 0.000025256135862930298 + input[273] * -0.001546509035524552 + input[274] * 0.0007993034991809518 + input[275] * 0.0006967416073081421 + input[276] * 0.0005100301876707109 + input[277] * 0.00045611235464176566 + input[278] * 0.00034222817744039823 + input[279] * 0.0002532961598359549 + input[280] * -0.002239429655612338 + input[281] * 0.0009635817491432617 + input[282] * 0.0007116926677224215 + input[283] * 0.0006638166058826374 + input[284] * 0.0003466085237972644 + input[285] * 0.00024084343391947622 + input[286] * 0.00017423572696916348 + input[287] * 0.0014363139637026505 + input[288] * 0.0009383326501865659 + input[289] * 0.0004970119213706183 + input[290] * 0.000009043480190804172 + input[291] * -0.000457290748435924 + input[292] * -0.0002359747515611649 + input[293] * -0.00007210400826036461 + input[294] * 0.0006425154420423747 + input[295] * 0.00039448570719781526 + input[296] * 0.0004793275293207271 + input[297] * 0.0003158636205178324 + input[298] * 0.00022123718577646268 + input[299] * -0.00003985367769582479 + input[300] * -0.00021604387801072483 + input[301] * 0.0018645413136861644 + input[302] * 0.00003363551727647035 + input[303] * 0.00048639889506820215 + input[304] * -0.00037041334979965565 + input[305] * -0.00016178515501987444 + input[306] * -0.00016911309886583873 + input[307] * 0.00006292006460268109 + input[308] * 0.0010739908384908552 + input[309] * -0.000724440874235238
    var11 = input[310] * -0.0007403262019457262
    var12 = var10 + var11 + input[311] * -0.0006703061495049397 + input[312] * -0.0005162143699089979 + input[313] * -0.00016918472432479707 + input[314] * 0.000050292862270546684 + input[315] * -0.001066463129065979 + input[316] * -0.000326777581948425 + input[317] * -0.0006574131271431851 + input[318] * -0.0005945380724444145 + input[319] * -0.0004504048476933847 + input[320] * -0.0004293201151694608 + input[321] * -0.0007036528300115788 + input[322] * 0.00021521443947953412 + input[323] * -0.00009522905617505212 + input[324] * -0.0003753207942609905 + input[325] * -0.0006368455347145804 + input[326] * -0.0005944478704637451 + input[327] * -0.0006841741848050572 + input[328] * -0.0008997772894616727 + input[329] * 0.00018255340472377328 + input[330] * 0.000023651810661451695 + input[331] * -0.00014463120625731756 + input[332] * -0.00010255766172917196 + input[333] * -0.00007960772654221987 + input[334] * -0.000226633523941066 + input[335] * -0.00036295680865340205 + input[336] * -0.0000025584902937278207 + input[337] * -0.001864203755129038 + input[338] * -0.001625411878525292 + input[339] * -0.0005176701042235302 + input[340] * -0.0004839367211880255 + input[341] * -0.00029081673383706187 + input[342] * -0.00006557522530961791 + input[343] * 0.0013057332876894004 + input[344] * -0.0005462432023184642 + input[345] * -0.00095267366870152 + input[346] * -0.0012464252369797492 + input[347] * -0.0004548747212353498 + input[348] * -0.00030470976194890204 + input[349] * -0.0002863027068518119 + input[350] * 0.0068814900232945135 + input[351] * 0.001823511057443013 + input[352] * 0.00013538860602445017 + input[353] * 0.0003774175650419598 + input[354] * 0.0002771569295951474 + input[355] * 0.00047053339741005173 + input[356] * 0.00028691596348236914 + input[357] * 0.0006588351401239445 + input[358] * 0.001536752308680777 + input[359] * 0.0005307405055655907 + input[360] * 0.0003985216657326781 + input[361] * 0.0006874975990297692 + input[362] * 0.0010522189744629482 + input[363] * 0.0006921772698650707 + input[364] * 0.002515897665624666
    var13 = input[365] * 0.0004981707815621602
    var14 = 0.0000042579788422261305 + input[0] * 0.0015652792071770092 + input[1] * 0.00033305539585754576 + input[2] * -0.00031362170504262344 + input[3] * -0.0007167291978434628 + input[4] * -0.00027582720369230854 + input[5] * -0.0005252651832160814 + input[6] * -0.0005434941839512345 + input[7] * 0.0028408984821140636 + input[8] * 0.000998979177156237 + input[9] * 0.00062049247480491 + input[10] * 0.00011579863979154756 + input[11] * 0.0008706424833501112 + input[12] * 0.0008319234982788887 + input[13] * 0.0008020509142116348 + input[14] * -0.0018833081487376793 + input[15] * 0.00030974658281180886 + input[16] * 0.00023885392395786193 + input[17] * -0.00022057575893803216 + input[18] * 0.0004409168950548419 + input[19] * 0.00018117738688801176 + input[20] * 0.00018586848096367015 + input[21] * 0.0016636722338360932 + input[22] * 0.0028142955479800846 + input[23] * 0.0034913504380445627 + input[24] * 0.0013786144003215572 + input[25] * 0.0016640752007939781 + input[26] * 0.001022792769631867 + input[27] * 0.0007883600323454061 + input[28] * 0.001464601715703539 + input[29] * 0.0027212941691996642 + input[30] * 0.0016878218546205895 + input[31] * 0.0013820137356691839 + input[32] * 0.0010931606869985003 + input[33] * 0.0008674020367194327 + input[34] * 0.0008753929473723067
    var15 = input[35] * -0.0001067376744771368
    var16 = var14 + var15 + input[36] * 0.001443360964505334 + input[37] * 0.0013056610291677841 + input[38] * 0.0019737359598790936 + input[39] * 0.0012054063980040917 + input[40] * 0.001077945572892117 + input[41] * 0.001152510259235517 + input[42] * -0.0012114803296012868 + input[43] * -0.0006071978264026148 + input[44] * -0.0004951809671702328 + input[45] * -0.00028656766883327646 + input[46] * -0.0003493292522660785 + input[47] * -0.00033002122439429005 + input[48] * -0.00022111276535487627 + input[49] * -0.001988901614583505 + input[50] * -0.0008125082519917533 + input[51] * -0.0005297300482593455 + input[52] * -0.0006357782693857199 + input[53] * -0.0004919859513694122 + input[54] * -0.00020742279626768562 + input[55] * -0.00020515055163525966 + input[56] * 0.0007522628078062147 + input[57] * -0.0011771232512825193 + input[58] * 0.0002755774001263646 + input[59] * -0.0003109768888501786 + input[60] * -0.00012371042695854108 + input[61] * -0.0005386016526932193 + input[62] * 0.000016857194804751385 + input[63] * 0.0011990092493233346 + input[64] * -0.0007639554280101849 + input[65] * -0.000020335513455989983 + input[66] * -0.0010896504416372096 + input[67] * -0.0005980413778117281 + input[68] * -0.000711308154638241 + input[69] * -0.0006737744943714413 + input[70] * 0.0018352827123048535 + input[71] * -0.00107902112937516 + input[72] * -0.00021106626736872567 + input[73] * -0.0007498323444275233 + input[74] * -0.0005120992020338085 + input[75] * -0.0005682076412644568 + input[76] * -0.00048116970635541257 + input[77] * -0.0006014541725208021 + input[78] * -0.0002662480655963459 + input[79] * -0.0003232299074412815 + input[80] * 0.00013110479440245424 + input[81] * 0.00011961972763469574 + input[82] * 0.00005618875132439531 + input[83] * 0.000012928624673045476 + input[84] * -0.0012000661039230321 + input[85] * 0.0008418372845702614 + input[86] * 0.0007859928445104584 + input[87] * 0.002156287755610952 + input[88] * 0.0014758357753927502 + input[89] * 0.0010560796984956204
    var17 = input[90] * 0.0007301562510470621
    var18 = var16 + var17 + input[91] * -0.0010444414326620899 + input[92] * -0.0004101381238719152 + input[93] * -0.00011710254763058167 + input[94] * 0.000539096460159751 + input[95] * 0.00043821080111331226 + input[96] * -0.00018720996601424687 + input[97] * 0.0002499227776410057 + input[98] * 0.0007840016776844243 + input[99] * -0.0001410021889262355 + input[100] * -0.00037547238673370974 + input[101] * -0.00011681490147041581 + input[102] * -0.00011689787965236968 + input[103] * -0.00012861627989520233 + input[104] * 0.00025661765401037824 + input[105] * -0.0018579309930027413 + input[106] * -0.00028090025153692605 + input[107] * -0.00042624413482466125 + input[108] * -0.0007684828681898563 + input[109] * -0.00008215435765379302 + input[110] * -0.0002469489726708772 + input[111] * -0.00008360535934240373 + input[112] * -0.0015026011707495168 + input[113] * -0.00039621026163013317 + input[114] * -0.00015649009303486487 + input[115] * -0.0005481860042172012 + input[116] * 0.0001422824449334812 + input[117] * 0.000010499734485440391 + input[118] * 0.00015021008785624912 + input[119] * -0.0002938431235146267 + input[120] * -0.0006696751870920348 + input[121] * -0.0005596270151889055 + input[122] * -0.00040900578925809165 + input[123] * -0.00006076959772289262 + input[124] * 0.000018606517326289524 + input[125] * -0.0002570377649059896 + input[126] * -0.001182068537141134 + input[127] * -0.00042079729113956687 + input[128] * 0.0002621949580390613 + input[129] * 0.0006696834998401371 + input[130] * 0.000017226046512414252 + input[131] * 0.0001492701450551972 + input[132] * 0.00021848557002114393 + input[133] * 0.0016478091540811162 + input[134] * 0.0022323217937464117 + input[135] * 0.0022143919937629877 + input[136] * 0.00046949737741587376 + input[137] * 0.0005571303153098415 + input[138] * 0.0005972447506483767 + input[139] * 0.00017864504468097497 + input[140] * 0.0006578545594232264 + input[141] * 0.0010222152312800998 + input[142] * 0.0008547902588783298 + input[143] * 0.0005982580609576948 + input[144] * 0.0004323142171019311
    var19 = input[145] * 0.0002777217443292682
    var20 = var18 + var19 + input[146] * 0.00034490235130754004 + input[147] * -0.0013768776178605456 + input[148] * -0.0020624212374545543 + input[149] * -0.0006362053977933299 + input[150] * -0.0006191561358557986 + input[151] * -0.0006174792395928839 + input[152] * -0.0004458600250770038 + input[153] * -0.0006045408941695568 + input[154] * 0.0008077391968068752 + input[155] * -0.0026838291185565994 + input[156] * -0.0014726469683067217 + input[157] * -0.0013239288306192605 + input[158] * -0.0009712501603924092 + input[159] * -0.0006615701054494804 + input[160] * -0.0009200411376399618 + input[161] * 0.000563667145138677 + input[162] * -0.0021189292032392517 + input[163] * -0.0008688673531232673 + input[164] * -0.0010517753475457038 + input[165] * -0.0010378020782919088 + input[166] * -0.0009111785558091872 + input[167] * -0.0008086867464701744 + input[168] * 0.001373007053245251 + input[169] * -0.0011410438768397234 + input[170] * -0.0005831182873728822 + input[171] * -0.00070952235292219 + input[172] * -0.0006208661512262187 + input[173] * -0.0009511349707117632 + input[174] * -0.000845741858679463 + input[175] * -0.0001381149227484994 + input[176] * -0.001306091305938688 + input[177] * -0.0006207387943082275 + input[178] * -0.0008120475929525448 + input[179] * -0.000715273160380349 + input[180] * -0.0007523170691775641 + input[181] * -0.001016558194786401 + input[182] * -0.0006794292566049645 + input[183] * -0.0001303910450646041 + input[184] * 0.00011657198567104938 + input[185] * -0.000527523461330837 + input[186] * -0.00009831148947712635 + input[187] * -0.0003412992552909983 + input[188] * -0.0002818049212537825 + input[189] * -0.0009325819638450691 + input[190] * -0.0003917404105966348 + input[191] * -0.0007099336419050227 + input[192] * 0.0005198718790917558 + input[193] * 0.00033332534764336536 + input[194] * 0.00023671998558819052 + input[195] * 0.0004069621102402386 + input[196] * -0.0007490137213860015 + input[197] * -0.0010125030377141884 + input[198] * -0.0005989133897476331 + input[199] * -0.0008241827183493345
    var21 = input[200] * -0.0006152786019666183
    var22 = var20 + var21 + input[201] * -0.00020193395990466268 + input[202] * 0.00006712161055000226 + input[203] * 0.0006857663012729178 + input[204] * 0.0003886240083503111 + input[205] * -0.00015404605178070252 + input[206] * -0.0006680943595318224 + input[207] * -0.0005514409094282159 + input[208] * -0.00022622239228106317 + input[209] * -0.00028058426104806723 + input[210] * -0.00021269681060760587 + input[211] * -0.00016367480761147798 + input[212] * 0.0002082012125228403 + input[213] * 0.000612695064304047 + input[214] * 0.0002510224557736907 + input[215] * 0.00045653509991624123 + input[216] * 0.0016788359275698007 + input[217] * 0.0015893407122071258 + input[218] * -0.0005904026071021542 + input[219] * -0.0004603187165968123 + input[220] * -0.0005723222044728726 + input[221] * -0.000510519553185323 + input[222] * -0.00029191661129069165 + input[223] * -0.00041678082885616356 + input[224] * -0.0006630723576805942 + input[225] * -0.0014282683848018138 + input[226] * -0.00015308733668848018 + input[227] * 0.0003123261728494358 + input[228] * -0.00016510930737295967 + input[229] * -0.00024808629995983 + input[230] * 0.0005413337783024657 + input[231] * -0.0024718309212009046 + input[232] * -0.0016537506197409598 + input[233] * -0.0015438195528865825 + input[234] * -0.0009368745177568255 + input[235] * -0.0007124127118359046 + input[236] * -0.0004921079231073451 + input[237] * -0.0005995183521467157 + input[238] * -0.0009365644880191223 + input[239] * 0.0010645413013529437 + input[240] * 0.00035704115083732874 + input[241] * -0.0002568339364154497 + input[242] * 0.0004295587042195932 + input[243] * -0.000051203258561711705 + input[244] * 0.0002712015241565029 + input[245] * 0.004034762688374348 + input[246] * 0.0020355057615024995 + input[247] * 0.0012806216542898244 + input[248] * 0.00020047217281240416 + input[249] * 0.00023133188809633154 + input[250] * 0.0001430379260640885 + input[251] * 0.000040214905297377385 + input[252] * 0.0018784720774090856 + input[253] * 0.0017280782484049913 + input[254] * 0.0005806895526571832
    var23 = input[255] * 0.00009428036593968524
    var24 = var22 + var23 + input[256] * -0.000004805173312300277 + input[257] * 0.00020331221972891611 + input[258] * -0.000017076393152146717 + input[259] * 0.0009199303271605606 + input[260] * 0.00004459492323830978 + input[261] * 0.0007588424285232273 + input[262] * 0.00040321619472048016 + input[263] * 0.0003887456164360917 + input[264] * 0.000335271096660829 + input[265] * 0.0001055132365797833 + input[266] * 0.0017755459697310373 + input[267] * -0.0001900340653832663 + input[268] * -0.0006044931195549354 + input[269] * -0.0002742748193895859 + input[270] * -0.00015294903800148647 + input[271] * 0.00011183884751902586 + input[272] * 0.00020698056895176968 + input[273] * 0.00041028671327903566 + input[274] * -0.0009494171647742464 + input[275] * -0.00043959154563109887 + input[276] * -0.0002359338162150769 + input[277] * -0.00043787890184859645 + input[278] * -0.0002696043986370158 + input[279] * -0.00011760906120548944 + input[280] * 0.0010156000755648907 + input[281] * -0.0000041154713993153545 + input[282] * 0.00015219868254165471 + input[283] * 0.00004711521268795617 + input[284] * 0.00004111661184618289 + input[285] * 0.00018251363362147918 + input[286] * 0.00019091860170812537 + input[287] * -0.0019721478505904024 + input[288] * -0.0006147067050876973 + input[289] * -0.0001965845283000753 + input[290] * -0.0005016704160446405 + input[291] * -0.0004857218053721366 + input[292] * -0.00023260373405174794 + input[293] * -0.000013063466017679399 + input[294] * -0.00112436258050156 + input[295] * 0.0001382577382532374 + input[296] * 0.000052670584085470096 + input[297] * -0.00021802209813219422 + input[298] * -0.0000652217111812101 + input[299] * 0.00010991513443898529 + input[300] * 0.00016697737759781086 + input[301] * 0.0011907758469633617 + input[302] * 0.0008018774367436747 + input[303] * 0.00029635182118239046 + input[304] * -0.0002631737026487417 + input[305] * 0.00043959443600161927 + input[306] * 0.00038644660994294644 + input[307] * 0.0001943983764746787 + input[308] * 0.0016784064605660524 + input[309] * 0.0017859460790026504
    var25 = input[310] * 0.0010093711759871843
    var26 = var24 + var25 + input[311] * 0.000989361070847123 + input[312] * 0.0007465317142233918 + input[313] * 0.0004244806604254911 + input[314] * 0.00015312707027701343 + input[315] * 0.001549909306515084 + input[316] * 0.0006361243312134315 + input[317] * 0.0010441161574537183 + input[318] * 0.0004437063610298149 + input[319] * 0.00037078737719944103 + input[320] * -0.00011843615387388956 + input[321] * 0.0002838443399449576 + input[322] * -0.001394268030899826 + input[323] * -0.0005357211311928504 + input[324] * -0.00044491034611414355 + input[325] * -0.0005248273383533231 + input[326] * -0.00017144992552387589 + input[327] * -0.000010219732210897174 + input[328] * 0.0005827244788563536 + input[329] * -0.0001461005870523852 + input[330] * -0.000036376316643329767 + input[331] * 0.00022653886410846545 + input[332] * 0.00006905767229385729 + input[333] * -0.00006851298833425941 + input[334] * 0.00014074010346893517 + input[335] * 0.0004032386459185698 + input[336] * 0.001673420515371171 + input[337] * 0.0036067056452176957 + input[338] * 0.0036442189724591773 + input[339] * 0.0015458998098973273 + input[340] * 0.0015315321601991874 + input[341] * 0.0009710010176699902 + input[342] * 0.0009125796272772678 + input[343] * -0.00017022500059356738 + input[344] * 0.0015039984925858524 + input[345] * 0.0011581120083035022 + input[346] * 0.0020529406054513952 + input[347] * 0.0008397117441363506 + input[348] * 0.0011888151498249842 + input[349] * 0.000817561533714973 + input[350] * 0.00013679643463272807 + input[351] * 0.0006815123976894638 + input[352] * 0.0020642154996678404 + input[353] * 0.001101999751091585 + input[354] * 0.0011707780278312212 + input[355] * 0.0008078057691067738 + input[356] * 0.0009639877534007809 + input[357] * -0.0011329021197843867 + input[358] * -0.0006022861235596745 + input[359] * 0.0010535137497674442 + input[360] * 0.0008593060832865221 + input[361] * 0.0005835247554566342 + input[362] * 0.00000886753350698005 + input[363] * 0.0005305106632797527 + input[364] * -0.0040721919300941685
    var27 = input[365] * -0.00001648341644871943
    var28 = -0.00001764229676705798 + input[0] * -0.0012767500111494049 + input[1] * -0.0002907722346277877 + input[2] * -0.0003370319062783138 + input[3] * -0.0007055028164911554 + input[4] * -0.0003733338940874834 + input[5] * -0.00011895711574939299 + input[6] * -0.00033662032173765327 + input[7] * -0.0019363263530971433 + input[8] * -0.0005327593204885509 + input[9] * 0.000021662727151089874 + input[10] * -0.00024160149486395071 + input[11] * -0.0006798573030717997 + input[12] * -0.0004026988283420426 + input[13] * -0.0004975162552744082 + input[14] * 0.000891976474331808 + input[15] * -0.0000755208197705407 + input[16] * -0.000702598699328032 + input[17] * -0.00022914309563817981 + input[18] * -0.000628360281497759 + input[19] * -0.0005734469689403719 + input[20] * -0.000637060688017661 + input[21] * -0.0025055308431559593 + input[22] * -0.0015345449220544806 + input[23] * -0.001719970812139083 + input[24] * -0.0008242839228209772 + input[25] * -0.0011483910473620235 + input[26] * -0.0007828319175455345 + input[27] * -0.0009712790338291669 + input[28] * 0.00022396000784386414 + input[29] * -0.000952290553966521 + input[30] * -0.0006049113132289512 + input[31] * -0.0006297001824276659 + input[32] * -0.0005808438546112787 + input[33] * -0.00043095822315210606 + input[34] * -0.00034612431048748984
    var29 = input[35] * 0.002980391048357082
    var30 = var28 + var29 + input[36] * 0.0006470620841307696 + input[37] * 0.00023419573269776157 + input[38] * -0.00022305759101282186 + input[39] * -0.00004754024116201977 + input[40] * -0.00016866517883908026 + input[41] * -0.00022988506776651393 + input[42] * 0.0017191459835289755 + input[43] * 0.00031623023560435425 + input[44] * 0.00028412271717263317 + input[45] * -0.0003948650314862466 + input[46] * 0.00006925528713836171 + input[47] * -0.00015114680049980623 + input[48] * -0.00016408049824557508 + input[49] * 0.0026084498902262357 + input[50] * 0.0011436000715961407 + input[51] * 0.001168181572870815 + input[52] * 0.00023459694213430728 + input[53] * 0.00019350371006501585 + input[54] * 0.00013571573237296206 + input[55] * 0.0002559878936028467 + input[56] * 0.0008847617105856917 + input[57] * 0.002899257865740837 + input[58] * 0.0015928251597209261 + input[59] * 0.000727998013569431 + input[60] * 0.0010861403088019183 + input[61] * 0.0012806952935801351 + input[62] * 0.0010336014271342326 + input[63] * -0.001096533437851324 + input[64] * 0.0014810882981201089 + input[65] * 0.0009959206276605923 + input[66] * 0.0010261543663889069 + input[67] * 0.00027279451758592944 + input[68] * 0.0009174561682583731 + input[69] * 0.000751640245530392 + input[70] * -0.0004382276687907998 + input[71] * 0.0011955015521660543 + input[72] * 0.0001509728612943122 + input[73] * 0.0011407373051264523 + input[74] * 0.0003007266611424972 + input[75] * 0.0001629467075247911 + input[76] * 0.0001321802473422694 + input[77] * 0.0007633353058328196 + input[78] * -0.00009009945932803758 + input[79] * -0.0001308150164399225 + input[80] * -0.00026087378340405295 + input[81] * -0.00034653722840082446 + input[82] * -0.00023993619572332007 + input[83] * 0.000012376696805390384 + input[84] * -0.0014414228913906865 + input[85] * -0.0014341679454991324 + input[86] * -0.0008396976891282691 + input[87] * -0.0011705857977137358 + input[88] * -0.0007527861810921364 + input[89] * -0.00023475842241688498
    var31 = input[90] * 0.0002099140367269186
    var32 = var30 + var31 + input[91] * -0.0008359991361880783 + input[92] * 0.0008344788695490953 + input[93] * 0.0004423342917546827 + input[94] * 0.00009746543404952945 + input[95] * 0.0000359382733527428 + input[96] * 0.0005668042138210318 + input[97] * 0.00016067008444205585 + input[98] * -0.0029687317422797442 + input[99] * -0.001183209077153086 + input[100] * -0.0011073117146886337 + input[101] * -0.00098355071600225 + input[102] * -0.0007550375632709553 + input[103] * -0.0007054075176900732 + input[104] * -0.001135433471083813 + input[105] * 0.0020450381383955974 + input[106] * 0.0009633425217093959 + input[107] * -0.0003246433449117122 + input[108] * 0.0003018296893836696 + input[109] * 0.00021387807258361257 + input[110] * -0.00003798311094095334 + input[111] * 0.00008433363275705688 + input[112] * 0.002169388516991299 + input[113] * 0.0010182427421111687 + input[114] * -0.00001970960702756189 + input[115] * -0.00009622948351124373 + input[116] * -0.00042705676006347715 + input[117] * -0.00010263259711650226 + input[118] * -0.0002264694687948088 + input[119] * -0.00004108561768552806 + input[120] * 0.00023098991630071035 + input[121] * 0.00017165712383117673 + input[122] * 0.0000016353241514523589 + input[123] * -0.00016216039810333923 + input[124] * -0.0004848016770807972 + input[125] * -0.0007863172318272354 + input[126] * 0.00207616305809437 + input[127] * 0.0007734823336252229 + input[128] * 0.00028941407989576713 + input[129] * -0.00006794055399230043 + input[130] * 0.00013092370378508803 + input[131] * 0.00007529882350926054 + input[132] * 0.00009920792655393213 + input[133] * 0.0019299578357685565 + input[134] * 0.0005973148737490485 + input[135] * -0.0001239727230448035 + input[136] * 0.00023385685299067904 + input[137] * -0.0000687010741967173 + input[138] * -0.0003568505622236458 + input[139] * 0.0000865824683087504 + input[140] * 0.0017880108807354065 + input[141] * 0.0006306273724903274 + input[142] * 0.00033795911390778537 + input[143] * 0.00014604660536560114 + input[144] * 0.0000722685475992701
    var33 = input[145] * 0.0001403530486400504
    var34 = var32 + var33 + input[146] * 0.00009288039768335805 + input[147] * 0.0005599576074845196 + input[148] * 0.0019131379472505808 + input[149] * 0.0007620563938317057 + input[150] * 0.0003789529590315753 + input[151] * 0.0006558823024300252 + input[152] * 0.00039814676345863647 + input[153] * 0.000655455177717266 + input[154] * -0.0031022862026606995 + input[155] * 0.003396366050569072 + input[156] * 0.001210944578271552 + input[157] * 0.0009389323633254618 + input[158] * 0.000872357576668225 + input[159] * 0.0010111597228343004 + input[160] * 0.0010093176672520152 + input[161] * -0.0011638921335993628 + input[162] * 0.0029834936541644915 + input[163] * 0.0009476258138364556 + input[164] * 0.0011653756885573196 + input[165] * 0.0008368123150692024 + input[166] * 0.0008488486020856469 + input[167] * 0.0004921462301622711 + input[168] * -0.0011579248093876002 + input[169] * 0.002884822151390474 + input[170] * 0.0010583266829412338 + input[171] * 0.0011609814040293592 + input[172] * 0.0008453880997823811 + input[173] * 0.001722410346744415 + input[174] * 0.0018854507044578056 + input[175] * -0.00004816487804417069 + input[176] * 0.0022019458406072182 + input[177] * 0.0006876607184097203 + input[178] * 0.0014137830310253564 + input[179] * 0.0011495370805946234 + input[180] * 0.0013368836247236845 + input[181] * 0.0019381351183138436 + input[182] * 0.00008799763403324154 + input[183] * -0.0003176068031651098 + input[184] * -0.0004591666297360329 + input[185] * 0.00042385498417594385 + input[186] * -0.00020483847897090584 + input[187] * 0.0005072466056331895 + input[188] * 0.00036196049948225627 + input[189] * -0.0007509133641829229 + input[190] * 0.00024134011886831945 + input[191] * -0.0007290315149772164 + input[192] * -0.0008219391436082809 + input[193] * -0.0005244110707084454 + input[194] * -0.0002844473513956404 + input[195] * -0.00025770767926303485 + input[196] * 0.0011113343772031074 + input[197] * 0.0014975770226152913 + input[198] * 0.0008884993811116713 + input[199] * 0.001691373395205535
    var35 = input[200] * 0.0011426435092870928
    var36 = var34 + var35 + input[201] * 0.0004144993573931104 + input[202] * 0.0008193434680026586 + input[203] * -0.002315868688836064 + input[204] * 0.00030659436051642025 + input[205] * 0.000685325172107791 + input[206] * 0.0008657765166462915 + input[207] * 0.0012031394836796991 + input[208] * 0.0006489820343647131 + input[209] * 0.0007321767996381415 + input[210] * -0.0014836840426652859 + input[211] * -0.00014094440824244454 + input[212] * -0.0003685819458373822 + input[213] * -0.0004155982381475897 + input[214] * -0.0002609328677687045 + input[215] * -0.00014395457474230904 + input[216] * -0.0007943085300887436 + input[217] * 0.0006022005199770201 + input[218] * 0.0013147128465615875 + input[219] * 0.0007614947222044115 + input[220] * 0.0007440272296126117 + input[221] * 0.000546709468431715 + input[222] * 0.0004112157404878212 + input[223] * 0.00024232735514374766 + input[224] * 0.0020159925250226515 + input[225] * 0.0017098926259291995 + input[226] * 0.00034439301987371625 + input[227] * 0.00023469156787694892 + input[228] * 0.00011258648845532641 + input[229] * -0.000004514141992598835 + input[230] * 0.00001558082476623669 + input[231] * 0.0005218253910957459 + input[232] * 0.0017381250455551932 + input[233] * 0.0008769560199989026 + input[234] * 0.0003667615169549846 + input[235] * 0.00041873097533481955 + input[236] * 0.00016154965433483415 + input[237] * 0.00006773376896307358 + input[238] * 0.000854900614382747 + input[239] * 0.0004911140999359982 + input[240] * -0.0005196211374073176 + input[241] * -0.0004152675146664604 + input[242] * -0.00023785549277105964 + input[243] * -0.0003922526495731435 + input[244] * -0.0005405863719455881 + input[245] * -0.0014032866962520516 + input[246] * -0.00028425603480891826 + input[247] * -0.0018755975339909067 + input[248] * -0.0007203122875707947 + input[249] * -0.00033548522147501677 + input[250] * -0.0007033477185634858 + input[251] * -0.0003504038682255431 + input[252] * -0.0016396786257825231 + input[253] * -0.0009519338300321242 + input[254] * -0.0012707627401001475
    var37 = input[255] * -0.0008813972419451835
    var38 = var36 + var37 + input[256] * -0.0003884927426490819 + input[257] * -0.00032629561970929743 + input[258] * -0.0005144748659441282 + input[259] * -0.0010216773066997645 + input[260] * -0.000022969548292487445 + input[261] * -0.0005708941104818496 + input[262] * -0.0005822249966049666 + input[263] * -0.0007572051700245396 + input[264] * -0.0006570992570405733 + input[265] * -0.000545121675524827 + input[266] * -0.0008155213604227324 + input[267] * -0.00005966894561589 + input[268] * -0.00011352314185386091 + input[269] * -0.0001800908278621873 + input[270] * -0.00021223982656887885 + input[271] * -0.00029873416229998697 + input[272] * -0.00030718395306497605 + input[273] * 0.0007733389644704128 + input[274] * 0.00000019900868789512386 + input[275] * -0.00036637040609712796 + input[276] * -0.0003531742963960608 + input[277] * -0.00007879417815786679 + input[278] * -0.00012970144536689364 + input[279] * -0.00019386246620676777 + input[280] * 0.0008679211920079599 + input[281] * -0.0011183797628714915 + input[282] * -0.000969681781544739 + input[283] * -0.0007934044247778696 + input[284] * -0.0004592758554209386 + input[285] * -0.0004917730596419612 + input[286] * -0.00043173398011278483 + input[287] * 0.00009624074559440388 + input[288] * -0.0004677126316516378 + input[289] * -0.0003977304773922361 + input[290] * 0.0004284178871125412 + input[291] * 0.0008895257379857633 + input[292] * 0.0004157783485085621 + input[293] * 0.000029158467086010546 + input[294] * 0.00003096678433768461 + input[295] * -0.0006813228417972256 + input[296] * -0.0006430069026286746 + input[297] * -0.00017114039310466695 + input[298] * -0.00022488402364662154 + input[299] * -0.00012408550590784973 + input[300] * 0.000005026490458797411 + input[301] * -0.0035811735254926923 + input[302] * -0.0009706609789094616 + input[303] * -0.0008839832475516108 + input[304] * 0.0005669945769004778 + input[305] * -0.00034352495374501406 + input[306] * -0.0002770233207587069 + input[307] * -0.00031254024114722533 + input[308] * -0.0032752675233208117 + input[309] * -0.0012172376699864068
    var39 = input[310] * -0.00037618103605699567
    var40 = var38 + var39 + input[311] * -0.0004136584518071889 + input[312] * -0.0003122835240343075 + input[313] * -0.00032861388864746253 + input[314] * -0.0002744327114392221 + input[315] * -0.0008127430411826897 + input[316] * -0.00038120748323709834 + input[317] * -0.0004522713358996972 + input[318] * 0.0001074394670535862 + input[319] * 0.000039004075578656724 + input[320] * 0.0005155689588073421 + input[321] * 0.00037178555412126164 + input[322] * 0.0008449706586682511 + input[323] * 0.0005765318206807378 + input[324] * 0.000788728048703572 + input[325] * 0.001141804302980521 + input[326] * 0.0007410065893996141 + input[327] * 0.0006670898398533369 + input[328] * 0.0002698449123721559 + input[329] * -0.0003656776989254505 + input[330] * -0.000032032254530095976 + input[331] * -0.00011384482335434219 + input[332] * 0.000012825327414764504 + input[333] * 0.0001311260333100576 + input[334] * 0.000056996134947509785 + input[335] * -0.0000813843090076083 + input[336] * -0.002116097505648669 + input[337] * -0.0019278866529816752 + input[338] * -0.0022020382358862826 + input[339] * -0.0011276522844357504 + input[340] * -0.0011509472659754516 + input[341] * -0.0007597514008485241 + input[342] * -0.0009402006185248457 + input[343] * -0.0014965866522584795 + input[344] * -0.0010737254322179149 + input[345] * -0.00028608433923917205 + input[346] * -0.000912974746778174 + input[347] * -0.00045216083387207746 + input[348] * -0.0009875557254145318 + input[349] * -0.0006220039646168383 + input[350] * -0.007491034014649398 + input[351] * -0.002677531532855907 + input[352] * -0.0023598165788086254 + input[353] * -0.0015854667045335422 + input[354] * -0.0015522773322671813 + input[355] * -0.0013691138330034712 + input[356] * -0.0013407644777564866 + input[357] * 0.00008803232827894105 + input[358] * -0.001065905764645014 + input[359] * -0.0017383962862351908 + input[360] * -0.0013797213776119363 + input[361] * -0.001387887523587382 + input[362] * -0.0011587452023581746 + input[363] * -0.001334184577452387 + input[364] * 0.0011568999411095348
    var41 = input[365] * -0.0006594941686241595
    return [var12 + var13 + input[366] * 0.0013606616910485656 + input[367] * 0.00012057329697873285 + input[368] * 0.00042157850162423833 + input[369] * 0.00023151083907055014 + input[370] * 0.000594709803936853 + input[371] * 0.0031489646978923058 + input[372] * 0.0003436875537534931 + input[373] * 0.0009444315349563534 + input[374] * 0.0005321054007255354 + input[375] * 0.00040353398380043595 + input[376] * 0.000478758974483348 + input[377] * 0.0003062071539720373 + input[378] * 0.004973473913416488 + input[379] * 0.0008687789553310909 + input[380] * 0.0006697021253090547 + input[381] * 0.0002660654772292367 + input[382] * 0.00004209570007411073 + input[383] * 0.00023469440317454458 + input[384] * 0.00022384175848589094 + input[385] * 0.0032221782658873213 + input[386] * 0.0001512356878047333 + input[387] * -0.0003377798849500078 + input[388] * 0.00001147282397411932 + input[389] * -0.00016713010889689525 + input[390] * -0.00007524655717227196 + input[391] * 0.000054982821327406493 + input[392] * 0.0036155958676023494 + input[393] * -0.0005567309804641155 + input[394] * -0.0002567096507807708 + input[395] * -0.0003739809320659854 + input[396] * -0.0004496770499696949 + input[397] * -0.00041989532182788464 + input[398] * -0.0002792146866072152 + input[399] * 0.0036723684689331094 + input[400] * -0.00020919363715998676 + input[401] * -0.0006880487446927127 + input[402] * -0.00008442055316004423 + input[403] * -0.00013278031534054414 + input[404] * -0.00013331968182114662 + input[405] * -0.00006665867126525039 + input[406] * 0.0012332192886141413 + input[407] * -0.0001576234226640854 + input[408] * 0.000004597566603095592 + input[409] * -0.00079423788848822 + input[410] * -0.00005890724693810364 + input[411] * -0.0002228748276104497 + input[412] * -0.00045368166839765926 + input[413] * -0.006735352439281068 + input[414] * -0.000816048592854761 + input[415] * -0.0014218401898059628 + input[416] * -0.0020050812204537452 + input[417] * -0.0012023011497624251 + input[418] * -0.0011754708812285002 + input[419] * -0.0013902318496465602, var26 + var27 + input[366] * -0.001008530550019752 + input[367] * 0.0004785741374396626 + input[368] * 0.00033012033562213695 + input[369] * 0.000313858023451818 + input[370] * 0.00002114601573244831 + input[371] * -0.0029891647260322824 + input[372] * 0.00033554588435688137 + input[373] * 0.0001943661107964538 + input[374] * 0.00028549404766340373 + input[375] * 0.0003051209350232066 + input[376] * 0.00013149845015734214 + input[377] * 0.00014855943610611792 + input[378] * -0.005621226009592843 + input[379] * -0.0008211750919054558 + input[380] * -0.000286749560509091 + input[381] * 0.000252242602180059 + input[382] * 0.00020945147483960601 + input[383] * 0.00011204276826314792 + input[384] * 0.0000831518354925193 + input[385] * -0.002420055042313535 + input[386] * 0.00007984797174203907 + input[387] * 0.00004081569809672397 + input[388] * 0.000059134567990583074 + input[389] * -0.000037291991014264655 + input[390] * 0.00010991668911176481 + input[391] * 0.0000045010458434265515 + input[392] * -0.0037313152775472836 + input[393] * 0.00015622828203564918 + input[394] * -0.0006575519710452248 + input[395] * -0.0002760846720780053 + input[396] * -0.0006551822216740342 + input[397] * -0.00029329837819963025 + input[398] * -0.0002769702355212872 + input[399] * -0.00242308387834988 + input[400] * -0.0012182825018337486 + input[401] * -0.0002748944919567168 + input[402] * -0.0003154552573017789 + input[403] * -0.0001981594170903009 + input[404] * -0.000052892900709952174 + input[405] * -0.00014274154414258228 + input[406] * -0.0009840407714318898 + input[407] * -0.00002348008199959993 + input[408] * 0.0001501102192609244 + input[409] * 0.0016982375008166317 + input[410] * 0.0005468531850891214 + input[411] * 0.0005299429424452239 + input[412] * 0.0007051752453352433 + input[413] * 0.004023108607408226 + input[414] * -0.00007741525309879847 + input[415] * 0.0003409251601813305 + input[416] * 0.0016415093587109513 + input[417] * 0.0005817996192935853 + input[418] * 0.0006494933968619344 + input[419] * 0.001063746658460979, var40 + var41 + input[366] * -0.0004705800351906775 + input[367] * -0.0007037399753348209 + input[368] * -0.0008580101385563354 + input[369] * -0.0006399117665409749 + input[370] * -0.0007027645738352016 + input[371] * -0.0005581969403984494 + input[372] * -0.0008524673124048178 + input[373] * -0.0012879407472898793 + input[374] * -0.0009325422558906521 + input[375] * -0.0008026091573852574 + input[376] * -0.0006989825580113257 + input[377] * -0.0005315330204370733 + input[378] * 0.00027108794588188306 + input[379] * -0.0002035698513496119 + input[380] * -0.0005098411909744107 + input[381] * -0.0006272582710991255 + input[382] * -0.00033422028954543313 + input[383] * -0.0004262063246153178 + input[384] * -0.0003795525709572538 + input[385] * -0.0012971678576839437 + input[386] * -0.0004328759901536679 + input[387] * 0.00017730603028613868 + input[388] * -0.00015642101607378004 + input[389] * 0.00013132688070950632 + input[390] * -0.00010518856936142446 + input[391] * -0.0001259453276498866 + input[392] * -0.00032182070056792426 + input[393] * 0.0002047849956047045 + input[394] * 0.0008096556598244853 + input[395] * 0.0005717995801659104 + input[396] * 0.001040826789887656 + input[397] * 0.0006572150660930215 + input[398] * 0.0005030602544271903 + input[399] * -0.0017291029090750934 + input[400] * 0.001286332741864658 + input[401] * 0.0008634352431350751 + input[402] * 0.00032116827052300557 + input[403] * 0.00026400301683649136 + input[404] * 0.00013084114437562862 + input[405] * 0.00015689630621735598 + input[406] * -0.000734455636192299 + input[407] * -0.00001025734762723168 + input[408] * -0.0002809814635751141 + input[409] * -0.0010551629530755132 + input[410] * -0.0005848422878473608 + input[411] * -0.000391364074193384 + input[412] * -0.00032934797800916456 + input[413] * 0.002386724836526906 + input[414] * 0.0007894486256180592 + input[415] * 0.0010040842575185578 + input[416] * 0.0002777112305297318 + input[417] * 0.0005619009546013765 + input[418] * 0.0004570569986417883 + input[419] * 0.00026073820563649687]
