def score(input):
    var0 = 9.70991490679736 + input[0] * -50.66864644142277 + input[1] * -389.5187655686545 + input[2] * -490.2983704455649 + input[3] * -263.45103552377526 + input[4] * -68.79749958259133 + input[5] * -188.93024013374819 + input[6] * -146.63677067136632 + input[7] * -128.86376964177938 + input[8] * -50.7635580332644 + input[9] * -55.9248580441038 + input[10] * -100.09714423808788 + input[11] * -125.69922138422146 + input[12] * -79.46356964715297 + input[13] * 19.486731757643042 + input[14] * 326.00446178312575 + input[15] * 249.54302196303468 + input[16] * -150.15397463928443 + input[17] * 68.08031378385967
    var1 = input[18] * 192.1538623301555
    var2 = var0 + var1 + input[19] * 606.3118411493915 + input[20] * 1736.4881082010559 + input[21] * 616.1431531128893 + input[22] * 349.3597312095682 + input[23] * 280.2472866214547 + input[24] * 358.1843780915578 + input[25] * 335.0317864517734 + input[26] * 258.78898473539033 + input[27] * 181.59303399331054 + input[28] * 324.6104734731479 + input[29] * 170.74993270169372 + input[30] * 301.33719285332677 + input[31] * 413.9406513430748 + input[32] * -1365.183263230114 + input[33] * 1357.7244763308322 + input[34] * 601.849921788056 + input[35] * 798.0659486362728 + input[36] * 1044.3604440635359 + input[37] * 433.6626392427442 + input[38] * 552.8758621886853 + input[39] * 330.78686904611106 + input[40] * 230.63862588468422 + input[41] * 419.71373231860713 + input[42] * 345.29003470402984 + input[43] * 236.89415460018873 + input[44] * 303.3944465081 + input[45] * 290.14948218701386 + input[46] * 159.37659033089037 + input[47] * -100.96752172253044 + input[48] * -676.0110413370611 + input[49] * -648.6246311808575 + input[50] * -1061.4897897626822 + input[51] * 7.105387446228943 + input[52] * -262.0769912287488 + input[53] * -113.9354847996629 + input[54] * -176.50615142461524 + input[55] * 98.10336878629536 + input[56] * -95.77313850263151 + input[57] * 34.74149961389967 + input[58] * 80.35340068687357 + input[59] * -17.325306401816007 + input[60] * -20.9838880860118 + input[61] * 121.88552249289562 + input[62] * -1.8636262667853576 + input[63] * -15.807217077124045 + input[64] * 826.0198483361223 + input[65] * -1279.7677805183932 + input[66] * -862.1715837266877 + input[67] * -346.8337120448036 + input[68] * -589.5112175668053 + input[69] * -251.62968873254252 + input[70] * -310.9120371237038 + input[71] * -444.0468062477673 + input[72] * 32.68989072886923
    var3 = input[73] * -154.80058433566467
    return var2 + var3 + input[74] * -136.1518158884584 + input[75] * -185.30763759979493 + input[76] * -105.24135128112475 + input[77] * -171.8889905725615 + input[78] * -331.318804973906 + input[79] * -247.51802653625722 + input[80] * -450.354262811895 + input[81] * -1616.4147801802733 + input[82] * -847.2087989711475 + input[83] * -392.94658991146184 + input[84] * -385.03300439309936 + input[85] * -68.96696254385814 + input[86] * -147.55595271191328 + input[87] * -339.2875353197929 + input[88] * 22.649878774395262 + input[89] * -191.062476433258 + input[90] * -272.85160642149134 + input[91] * -332.8033578338428 + input[92] * -191.5773185971243 + input[93] * -173.02312547221212 + input[94] * -110.55646361558507 + input[95] * -110.61664368051254 + input[96] * -313.9759030862745 + input[97] * -837.712580117964 + input[98] * -258.3744019201083 + input[99] * 96.47010692272939 + input[100] * -35.0847496386832 + input[101] * -191.7693198106958 + input[102] * 85.12392641076458 + input[103] * 50.253017615755844 + input[104] * 119.15836629202023 + input[105] * 0.28089186858382237 + input[106] * 92.06109140170074 + input[107] * -92.6783878664003 + input[108] * 21.917042665756014 + input[109] * 87.45363259207475 + input[110] * -60.82612628201799 + input[111] * -245.32192722043283 + input[112] * 1712.536322000635 + input[113] * 747.3753371896979 + input[114] * 483.09364716344186 + input[115] * 454.37338220086724 + input[116] * 112.12067054195037 + input[117] * 245.52879977643016 + input[118] * 364.3755941339812 + input[119] * 581.1263826939564 + input[120] * 456.39655306536457 + input[121] * 282.4687774483245 + input[122] * 196.03004652943625 + input[123] * 253.18756273266703 + input[124] * 169.03124222594465 + input[125] * 188.58853492632878 + input[126] * 225.58542665900143 + input[127] * -252.56762655706703
