def score(input):
    var0 = 0.2813652091623604 + input[0] * -140.0448945556053 + input[1] * 946.9650077768254 + input[2] * -337.75518397134465 + input[3] * -308.0785036842767 + input[4] * 76.16561874997126 + input[5] * -100.2825596433618 + input[6] * -41.71359769515625 + input[7] * 564.4506845465136 + input[8] * 59.61559817478295 + input[9] * 477.1211532569499 + input[10] * 648.8250609406867 + input[11] * 616.7453849507027 + input[12] * 269.59861117804166 + input[13] * -48.69202624784926 + input[14] * 52.56646624502201 + input[15] * 13.916985306506026 + input[16] * 1333.3453491082144 + input[17] * 284.74729811161797
    var1 = input[18] * 34.0048985045997
    var2 = var0 + var1 + input[19] * -665.5211236907669 + input[20] * -3053.8373980018873 + input[21] * -1379.5903449794525 + input[22] * -501.8260764514223 + input[23] * -605.861957242445 + input[24] * -230.52030077566516 + input[25] * -549.4464582048724 + input[26] * -455.25454764708826 + input[27] * -423.8971245348276 + input[28] * -703.1191258023398 + input[29] * -660.8502356484263 + input[30] * -1266.5123279232632 + input[31] * -893.5519558978439 + input[32] * 1400.139464380714 + input[33] * -1396.494048541694 + input[34] * 828.0605454218842 + input[35] * 263.0523198726897 + input[36] * -432.1756266126352 + input[37] * -77.8157767440204 + input[38] * -232.20559335981187 + input[39] * -106.67411835545894 + input[40] * -518.6236519844099 + input[41] * -367.5641858044861 + input[42] * 19.107385818474675 + input[43] * 105.98232585921048 + input[44] * -329.75268957028953 + input[45] * -377.968541154826 + input[46] * -180.3280500447013 + input[47] * -931.0131283292462 + input[48] * -944.7221848557256 + input[49] * -1815.391067237122 + input[50] * 2643.491102334605 + input[51] * -393.4663239116804 + input[52] * -26.637142155731294 + input[53] * -745.9350495452585 + input[54] * -138.26867272982307 + input[55] * -413.07851106251627 + input[56] * -108.53385019732495 + input[57] * -621.4940730499427 + input[58] * 83.83943964387221 + input[59] * -350.25362539118584 + input[60] * -418.6951721356995 + input[61] * -627.9764588565514 + input[62] * -127.15193455016609 + input[63] * -332.637777568628 + input[64] * -1753.924244208654 + input[65] * -1535.63770440247 + input[66] * 2789.1660610106587 + input[67] * 851.1747427900965 + input[68] * -946.5110065999779 + input[69] * -112.38114279098062 + input[70] * 107.74003254905776 + input[71] * 312.9800989594309 + input[72] * 152.2101570630236
    var3 = input[73] * -60.756780612548425
    return var2 + var3 + input[74] * -184.60410743357392 + input[75] * 521.6780576332357 + input[76] * 184.82166865352755 + input[77] * -81.43964898942629 + input[78] * 524.5459885465391 + input[79] * 226.6565915416694 + input[80] * 1598.3665481276887 + input[81] * 909.3844458704751 + input[82] * 3215.6057919140485 + input[83] * 74.5787775957465 + input[84] * 39.97186599944106 + input[85] * 600.1332509594585 + input[86] * 1095.7221268352316 + input[87] * 467.23375399672193 + input[88] * 509.40563050784937 + input[89] * 568.2120939434881 + input[90] * 1015.4546064942436 + input[91] * 630.0297766701538 + input[92] * 626.7773370869405 + input[93] * 687.9633711344956 + input[94] * 595.1699330825879 + input[95] * 541.046200584095 + input[96] * -1333.5622595524214 + input[97] * -1018.1194185635926 + input[98] * 142.2848371737469 + input[99] * -518.3042997857307 + input[100] * -446.78349144938227 + input[101] * -310.86406178633365 + input[102] * -208.7377126671369 + input[103] * 524.5188571940314 + input[104] * -182.7798710157108 + input[105] * 346.9400970695071 + input[106] * 387.6891336155869 + input[107] * 393.47503203210164 + input[108] * 122.01032086582141 + input[109] * 225.13249931419585 + input[110] * 409.4659154257326 + input[111] * 411.91973484825917 + input[112] * -3033.739156315118 + input[113] * -1517.0293930584235 + input[114] * -357.1163207706544 + input[115] * -811.0845535768037 + input[116] * -1161.1493953146735 + input[117] * -1400.2238757522848 + input[118] * -21.481790690759148 + input[119] * 64.3226950259484 + input[120] * -14.041934546147404 + input[121] * -385.98894732386265 + input[122] * 112.94680404978712 + input[123] * 239.33758556244666 + input[124] * 3.449165471965552 + input[125] * -145.22973374322885 + input[126] * -117.98207343979999 + input[127] * 532.7784186383892
