def score(input):
    var0 = -0.00025728923799171066 + input[0] * -0.004547469155503932 + input[1] * -0.005404184716065321 + input[2] * 0.0032002260923411825 + input[3] * 0.008350775503641751 + input[4] * -0.0030736658080314128 + input[5] * 0.003438054863372623 + input[6] * 0.01101253238986382 + input[7] * -0.005962094502370632 + input[8] * -0.0002250590933973002 + input[9] * -0.0042845729109328755 + input[10] * -0.005764845172890264 + input[11] * -0.0046121522738506405 + input[12] * -0.006876411897492848 + input[13] * -0.0027136583404664657 + input[14] * -0.00970751556879718 + input[15] * -0.00860822064931335 + input[16] * -0.030394815108693383 + input[17] * -0.001471453239074607
    var1 = input[18] * -0.0030800623396815136
    var2 = var0 + var1 + input[19] * 0.0016369794660669385 + input[20] * -0.003280233935887877 + input[21] * -0.0008732610222786356 + input[22] * 0.0010200323901237841 + input[23] * 0.0015138943494599794 + input[24] * -0.006891692586039495 + input[25] * -0.001061545886206846 + input[26] * 0.00251397283094375 + input[27] * 0.001002380333995862 + input[28] * 0.006339305193455518 + input[29] * 0.005878506536781843 + input[30] * 0.007536435406174977 + input[31] * 0.012752704263539158 + input[32] * -0.014332153139298823 + input[33] * 0.005130381936862097 + input[34] * -0.006065275252117003 + input[35] * -0.01379675188075573 + input[36] * -0.005308929247741355 + input[37] * -0.013728106455287008 + input[38] * -0.0055911058383365615 + input[39] * 0.0007224723840713024 + input[40] * 0.003775980659057294 + input[41] * -0.002334583222098519 + input[42] * -0.0024863120928978193 + input[43] * -0.0028713355928450188 + input[44] * -0.0014426241832424453 + input[45] * 0.0010953615567570445 + input[46] * 0.004994238067114763 + input[47] * 0.017979088852615094 + input[48] * 0.02609759020894869 + input[49] * 0.014195311482243301 + input[50] * -0.009179191240152098 + input[51] * 0.007139237199242393 + input[52] * -0.00003459243084628027 + input[53] * -0.001473647963431815 + input[54] * -0.0026989719722990066 + input[55] * -0.00365793604268009 + input[56] * 0.0018205814610166768 + input[57] * -0.0018850957426099 + input[58] * -0.009127014203309849 + input[59] * -0.004068121872637616 + input[60] * 0.00015536949193076116 + input[61] * -0.00010630519427096985 + input[62] * -0.003462993216617099 + input[63] * -0.0032331336243850706 + input[64] * -0.0035981575627167654 + input[65] * 0.010982109749268262 + input[66] * -0.02258730041394659 + input[67] * -0.008917987741365702 + input[68] * 0.01004201392383105 + input[69] * 0.0037076344191294634 + input[70] * 0.008728415942284629 + input[71] * -0.000963360967432787 + input[72] * -0.0029054611335291476
    var3 = input[73] * 0.004162551466496154
    return var2 + var3 + input[74] * 0.0018951255801873458 + input[75] * -0.0013804609544217198 + input[76] * -0.0007174826394204921 + input[77] * 0.0034884985527735683 + input[78] * -0.002430664491723938 + input[79] * -0.0018028370301775005 + input[80] * -0.0101052352648617 + input[81] * 0.0127184915995111 + input[82] * -0.015452149951439623 + input[83] * -0.001722890778846521 + input[84] * -0.0013475347404958468 + input[85] * -0.0038641992727375765 + input[86] * -0.002326171083436648 + input[87] * -0.004537187910450018 + input[88] * -0.008419755151131933 + input[89] * -0.001814971980285879 + input[90] * -0.008455808741676672 + input[91] * -0.0044951597200484986 + input[92] * -0.00335816224362221 + input[93] * -0.0025301822928910337 + input[94] * -0.003203035856051833 + input[95] * -0.005051585561176509 + input[96] * 0.030727010937186227 + input[97] * 0.021198971678686767 + input[98] * 0.0025976025190385444 + input[99] * 0.006267485506779784 + input[100] * 0.008495523987607934 + input[101] * 0.005573837502517021 + input[102] * 0.0004330237822951481 + input[103] * -0.010041877468815092 + input[104] * -0.0008859183062696258 + input[105] * -0.0034304915622148393 + input[106] * -0.006323271983525275 + input[107] * -0.0031985716860424666 + input[108] * -0.004101412155269002 + input[109] * -0.004801903195610058 + input[110] * -0.007488572849193808 + input[111] * -0.004996554899968163 + input[112] * 0.004636663599997928 + input[113] * -0.0073222214511902235 + input[114] * -0.008724400756314843 + input[115] * -0.0006619624065669936 + input[116] * 0.007306700654594442 + input[117] * 0.003209653197402436 + input[118] * -0.00706439837583574 + input[119] * -0.014086682182273338 + input[120] * -0.01162145357369049 + input[121] * -0.007483721550986347 + input[122] * -0.00807982304791602 + input[123] * -0.00763534428055154 + input[124] * -0.005788050656753304 + input[125] * -0.002169254471609254 + input[126] * -0.01024232036647669 + input[127] * -0.014021722166195023
