def score(input):
    var0 = -0.02071240003899444 + input[0] * -2.2789880741398663 + input[1] * 55.031446234651426 + input[2] * 25.88354345450504 + input[3] * 21.68103593697841 + input[4] * 20.861154944610046 + input[5] * 11.271598623165541 + input[6] * 33.23775886049131 + input[7] * 60.77371996101324 + input[8] * 39.88685717149342 + input[9] * 23.554152156535 + input[10] * 21.143755851850766 + input[11] * 23.828581524945363 + input[12] * 17.286309760378604 + input[13] * 41.75160501210949 + input[14] * 50.542717766773194 + input[15] * 48.555976266353866 + input[16] * -28.470256109193866 + input[17] * 118.6558824761698
    var1 = input[18] * 8.336160507363108
    var2 = var0 + var1 + input[19] * 34.80974120343431 + input[20] * -29.223738036158863 + input[21] * 54.11395020651344 + input[22] * 13.410714207898586 + input[23] * -3.6725067388071206 + input[24] * -2.8821210931768744 + input[25] * 10.450492434541914 + input[26] * 3.6066202822988407 + input[27] * -0.0914535315712817 + input[28] * -14.298476585892969 + input[29] * 5.8607181680191625 + input[30] * -53.380584553436975 + input[31] * -21.92857508016096 + input[32] * -93.553358924656 + input[33] * -130.30967557920695 + input[34] * -65.31153974832395 + input[35] * -54.840935581002746 + input[36] * -0.954166473039849 + input[37] * -36.017523667590105 + input[38] * -27.11308907070301 + input[39] * -27.403302607431367 + input[40] * 5.555062085744053 + input[41] * -16.870862676937136 + input[42] * -3.4495686291580223 + input[43] * -8.38260024897528 + input[44] * -21.24468878898277 + input[45] * -10.229273528038902 + input[46] * -2.8314981564580806 + input[47] * -18.58081087855043 + input[48] * -167.0711276141209 + input[49] * -68.7935633615486 + input[50] * -15.290136038101805 + input[51] * -70.6467377766146 + input[52] * 12.854929983086521 + input[53] * -69.62601356486786 + input[54] * -39.71026007778626 + input[55] * -17.394797302146614 + input[56] * -34.90047371932112 + input[57] * -37.358333582621 + input[58] * -12.509700220520429 + input[59] * -48.39672556858699 + input[60] * -6.349052921727347 + input[61] * -26.87853122679316 + input[62] * -23.116752157135352 + input[63] * -18.868249524375265 + input[64] * -151.98799676872315 + input[65] * -43.98887415810294 + input[66] * 53.428552191647164 + input[67] * 9.981628290817266 + input[68] * -32.271144737590014 + input[69] * 21.296850345809325 + input[70] * 0.2045573508901689 + input[71] * 19.3320781510734 + input[72] * 5.411647254992773
    var3 = input[73] * -4.307449863142854
    return var2 + var3 + input[74] * 15.359856216874434 + input[75] * 5.724436849062509 + input[76] * 7.491152812057888 + input[77] * 22.401956611765627 + input[78] * 5.3615049163236135 + input[79] * 10.839879289091522 + input[80] * -135.27201784612853 + input[81] * 90.8395443160162 + input[82] * 117.49599863216244 + input[83] * 8.512085555275375 + input[84] * 37.281487800581466 + input[85] * 23.70485524497821 + input[86] * 48.085954410449624 + input[87] * 32.34877957082249 + input[88] * 14.85622628752373 + input[89] * 37.60848921294591 + input[90] * 20.854481140754267 + input[91] * 23.931312705879332 + input[92] * 49.5514721289625 + input[93] * 39.193117534346506 + input[94] * 35.86188558053307 + input[95] * 31.380993260097867 + input[96] * -64.47178663226337 + input[97] * -45.90783713059729 + input[98] * 5.38144116280256 + input[99] * -20.486194815743456 + input[100] * 16.517026049257154 + input[101] * 16.838450460095853 + input[102] * 15.175766907118666 + input[103] * 31.05328778196265 + input[104] * 36.089970854916594 + input[105] * 29.412283074474782 + input[106] * 19.20741218728673 + input[107] * 26.370494426750536 + input[108] * 19.060543131917846 + input[109] * 12.62459196622394 + input[110] * -2.3723885236561157 + input[111] * -11.395167448944115 + input[112] * 81.53179109822446 + input[113] * 32.197239882278396 + input[114] * 40.12519839267289 + input[115] * 14.683363309499937 + input[116] * 24.821091452594402 + input[117] * 26.35478465646845 + input[118] * 59.87237949386942 + input[119] * 44.50318891270669 + input[120] * 35.11047485175862 + input[121] * 22.9427215173443 + input[122] * 28.996316588916574 + input[123] * 40.8608048369771 + input[124] * 23.990031615317786 + input[125] * 49.466280589436565 + input[126] * 37.39910730625594 + input[127] * 34.474186969944824
