def score(input):
    var0 = -1.510814814919797 + input[0] * -211.94403145693775 + input[1] * -42.749675161985934 + input[2] * -69.09111334815199 + input[3] * -7.841522914139583 + input[4] * -52.57876649547017 + input[5] * -50.160386494158566 + input[6] * 17.391977295198377 + input[7] * 15.108982554356462 + input[8] * -16.4277942660659 + input[9] * -29.776361417797894 + input[10] * -5.5405610575594215 + input[11] * -17.6091988777311 + input[12] * -28.371467029022767 + input[13] * -63.214375368142484 + input[14] * -23.70306480968801 + input[15] * -2.284262344191778 + input[16] * 66.85773151488569 + input[17] * 22.66998626804217
    var1 = input[18] * 19.14638642318143
    var2 = var0 + var1 + input[19] * 18.898527884875485 + input[20] * -89.89222008642041 + input[21] * -61.34393686260062 + input[22] * -31.889873991118147 + input[23] * -3.9863012082848908 + input[24] * -55.65064250956452 + input[25] * -20.233161549847065 + input[26] * -13.600813850754394 + input[27] * -29.337038443510032 + input[28] * -10.605513231740359 + input[29] * -8.367056328014694 + input[30] * -75.15910887852135 + input[31] * -98.55458804327102 + input[32] * 11.77905704139712 + input[33] * 122.53794189075602 + input[34] * 10.422237800886306 + input[35] * -69.90886106651776 + input[36] * -25.522555749257958 + input[37] * -48.79258189342179 + input[38] * -9.65293454360247 + input[39] * -42.084493240868575 + input[40] * 27.6515844913516 + input[41] * -30.3421263245335 + input[42] * -38.55317006230356 + input[43] * 9.514444723137812 + input[44] * -33.438302681166846 + input[45] * -7.233411040169176 + input[46] * -33.36924826779965 + input[47] * -52.65599188844527 + input[48] * -121.80365230816774 + input[49] * -60.055932463651146 + input[50] * 7.87702424954245 + input[51] * -59.232315183537665 + input[52] * 114.01365329038332 + input[53] * -113.90626721055038 + input[54] * 25.143188402191853 + input[55] * 1.2217070482364882 + input[56] * -27.249954581177978 + input[57] * -11.979693110371862 + input[58] * 17.500990275441936 + input[59] * -24.338095759077216 + input[60] * -12.18523040650542 + input[61] * 5.671285422862816 + input[62] * -13.139339472869503 + input[63] * -3.1268594972529793 + input[64] * -128.6151456441526 + input[65] * -166.5076876978043 + input[66] * 7.834663730623362 + input[67] * 40.063156550067234 + input[68] * -85.40792723905739 + input[69] * 31.734126535823055 + input[70] * -1.9586044299194365 + input[71] * 19.610061674140905 + input[72] * 28.820852738663525
    var3 = input[73] * 23.149702383534777
    return var2 + var3 + input[74] * 53.257126661433965 + input[75] * 30.024663468050775 + input[76] * 22.330941167653553 + input[77] * 38.46526815969175 + input[78] * 18.307645166964058 + input[79] * 23.207596210267223 + input[80] * -85.84470931212927 + input[81] * -58.391108389422094 + input[82] * 61.194412422988854 + input[83] * -10.34608375030455 + input[84] * 12.002593249392099 + input[85] * -1.498840847629961 + input[86] * 18.653293729671915 + input[87] * 17.24873839776005 + input[88] * 24.66542473682785 + input[89] * 45.38979590340848 + input[90] * -7.604250619909433 + input[91] * 3.032989401321498 + input[92] * 25.810450257852303 + input[93] * 24.90092038717406 + input[94] * 24.244041604707014 + input[95] * -0.012985306250928233 + input[96] * 68.09394446353625 + input[97] * -27.787614837632827 + input[98] * -7.160524284719584 + input[99] * -28.342627041664528 + input[100] * 24.494097281710445 + input[101] * 9.005783867793353 + input[102] * 18.10895355643006 + input[103] * 7.35635030483929 + input[104] * 31.522665908507662 + input[105] * 20.547737137491932 + input[106] * 4.728138464557328 + input[107] * 11.668982224149119 + input[108] * 11.648047740582216 + input[109] * 22.21930071064398 + input[110] * -2.8619076862297517 + input[111] * 56.79637273871661 + input[112] * -39.54465131812845 + input[113] * -40.672121133544834 + input[114] * -33.99606258630197 + input[115] * -46.63989734915564 + input[116] * -25.329319847445728 + input[117] * -59.02185246736714 + input[118] * -14.34609014467419 + input[119] * -38.67274741727821 + input[120] * 3.6117772901579235 + input[121] * 7.863618786325537 + input[122] * -10.671573438626893 + input[123] * -3.5563683553404424 + input[124] * -28.308537263195912 + input[125] * 39.020071470208485 + input[126] * 11.554352161149131 + input[127] * 3.7494144918676304
