import math
def score(input):
    var0 = 76.55917843676431 * input[0] + 25.235762578629355 * input[1] + 12.287872041351037 * input[2] + 9.431649548884245 * input[3] + 9.639301711339836 * input[4] + 7.454637175749712 * input[5] + 7.663793241123222 * input[6] + 4.941731360600299 * input[7] + 4.0364596215208906 * input[8] + 5.152861730006077 * input[9] + 5.45493380367099 * input[10] + 7.056394020930785 * input[11] + 4.874915189131917 * input[12] + 5.956605014704715 * input[13] + 6.5394906156249855 * input[14] + 6.267715011350029 * input[15] + 65.5063948042298 * input[16] + 25.997700046045118 * input[17] + 22.435331815147013 * input[18] + 21.53332746531315 * input[19]
    var1 = 22.861848160089735 * input[20]
    var2 = var0 + var1 + 21.624799141631478 * input[21] + 9.898526124263988 * input[22] + 10.269400777915411 * input[23] + 8.740822327319954 * input[24] + 10.639805509014824 * input[25] + 10.934163969641645 * input[26] + 7.978742286147909 * input[27] + 7.557546071580012 * input[28] + 6.696283756615266 * input[29] + 9.519597287743727 * input[30] + 10.633572891514369 * input[31] + 45.59294544286939 * input[32] + 53.245980761825514 * input[33] + 25.856118488498144 * input[34] + 19.28527486788945 * input[35] + 17.315311334324903 * input[36] + 16.42779185615323 * input[37] + 14.046329532592882 * input[38] + 17.72722074908961 * input[39] + 14.219156429252337 * input[40] + 12.450446601588773 * input[41] + 11.506889030128487 * input[42] + 8.556440352368643 * input[43] + 9.299260932062555 * input[44] + 9.515975650272377 * input[45] + 8.639907463660546 * input[46] + 8.465330308415798 * input[47] + 48.55196254472944 * input[48] + 26.432975481465448 * input[49] + 17.3199189094638 * input[50] + 13.082946790816402 * input[51] + 8.773776477733776 * input[52] + 11.037003638712633 * input[53] + 8.540651859939784 * input[54] + 6.902636066052705 * input[55] + 7.215007505665229 * input[56] + 7.327946579107125 * input[57] + 6.909914685853074 * input[58] + 7.16752994319126 * input[59] + 6.447386881332863 * input[60] + 7.185745562165078 * input[61] + 6.5259777540466715 * input[62] + 6.953186141071058 * input[63] + 33.70794266208565 * input[64] + 23.487214548300408 * input[65] + 20.519890246253333 * input[66] + 16.168217091107607 * input[67] + 9.427896337196033 * input[68] + 9.50710956661526 * input[69] + 9.56928361006755 * input[70] + 7.8791895098642 * input[71] + 7.032826635817777 * input[72] + 6.297289840517199 * input[73] + 6.079789169580984 * input[74]
    var3 = 6.414157545139271 * input[75]
    var4 = 49.87004663340347 * input[0] + 8.457630546468298 * input[1] + 9.689806746804598 * input[2] + 9.714320709953151 * input[3] + 7.555402856650703 * input[4] + 7.028276456592835 * input[5] + 6.2510815834917866 * input[6] + 6.996544332991062 * input[7] + 5.219346542270686 * input[8] + 5.805811445305547 * input[9] + 5.115962727334869 * input[10] + 3.5520735493664777 * input[11] + 4.88929008661291 * input[12] + 4.676929266502449 * input[13] + 5.715897201130671 * input[14] + 4.726521031480711 * input[15] + 65.55327249476933 * input[16] + 11.425168065462572 * input[17] + 6.2332917991863965 * input[18] + 4.244689729840976 * input[19]
    var5 = 4.362041157948974 * input[20]
    var6 = var4 + var5 + 6.297057023840052 * input[21] + 5.69740214462526 * input[22] + 5.010814630855174 * input[23] + 2.9215660631150415 * input[24] + 2.9990320217669817 * input[25] + 3.0818950566315255 * input[26] + 4.164444252323856 * input[27] + 4.023142404180055 * input[28] + 4.230408493432747 * input[29] + 4.471625196030923 * input[30] + 3.889099235584397 * input[31] + 70.89208348127869 * input[32] + 51.21491200030371 * input[33] + 28.138536602567896 * input[34] + 23.17026510065656 * input[35] + 22.989633190682348 * input[36] + 15.877874568787023 * input[37] + 11.86220636921976 * input[38] + 10.257981085764852 * input[39] + 9.819179859140487 * input[40] + 10.363466082644472 * input[41] + 10.314791541302725 * input[42] + 8.196771157720756 * input[43] + 9.325609594173882 * input[44] + 8.10148795708002 * input[45] + 7.896020777483872 * input[46] + 7.486636631686807 * input[47] + 46.57856244690206 * input[48] + 28.13962645681749 * input[49] + 15.447443610773114 * input[50] + 13.523516838585007 * input[51] + 11.700095983141887 * input[52] + 10.65374948282987 * input[53] + 8.846428115749564 * input[54] + 7.791967084436079 * input[55] + 8.338741561295974 * input[56] + 7.974183439500761 * input[57] + 7.3477057024377475 * input[58] + 7.780363666428681 * input[59] + 7.19393505359637 * input[60] + 7.1158837807238235 * input[61] + 7.167206503891972 * input[62] + 7.184041116849785 * input[63] + 62.59426980232518 * input[64] + 25.73479502326164 * input[65] + 16.8709335515935 * input[66] + 10.8794100020001 * input[67] + 10.405820898323846 * input[68] + 10.234586300039746 * input[69] + 8.225146817668048 * input[70] + 7.518954051915104 * input[71] + 7.434928028202275 * input[72] + 6.491622659201487 * input[73] + 5.587353087866159 * input[74]
    var7 = 6.6123175465525454 * input[75]
    var8 = 84.40569895557427 * input[0] + 16.694543529408094 * input[1] + 8.962753139569758 * input[2] + 7.443552218124816 * input[3] + 7.496835128366175 * input[4] + 4.65015114773462 * input[5] + 5.695970837928076 * input[6] + 5.799070368602736 * input[7] + 6.851606659260207 * input[8] + 6.279008529965454 * input[9] + 4.669956584719815 * input[10] + 3.8305875324647656 * input[11] + 7.201424657040244 * input[12] + 8.696972853945459 * input[13] + 13.475148246917046 * input[14] + 6.714162323324111 * input[15] + 57.07011133016329 * input[16] + 6.815182193624898 * input[17] + 3.866167633115125 * input[18] + 4.945049933900123 * input[19]
    var9 = 3.629248014778721 * input[20]
    var10 = var8 + var9 + 3.2241855960934993 * input[21] + 5.735984753332922 * input[22] + 4.100141901709765 * input[23] + 5.835719812788335 * input[24] + 3.0375774721442443 * input[25] + 3.4900724006267803 * input[26] + 4.692324036586689 * input[27] + 4.229128141916833 * input[28] + 5.403306274024604 * input[29] + 6.312417185089027 * input[30] + 16.66275088701645 * input[31] + 68.33242310239244 * input[32] + 37.763204952574185 * input[33] + 20.532895841960105 * input[34] + 17.038036899995355 * input[35] + 36.22828728519414 * input[36] + 13.130149679872776 * input[37] + 9.983975761170141 * input[38] + 11.044104580227573 * input[39] + 9.979450604288512 * input[40] + 10.000902874844632 * input[41] + 8.67298105559632 * input[42] + 6.56665561287488 * input[43] + 9.351793405647841 * input[44] + 10.06281707405571 * input[45] + 9.788002964870392 * input[46] + 10.759042420498917 * input[47] + 40.0242834344247 * input[48] + 42.176051225155696 * input[49] + 24.220714677569013 * input[50] + 20.946319541413516 * input[51] + 14.00005507265968 * input[52] + 15.109957739308587 * input[53] + 12.554301600448111 * input[54] + 12.713188696829164 * input[55] + 12.321357937012413 * input[56] + 10.754314282916903 * input[57] + 10.105237700394676 * input[58] + 9.977002005543255 * input[59] + 8.653838968691257 * input[60] + 8.48176862249057 * input[61] + 8.831737842478814 * input[62] + 8.674470552177567 * input[63] + 58.600969226653035 * input[64] + 23.98611927269711 * input[65] + 17.31646879536881 * input[66] + 8.615211504815996 * input[67] + 10.361484844030535 * input[68] + 9.289036017604001 * input[69] + 7.740290236504071 * input[70] + 6.217400535422337 * input[71] + 7.627891504616883 * input[72] + 6.703696556363102 * input[73] + 6.098328640033355 * input[74]
    var11 = 6.508763555682979 * input[75]
    var12 = 65.24737484005078 * input[0] + 22.16003866646629 * input[1] + 15.794841388154081 * input[2] + 11.477505972521474 * input[3] + 10.572689468258371 * input[4] + 11.651528681902308 * input[5] + 12.587444541456273 * input[6] + 12.041418838449875 * input[7] + 10.513349488012356 * input[8] + 7.6711075010126795 * input[9] + 7.352251974852067 * input[10] + 6.116595536781812 * input[11] + 5.4656624387751185 * input[12] + 9.192838336428894 * input[13] + 12.129158878833215 * input[14] + 12.3492318554736 * input[15] + 70.13609167527764 * input[16] + 19.53555516909806 * input[17] + 15.398394843190868 * input[18] + 21.297703654936026 * input[19]
    var13 = 28.227151600469035 * input[20]
    var14 = var12 + var13 + 13.279504466059958 * input[21] + 9.974291150803323 * input[22] + 9.785267989259532 * input[23] + 8.027343511964776 * input[24] + 8.603764732401531 * input[25] + 8.146343923249091 * input[26] + 8.065079521361948 * input[27] + 7.454731896601491 * input[28] + 7.875401238722727 * input[29] + 7.542937635048263 * input[30] + 8.210396122035808 * input[31] + 54.182519238201664 * input[32] + 64.35267271764874 * input[33] + 31.82113873999559 * input[34] + 20.19571861798933 * input[35] + 15.6991741588366 * input[36] + 18.01157506577036 * input[37] + 13.05989591863655 * input[38] + 11.008897045172484 * input[39] + 9.726824505316866 * input[40] + 10.65789503353377 * input[41] + 9.219123262319648 * input[42] + 8.308272061190072 * input[43] + 7.6716545728572285 * input[44] + 7.272463842467131 * input[45] + 7.752693875905816 * input[46] + 7.064995516954296 * input[47] + 32.58216110209831 * input[48] + 40.58116319216285 * input[49] + 24.175660358092248 * input[50] + 15.098131708974657 * input[51] + 13.657171200905559 * input[52] + 13.704624510461766 * input[53] + 11.716085644364831 * input[54] + 12.56856944083953 * input[55] + 10.65950926258699 * input[56] + 11.414060292890632 * input[57] + 9.19651184453215 * input[58] + 8.908633913026527 * input[59] + 8.996479324969151 * input[60] + 9.466979168230377 * input[61] + 7.6988395766857085 * input[62] + 8.474761087066724 * input[63] + 52.68111600644139 * input[64] + 24.60346566644637 * input[65] + 19.98620254771409 * input[66] + 9.895023508727604 * input[67] + 10.026503051866126 * input[68] + 9.126429835944272 * input[69] + 6.852590040398807 * input[70] + 7.499631316273169 * input[71] + 7.424228925180392 * input[72] + 5.265745089493533 * input[73] + 6.286142404811049 * input[74]
    var15 = 5.4382270223214 * input[75]
    var16 = 78.26010736788882 * input[0] + 21.218336159329958 * input[1] + 12.041235673059049 * input[2] + 9.298033278760329 * input[3] + 6.607422598102432 * input[4] + 6.3397141712287235 * input[5] + 5.985919171920751 * input[6] + 6.172131422811616 * input[7] + 6.130394623835629 * input[8] + 5.439293761138198 * input[9] + 4.63724862068083 * input[10] + 4.474233048763616 * input[11] + 4.277192422256305 * input[12] + 3.910267629278949 * input[13] + 6.843209750726811 * input[14] + 6.790174252928555 * input[15] + 83.48001976353348 * input[16] + 24.056994511738413 * input[17] + 15.680533121843965 * input[18] + 16.585403484352145 * input[19]
    var17 = 17.602670460845445 * input[20]
    var18 = var16 + var17 + 8.864825778010669 * input[21] + 8.540197019740281 * input[22] + 7.8620953731144025 * input[23] + 7.5300650822933335 * input[24] + 6.581924652499843 * input[25] + 7.383105171045709 * input[26] + 6.875439578579115 * input[27] + 9.819212694109728 * input[28] + 7.66888123006023 * input[29] + 9.05330170804703 * input[30] + 11.042491075155553 * input[31] + 39.253633483298835 * input[32] + 58.24004769813421 * input[33] + 29.936219374567603 * input[34] + 16.449779808896686 * input[35] + 18.70808949576105 * input[36] + 15.59080249920559 * input[37] + 11.929984867718623 * input[38] + 11.132177823019967 * input[39] + 11.101299679757602 * input[40] + 8.930414663837167 * input[41] + 7.7887937414606725 * input[42] + 8.362649843881323 * input[43] + 8.170868642434797 * input[44] + 8.038453008262021 * input[45] + 7.814617229381246 * input[46] + 7.439740482571763 * input[47] + 34.261826355355936 * input[48] + 59.27118824940832 * input[49] + 16.09577111477678 * input[50] + 17.23764900152164 * input[51] + 17.340040523354325 * input[52] + 10.64908751807669 * input[53] + 12.791473063405489 * input[54] + 13.628864273330391 * input[55] + 9.5216302356257 * input[56] + 12.28030201308621 * input[57] + 12.869880727430747 * input[58] + 10.380380570263487 * input[59] + 8.689304793222433 * input[60] + 12.148404203683747 * input[61] + 9.277919077322867 * input[62] + 10.095049028952307 * input[63] + 62.91873311518134 * input[64] + 37.39578408109557 * input[65] + 22.71089810062559 * input[66] + 16.222071222036107 * input[67] + 13.486520275508495 * input[68] + 12.504571229207233 * input[69] + 10.762962168412269 * input[70] + 10.093881609103908 * input[71] + 15.465232050022093 * input[72] + 11.35161826467527 * input[73] + 10.275712558219325 * input[74]
    var19 = 10.893125568744473 * input[75]
    var20 = 69.61708401310648 * input[0] + 12.921466989521718 * input[1] + 7.485426640068108 * input[2] + 5.114866266538319 * input[3] + 3.9705973558018037 * input[4] + 3.3588847738400283 * input[5] + 2.758876247295179 * input[6] + 2.3089311975075644 * input[7] + 2.1333739025998684 * input[8] + 1.8231319044005314 * input[9] + 1.690577302144609 * input[10] + 1.54933642205446 * input[11] + 1.4062716509602287 * input[12] + 1.3331262173002882 * input[13] + 1.3191503307030246 * input[14] + 1.25497162607676 * input[15] + 80.31269352193422 * input[16] + 31.625955891013966 * input[17] + 21.820242480631894 * input[18] + 14.906292619711987 * input[19]
    var21 = 36.40910508992245 * input[20]
    var22 = var20 + var21 + 16.971475523397174 * input[21] + 14.22863720785415 * input[22] + 9.608583987180872 * input[23] + 9.860141196473851 * input[24] + 8.964931636913292 * input[25] + 9.92912420304378 * input[26] + 10.602497603281998 * input[27] + 9.337633744194527 * input[28] + 10.586801363589927 * input[29] + 7.967088199214373 * input[30] + 8.352169463093752 * input[31] + 48.05555142547681 * input[32] + 42.7714179928477 * input[33] + 23.755161419085294 * input[34] + 24.136074255955194 * input[35] + 14.181550869971868 * input[36] + 12.725175803785408 * input[37] + 10.89051355758923 * input[38] + 12.479861469350242 * input[39] + 9.907623395930768 * input[40] + 10.821971442806586 * input[41] + 7.8328091457624005 * input[42] + 8.52308155819085 * input[43] + 7.561522347850859 * input[44] + 7.932173085180114 * input[45] + 7.622708680431776 * input[46] + 8.49993965686632 * input[47] + 54.65780330587095 * input[48] + 26.10361294227162 * input[49] + 21.30336942192676 * input[50] + 14.538166808327441 * input[51] + 9.500087794016792 * input[52] + 10.743714231520997 * input[53] + 8.444207824169016 * input[54] + 8.165610475680928 * input[55] + 8.383461521853606 * input[56] + 6.200995909910472 * input[57] + 6.996412239973617 * input[58] + 6.3146455823292005 * input[59] + 6.2530563847768 * input[60] + 6.036074251813302 * input[61] + 6.240028947657315 * input[62] + 6.138844701279755 * input[63] + 42.76706364418072 * input[64] + 23.925159152713217 * input[65] + 20.134171929966556 * input[66] + 14.380553263124911 * input[67] + 8.880859458221414 * input[68] + 9.181429855683465 * input[69] + 8.657752368099416 * input[70] + 6.008447472198203 * input[71] + 7.748078913087122 * input[72] + 6.781230974159956 * input[73] + 5.457283672805586 * input[74]
    var23 = 6.140460741163953 * input[75]
    var24 = 70.16941491685549 * input[0] + 12.448641915837776 * input[1] + 7.905524873963049 * input[2] + 5.51775052847718 * input[3] + 3.9986532861838664 * input[4] + 3.8018305672616197 * input[5] + 2.85227616355357 * input[6] + 3.0129343614114634 * input[7] + 3.4310603949546543 * input[8] + 3.8599227747824116 * input[9] + 3.4971115152101415 * input[10] + 2.887922673175782 * input[11] + 4.567903195455908 * input[12] + 6.389380786273097 * input[13] + 8.77535924001204 * input[14] + 11.638412159289869 * input[15] + 52.49036094522862 * input[16] + 48.67907443769544 * input[17] + 19.036610657589502 * input[18] + 21.650546410459988 * input[19]
    var25 = 24.00827842791411 * input[20]
    var26 = var24 + var25 + 22.213666510637466 * input[21] + 13.173779803402107 * input[22] + 9.084375061681241 * input[23] + 9.283802640188224 * input[24] + 10.270807238776907 * input[25] + 9.07549673511604 * input[26] + 8.835518388727804 * input[27] + 6.903944840298553 * input[28] + 8.394914326448287 * input[29] + 6.2369293449826575 * input[30] + 8.633677972107241 * input[31] + 52.10176662727483 * input[32] + 34.047086723506155 * input[33] + 17.59935118569068 * input[34] + 16.082024882278535 * input[35] + 14.127511344026185 * input[36] + 12.735828666716793 * input[37] + 10.824223514908285 * input[38] + 9.515464469052885 * input[39] + 9.300404871989546 * input[40] + 9.561750853988533 * input[41] + 7.691075806737225 * input[42] + 8.58451130219448 * input[43] + 7.1365356176330135 * input[44] + 7.858201505668715 * input[45] + 6.871732381834917 * input[46] + 7.491687360023489 * input[47] + 26.11240979211309 * input[48] + 17.249260106763415 * input[49] + 17.035057631241795 * input[50] + 10.231769543336714 * input[51] + 8.246250414302565 * input[52] + 7.904939822023967 * input[53] + 6.723325472828175 * input[54] + 6.997196633386537 * input[55] + 4.463367370756754 * input[56] + 5.633283833543038 * input[57] + 5.502007761972395 * input[58] + 4.859371198874178 * input[59] + 5.214693549030871 * input[60] + 4.383037727407088 * input[61] + 5.388965058828387 * input[62] + 5.409810825273783 * input[63] + 51.81060100878345 * input[64] + 34.309808756304044 * input[65] + 27.521721131148354 * input[66] + 15.522038020492957 * input[67] + 10.431411944221725 * input[68] + 13.524087861922201 * input[69] + 8.980322522850903 * input[70] + 7.314134420070329 * input[71] + 7.931155341432855 * input[72] + 6.539941495234125 * input[73] + 7.670994213627682 * input[74]
    var27 = 6.452307923456331 * input[75]
    var28 = 67.81261264386325 * input[0] + 11.93567173148833 * input[1] + 7.968941131605895 * input[2] + 5.967089551950894 * input[3] + 6.354274394916713 * input[4] + 6.686814473270074 * input[5] + 10.075255159358093 * input[6] + 8.223169701756799 * input[7] + 7.586497837261458 * input[8] + 2.590723052843304 * input[9] + 2.8980486299326405 * input[10] + 5.364297514713928 * input[11] + 4.7350944972676885 * input[12] + 7.550935094742668 * input[13] + 4.528144465935302 * input[14] + 3.068180940187217 * input[15] + 82.11295919904752 * input[16] + 19.089715129902995 * input[17] + 11.04519966066325 * input[18] + 9.722623139361065 * input[19]
    var29 = 5.906290628239664 * input[20]
    var30 = var28 + var29 + 6.04456031197306 * input[21] + 5.875379992620974 * input[22] + 6.716382737967276 * input[23] + 6.274699578542055 * input[24] + 5.753567446965479 * input[25] + 5.1587235777696065 * input[26] + 4.467520648290401 * input[27] + 4.929518347020152 * input[28] + 5.8617158677681225 * input[29] + 5.562867262307444 * input[30] + 6.0332032558283295 * input[31] + 74.95375500360868 * input[32] + 11.27747054520907 * input[33] + 6.834364575349987 * input[34] + 4.529411779361023 * input[35] + 3.396405823189366 * input[36] + 3.3254048407933894 * input[37] + 3.0099727435681234 * input[38] + 3.1618560022263384 * input[39] + 3.2342047759088937 * input[40] + 3.023879717891873 * input[41] + 2.8310964784742074 * input[42] + 2.6131348084532773 * input[43] + 2.3013939431609893 * input[44] + 2.1415394357081903 * input[45] + 2.1143013421496093 * input[46] + 1.8705850623293863 * input[47] + 36.849866810523544 * input[48] + 55.07385503542895 * input[49] + 14.249838166853428 * input[50] + 9.320455799837744 * input[51] + 25.699183336094066 * input[52] + 10.420465850645703 * input[53] + 12.356635263438413 * input[54] + 9.309217823545978 * input[55] + 9.392205364638205 * input[56] + 11.10706121483861 * input[57] + 7.237037199845357 * input[58] + 8.508170736632149 * input[59] + 9.776540876569452 * input[60] + 6.651097364192297 * input[61] + 8.697222619805999 * input[62] + 7.8384242889619 * input[63] + 5.938636470620743 * input[64] + 43.559508346356225 * input[65] + 8.07332330515206 * input[66] + 6.519711129316059 * input[67] + 22.37607278011148 * input[68] + 7.239237269997316 * input[69] + 9.428802989350586 * input[70] + 11.867350005208 * input[71] + 6.915016223832062 * input[72] + 12.424889138179054 * input[73] + 6.187419930728036 * input[74]
    var31 = 6.633321305517893 * input[75]
    var32 = 68.6683668354566 * input[0] + 12.462626774537616 * input[1] + 9.766416404267376 * input[2] + 8.953902366200332 * input[3] + 8.68147194691111 * input[4] + 7.996319580187597 * input[5] + 16.887490458323242 * input[6] + 9.249948945057412 * input[7] + 9.219653583983636 * input[8] + 6.99618001353285 * input[9] + 5.149817119248049 * input[10] + 5.956976757454818 * input[11] + 5.955800004189552 * input[12] + 5.513383556954585 * input[13] + 5.551392591617706 * input[14] + 7.939573173279056 * input[15] + 66.72743636022926 * input[16] + 14.228837239091217 * input[17] + 8.699962730746744 * input[18] + 8.593523512977473 * input[19]
    var33 = 6.381401853326726 * input[20]
    var34 = var32 + var33 + 3.263545549395567 * input[21] + 5.886344261590965 * input[22] + 4.962521545152111 * input[23] + 3.085155430176499 * input[24] + 4.138688820242564 * input[25] + 5.179829699287398 * input[26] + 4.3857377300584215 * input[27] + 6.588754716418022 * input[28] + 7.0663257193499085 * input[29] + 9.348312551129158 * input[30] + 8.354806206564119 * input[31] + 65.11032734916594 * input[32] + 11.747737572121826 * input[33] + 7.99763389385572 * input[34] + 5.19754607804866 * input[35] + 5.0530570338943575 * input[36] + 4.536683366209178 * input[37] + 4.1897336446276245 * input[38] + 3.9549352928479786 * input[39] + 4.58997337497451 * input[40] + 3.7135995575243888 * input[41] + 4.414164608408512 * input[42] + 4.02409090405609 * input[43] + 4.509711504078727 * input[44] + 6.441886453027605 * input[45] + 5.279372649609383 * input[46] + 6.677453451310651 * input[47] + 54.16405182602331 * input[48] + 47.903066914508436 * input[49] + 28.54166264767193 * input[50] + 23.937757091839565 * input[51] + 14.784905672729458 * input[52] + 11.700747473536762 * input[53] + 12.672782155360405 * input[54] + 12.428119366409994 * input[55] + 10.643734565356969 * input[56] + 8.167305458976696 * input[57] + 8.769744945203835 * input[58] + 8.288448742792827 * input[59] + 7.2561240552716 * input[60] + 7.5981747416840495 * input[61] + 7.914615267274811 * input[62] + 7.137235647990343 * input[63] + 28.37271216505132 * input[64] + 23.998016306249966 * input[65] + 16.293950759174926 * input[66] + 13.716942295085365 * input[67] + 12.110776646519184 * input[68] + 12.518099550180764 * input[69] + 13.062776254460065 * input[70] + 10.848496685075165 * input[71] + 9.6259022479578 * input[72] + 9.991485081657736 * input[73] + 9.811722686041517 * input[74]
    var35 = 8.824305588523169 * input[75]
    var36 = 59.530225098749206 * input[0] + 15.771629871499623 * input[1] + 5.237836300026146 * input[2] + 6.532505606716671 * input[3] + 3.238165044034635 * input[4] + 3.3672262270366176 * input[5] + 2.709645636571323 * input[6] + 1.9831019775312841 * input[7] + 2.2926045781169777 * input[8] + 1.96151130275401 * input[9] + 2.0162908972757982 * input[10] + 2.41029722632374 * input[11] + 1.8517293049480545 * input[12] + 2.6838998909275404 * input[13] + 2.027736569192818 * input[14] + 2.357885620121188 * input[15] + 73.8554307375137 * input[16] + 12.690550876719271 * input[17] + 7.5083387339423515 * input[18] + 6.640194906144858 * input[19]
    var37 = 5.7208130074194745 * input[20]
    var38 = var36 + var37 + 4.268628199878886 * input[21] + 3.037930770618874 * input[22] + 2.9098963813691157 * input[23] + 2.877409135946019 * input[24] + 3.063528461495693 * input[25] + 3.851748896068045 * input[26] + 4.243243974735985 * input[27] + 4.142931533104417 * input[28] + 4.901340428128691 * input[29] + 6.034638345301747 * input[30] + 5.775208617383087 * input[31] + 76.76051468247104 * input[32] + 31.500623807680533 * input[33] + 15.492900775718208 * input[34] + 11.54732775752969 * input[35] + 6.578039598883662 * input[36] + 7.089860668822915 * input[37] + 6.594821589100345 * input[38] + 6.329616894670431 * input[39] + 6.61544549288517 * input[40] + 5.032805722138869 * input[41] + 4.971246426567417 * input[42] + 4.8450355917533745 * input[43] + 7.06287188909585 * input[44] + 6.467733040390735 * input[45] + 7.965819583086282 * input[46] + 9.581190941844769 * input[47] + 38.47424443427268 * input[48] + 69.41897325834596 * input[49] + 28.815587873222242 * input[50] + 18.23051313750561 * input[51] + 20.13817744709502 * input[52] + 14.376627129891908 * input[53] + 10.395341557660462 * input[54] + 11.84533509327498 * input[55] + 12.437026713317415 * input[56] + 9.857689940662125 * input[57] + 10.301559575454744 * input[58] + 10.51010368920737 * input[59] + 11.841444095654712 * input[60] + 11.509484760489913 * input[61] + 10.148870433588595 * input[62] + 11.30352520626884 * input[63] + 53.30156617151061 * input[64] + 60.95307871799053 * input[65] + 25.30366029525635 * input[66] + 18.139240539527112 * input[67] + 22.49853807349497 * input[68] + 15.03575604750004 * input[69] + 14.214461698610817 * input[70] + 10.987631947382077 * input[71] + 10.590835538098933 * input[72] + 9.962391489836497 * input[73] + 8.338651235759471 * input[74]
    var39 = 8.232641320878919 * input[75]
    var40 = 68.79951158609822 * input[0] + 20.134137821582865 * input[1] + 28.305492453198035 * input[2] + 11.28915380482 * input[3] + 12.168716985052516 * input[4] + 12.221910964138118 * input[5] + 7.609036388931743 * input[6] + 6.027514148807459 * input[7] + 6.533187323754087 * input[8] + 8.824992838067264 * input[9] + 4.7086790288924725 * input[10] + 4.108201853596103 * input[11] + 5.963867014697657 * input[12] + 6.956977438220701 * input[13] + 6.25534658656652 * input[14] + 6.186629020780588 * input[15] + 81.11956366641438 * input[16] + 15.240780870397558 * input[17] + 8.327143940436105 * input[18] + 5.950032311421945 * input[19]
    var41 = 5.000310452585211 * input[20]
    var42 = var40 + var41 + 4.64659116837606 * input[21] + 3.979098885578936 * input[22] + 3.0959435585385204 * input[23] + 2.8756813691335537 * input[24] + 3.527638351201726 * input[25] + 4.169343722552027 * input[26] + 3.506777959260466 * input[27] + 3.7037008517152987 * input[28] + 4.50689851545615 * input[29] + 6.55942334258906 * input[30] + 8.639197812497303 * input[31] + 83.1023193979402 * input[32] + 44.89557989561625 * input[33] + 17.154751621560617 * input[34] + 13.94157760127058 * input[35] + 10.627928813097789 * input[36] + 8.850075163543597 * input[37] + 9.167664005782992 * input[38] + 8.869961538993458 * input[39] + 6.075730727521691 * input[40] + 6.763605224059663 * input[41] + 5.571136033251557 * input[42] + 6.546559887966673 * input[43] + 5.927958930938913 * input[44] + 6.302191537878488 * input[45] + 7.5302217158639095 * input[46] + 18.316564555476536 * input[47] + 67.79605435966647 * input[48] + 67.40985365350846 * input[49] + 31.218510196677457 * input[50] + 21.71650018851221 * input[51] + 15.883255960808494 * input[52] + 16.15237493289419 * input[53] + 13.647521717279 * input[54] + 12.76856875579514 * input[55] + 11.812021990099627 * input[56] + 10.324316123097613 * input[57] + 11.482622519751551 * input[58] + 12.65930843796342 * input[59] + 11.26790117123132 * input[60] + 10.665356264681126 * input[61] + 10.698995353546046 * input[62] + 10.836736424897598 * input[63] + 60.88324042135489 * input[64] + 65.52021426001284 * input[65] + 26.75111159999693 * input[66] + 17.309288140973123 * input[67] + 20.263169438387465 * input[68] + 17.31613100278574 * input[69] + 12.150711238743366 * input[70] + 13.872003508502658 * input[71] + 11.240223562006012 * input[72] + 9.266508853771729 * input[73] + 9.344333079455911 * input[74]
    var43 = 8.62273423746325 * input[75]
    var44 = 79.80599899895742 * input[0] + 23.73143146810403 * input[1] + 19.334346255386663 * input[2] + 21.239513380355106 * input[3] + 12.167462989944966 * input[4] + 14.11104407680915 * input[5] + 14.140329750002866 * input[6] + 11.90492332226152 * input[7] + 9.23796217005235 * input[8] + 9.691218821085979 * input[9] + 11.972664748082945 * input[10] + 9.314879094670573 * input[11] + 6.369027585384613 * input[12] + 8.009327869472113 * input[13] + 8.386738613028548 * input[14] + 8.384921174044518 * input[15] + 55.7495775786323 * input[16] + 10.78945239772871 * input[17] + 11.491218789881357 * input[18] + 8.89083722402361 * input[19]
    var45 = 9.042433068559458 * input[20]
    var46 = var44 + var45 + 6.550227930713103 * input[21] + 5.802347928692748 * input[22] + 7.7871215260564455 * input[23] + 3.4384937795593773 * input[24] + 5.344257234537579 * input[25] + 5.786881766043135 * input[26] + 5.009910986969539 * input[27] + 5.649437839316734 * input[28] + 3.926643491880439 * input[29] + 5.9971241953430345 * input[30] + 8.629965843278761 * input[31] + 63.50325818071403 * input[32] + 44.06740506446224 * input[33] + 19.923043168381287 * input[34] + 15.551432685573221 * input[35] + 14.260206392375325 * input[36] + 9.685171024706856 * input[37] + 10.439760754257389 * input[38] + 12.395386079856918 * input[39] + 10.196905434043458 * input[40] + 7.854185313324535 * input[41] + 7.241962669626032 * input[42] + 8.04481085119188 * input[43] + 7.577804545392286 * input[44] + 8.63929226533355 * input[45] + 11.088788468523077 * input[46] + 17.9292620224779 * input[47] + 54.70573232130947 * input[48] + 24.837335988923144 * input[49] + 12.515119564301175 * input[50] + 15.028190591485313 * input[51] + 10.363269057127372 * input[52] + 6.42438454860925 * input[53] + 10.22056026854878 * input[54] + 7.46187981502537 * input[55] + 6.867390649082372 * input[56] + 6.803719569727001 * input[57] + 6.086816683389529 * input[58] + 6.21239248114781 * input[59] + 5.731290097669545 * input[60] + 5.114570820596764 * input[61] + 5.503044730874287 * input[62] + 4.822682278114833 * input[63] + 55.171423882673515 * input[64] + 22.885309724514656 * input[65] + 13.64064119861046 * input[66] + 12.790800317734444 * input[67] + 10.22831959872073 * input[68] + 8.212811051574178 * input[69] + 9.62389904986508 * input[70] + 6.998197360818139 * input[71] + 5.781277747524433 * input[72] + 7.506469441707114 * input[73] + 6.587131704606478 * input[74]
    var47 = 4.926258902213628 * input[75]
    var48 = 61.252692347298165 * input[0] + 24.229208501110048 * input[1] + 14.626985932246232 * input[2] + 14.710923568599593 * input[3] + 12.000548545760306 * input[4] + 12.278139747016635 * input[5] + 5.800729987184003 * input[6] + 7.81748965945267 * input[7] + 8.317121216625665 * input[8] + 6.505482476469797 * input[9] + 7.592113545434869 * input[10] + 6.643546812538904 * input[11] + 6.958610230469116 * input[12] + 12.467116035367042 * input[13] + 8.496337100640233 * input[14] + 12.408855908357886 * input[15] + 53.65723433812055 * input[16] + 43.8954198448004 * input[17] + 18.906826679402908 * input[18] + 21.5832525729014 * input[19]
    var49 = 13.457576873829375 * input[20]
    var50 = var48 + var49 + 14.118699254943099 * input[21] + 11.00657771735349 * input[22] + 8.796579165873005 * input[23] + 8.890614290347633 * input[24] + 8.743444792206695 * input[25] + 7.260968957226466 * input[26] + 7.400351005304953 * input[27] + 7.137594818190012 * input[28] + 6.739594217871414 * input[29] + 6.062892574222051 * input[30] + 6.59525232111527 * input[31] + 42.56960545633043 * input[32] + 53.34158874731122 * input[33] + 29.656789036618456 * input[34] + 21.922373243344495 * input[35] + 16.23688447103737 * input[36] + 13.58596047383255 * input[37] + 16.042435811097576 * input[38] + 8.274005336809603 * input[39] + 10.083654728594368 * input[40] + 10.381599115616133 * input[41] + 9.701990067628852 * input[42] + 8.877863235108501 * input[43] + 6.97304741249632 * input[44] + 7.553793946937846 * input[45] + 9.880296503872309 * input[46] + 6.886500101948807 * input[47] + 77.10112622652602 * input[48] + 54.886274873054475 * input[49] + 25.465823296211052 * input[50] + 17.403337445220366 * input[51] + 16.99621969435721 * input[52] + 12.572970222221244 * input[53] + 12.53734829857096 * input[54] + 8.783020385623875 * input[55] + 10.432862598844773 * input[56] + 8.447373670419863 * input[57] + 7.09068354481632 * input[58] + 8.244404496596811 * input[59] + 6.323129103210768 * input[60] + 6.96207638167829 * input[61] + 5.810041492319995 * input[62] + 6.172165625677855 * input[63] + 59.68181689118852 * input[64] + 52.508788596261574 * input[65] + 22.77022304267879 * input[66] + 19.050456011521973 * input[67] + 17.492576330951692 * input[68] + 13.360760362985456 * input[69] + 10.237969630037899 * input[70] + 10.416803784314475 * input[71] + 9.895778686332582 * input[72] + 8.076480014360023 * input[73] + 7.416682060365089 * input[74]
    var51 = 7.18380813899491 * input[75]
    var52 = 70.82617093398133 * input[0] + 12.829061799776051 * input[1] + 9.839095127465828 * input[2] + 6.531614273217475 * input[3] + 4.170716227695214 * input[4] + 4.724818254309847 * input[5] + 4.920353847701537 * input[6] + 3.2372391230250637 * input[7] + 2.513375448359702 * input[8] + 3.5594269702913213 * input[9] + 3.133428240715821 * input[10] + 2.983716018369718 * input[11] + 3.338164177919134 * input[12] + 3.444945709991013 * input[13] + 4.003053794803527 * input[14] + 3.5200957233080765 * input[15] + 76.3845790284038 * input[16] + 43.992986461714125 * input[17] + 17.57843347846707 * input[18] + 17.99122663658254 * input[19]
    var53 = 14.918196582192657 * input[20]
    var54 = var52 + var53 + 11.94949382507038 * input[21] + 8.967336920671482 * input[22] + 7.020597191809725 * input[23] + 7.790332359751636 * input[24] + 7.621859602052812 * input[25] + 7.913612455995159 * input[26] + 7.542435140720429 * input[27] + 9.79475439664851 * input[28] + 10.077556620643886 * input[29] + 13.824305595813698 * input[30] + 17.204311431102088 * input[31] + 43.49447875251094 * input[32] + 82.53000858733282 * input[33] + 31.53744922288739 * input[34] + 23.996250596412448 * input[35] + 16.167046477641613 * input[36] + 17.91908684434123 * input[37] + 11.80740970082132 * input[38] + 13.505912606852773 * input[39] + 10.33612403430745 * input[40] + 10.546210944486985 * input[41] + 9.942499164572094 * input[42] + 10.929323333162849 * input[43] + 7.913467579490742 * input[44] + 8.418354395542622 * input[45] + 7.44221406254122 * input[46] + 9.37490742346144 * input[47] + 31.21708504108567 * input[48] + 79.99940297116295 * input[49] + 24.66807097887654 * input[50] + 20.654896301828042 * input[51] + 19.671892822128427 * input[52] + 19.619194779300038 * input[53] + 16.081420859158104 * input[54] + 11.267389023467297 * input[55] + 11.383700200229843 * input[56] + 13.928886674025655 * input[57] + 7.891715769628281 * input[58] + 10.314611442604042 * input[59] + 8.721335553001737 * input[60] + 9.691658897811617 * input[61] + 8.62598360049504 * input[62] + 9.610144509048247 * input[63] + 39.94589851484757 * input[64] + 76.83604043394247 * input[65] + 21.229043994555354 * input[66] + 20.888191806676254 * input[67] + 21.37024382533223 * input[68] + 15.105439326875937 * input[69] + 12.334038065471358 * input[70] + 13.459200545427436 * input[71] + 10.681838386176624 * input[72] + 9.661091400084315 * input[73] + 10.207759591698014 * input[74]
    var55 = 10.286536803435688 * input[75]
    var56 = 60.313583247584106 * input[0] + 17.09807576411783 * input[1] + 7.411695832302069 * input[2] + 6.196545916259554 * input[3] + 5.374567224064369 * input[4] + 4.765291691251198 * input[5] + 5.438732973240574 * input[6] + 5.722614144743812 * input[7] + 3.4909458022660065 * input[8] + 4.4241778168691575 * input[9] + 4.223872356992938 * input[10] + 6.711574720049876 * input[11] + 4.148716718450607 * input[12] + 5.680074463188286 * input[13] + 6.090350300025447 * input[14] + 6.202173025606258 * input[15] + 69.6700102298667 * input[16] + 18.86532701475222 * input[17] + 8.622440029022512 * input[18] + 6.941172598646511 * input[19]
    var57 = 4.934477469246703 * input[20]
    var58 = var56 + var57 + 4.275884722650234 * input[21] + 4.051736233328886 * input[22] + 3.844258363752975 * input[23] + 2.458400716508839 * input[24] + 2.6898815579022175 * input[25] + 3.4140371916203964 * input[26] + 2.542344421551271 * input[27] + 2.8096528539183647 * input[28] + 2.6694093974620197 * input[29] + 3.52855522213581 * input[30] + 4.487361174433423 * input[31] + 84.90936942508307 * input[32] + 39.000593196218276 * input[33] + 15.57522740187823 * input[34] + 12.854272054659486 * input[35] + 11.552849119799244 * input[36] + 8.770170822046083 * input[37] + 7.044130946894649 * input[38] + 6.766661897597908 * input[39] + 6.5160762606694504 * input[40] + 5.849394396689041 * input[41] + 4.849544156764793 * input[42] + 4.984788783861236 * input[43] + 4.9736746930124305 * input[44] + 4.4465402936283525 * input[45] + 5.3277775421678255 * input[46] + 4.0104500678385815 * input[47] + 72.50783702113398 * input[48] + 51.61998867630159 * input[49] + 32.4439191723828 * input[50] + 18.333492850024086 * input[51] + 17.859424498067355 * input[52] + 14.980604622186885 * input[53] + 10.008740104236068 * input[54] + 12.236138915373887 * input[55] + 8.190333965475777 * input[56] + 9.714867471643391 * input[57] + 8.430799267364007 * input[58] + 8.420030081604875 * input[59] + 8.907016992662745 * input[60] + 7.1359731183505755 * input[61] + 7.019242729853021 * input[62] + 8.129815366148666 * input[63] + 57.38512760778937 * input[64] + 30.232360055112895 * input[65] + 46.88891844557352 * input[66] + 20.563145526049567 * input[67] + 16.945975305304888 * input[68] + 16.262506808178326 * input[69] + 17.455949666961867 * input[70] + 16.224816027169865 * input[71] + 14.94767176547789 * input[72] + 13.580812965589136 * input[73] + 12.62986057942825 * input[74]
    var59 = 16.218084678299917 * input[75]
    var60 = 82.3235393598168 * input[0] + 28.38087508492684 * input[1] + 22.132401012034265 * input[2] + 13.830760518232761 * input[3] + 9.587980757889424 * input[4] + 9.147527484800381 * input[5] + 8.657772067981591 * input[6] + 7.731430659913651 * input[7] + 6.559489450867256 * input[8] + 5.831109977807387 * input[9] + 5.244340949651553 * input[10] + 5.940656003964526 * input[11] + 5.5665770530744725 * input[12] + 5.123835625715576 * input[13] + 5.856919192664325 * input[14] + 5.06312129070891 * input[15] + 91.74119454387055 * input[16] + 31.269797428792963 * input[17] + 14.330039099724262 * input[18] + 11.160020986271192 * input[19]
    var61 = 9.85965376518835 * input[20]
    var62 = var60 + var61 + 7.381952424456635 * input[21] + 5.235005326193238 * input[22] + 6.548235929583286 * input[23] + 4.441421921197026 * input[24] + 4.70438067856232 * input[25] + 4.709223909447945 * input[26] + 4.106359582831783 * input[27] + 3.4935079497175394 * input[28] + 4.598853404946055 * input[29] + 3.7400101359929643 * input[30] + 3.3948354882922693 * input[31] + 87.7856865667224 * input[32] + 48.62453785720815 * input[33] + 27.58271659731561 * input[34] + 19.547473912517507 * input[35] + 14.886987273688025 * input[36] + 12.694819782760502 * input[37] + 9.956049998170963 * input[38] + 9.269819505553091 * input[39] + 7.978660765272197 * input[40] + 8.626243614603021 * input[41] + 7.114788331810598 * input[42] + 6.284474444219635 * input[43] + 6.95702348984538 * input[44] + 7.38436187574033 * input[45] + 6.574469468007594 * input[46] + 6.430400462004625 * input[47] + 47.90008159082191 * input[48] + 41.787472960907635 * input[49] + 68.239023140745 * input[50] + 19.743237539630048 * input[51] + 20.363249010095146 * input[52] + 19.846078411461413 * input[53] + 18.586558107736913 * input[54] + 15.689334331737149 * input[55] + 14.113486286077103 * input[56] + 14.420241603511665 * input[57] + 14.576089286833358 * input[58] + 14.844818740805593 * input[59] + 10.30752141977085 * input[60] + 10.732304150137578 * input[61] + 11.817047041128689 * input[62] + 10.726004293510426 * input[63] + 61.73319261890791 * input[64] + 24.214266440092572 * input[65] + 57.45842602128543 * input[66] + 23.47500675396966 * input[67] + 20.30085014138482 * input[68] + 22.238823824804275 * input[69] + 15.337813410680926 * input[70] + 18.861605604587307 * input[71] + 13.280610060013533 * input[72] + 14.312317342015895 * input[73] + 13.565287335047122 * input[74]
    var63 = 14.562630012571791 * input[75]
    var64 = 75.17299658196987 * input[0] + 25.55471119397524 * input[1] + 18.621708243689756 * input[2] + 11.008605379902427 * input[3] + 9.35469738196332 * input[4] + 8.003052054706709 * input[5] + 6.241745521707683 * input[6] + 6.106865840632398 * input[7] + 5.70562556569121 * input[8] + 6.623498511571726 * input[9] + 6.530496500711559 * input[10] + 5.643709260203789 * input[11] + 7.8833120692097385 * input[12] + 7.520620680092648 * input[13] + 6.999404821322806 * input[14] + 8.329659754276161 * input[15] + 70.45700223780986 * input[16] + 36.95354386271066 * input[17] + 22.103969296270428 * input[18] + 20.58664694525126 * input[19]
    var65 = 11.577057353728204 * input[20]
    var66 = var64 + var65 + 11.784671691619414 * input[21] + 11.904743111919693 * input[22] + 9.012140762249121 * input[23] + 9.153137504327898 * input[24] + 8.193496661863463 * input[25] + 8.54197335967865 * input[26] + 7.119446864759515 * input[27] + 7.1261211598820395 * input[28] + 7.333749689343724 * input[29] + 8.076091851940838 * input[30] + 8.08216789743534 * input[31] + 59.70165394160354 * input[32] + 26.755650697227473 * input[33] + 21.529785913672406 * input[34] + 15.56580016491659 * input[35] + 13.559590085808509 * input[36] + 14.35813649896497 * input[37] + 11.1500748104359 * input[38] + 9.969893743585693 * input[39] + 8.079572598248888 * input[40] + 8.493712089276706 * input[41] + 8.368960795741428 * input[42] + 6.920919961637436 * input[43] + 6.888405195370826 * input[44] + 6.665246508928536 * input[45] + 6.35189512349417 * input[46] + 6.989961483681055 * input[47] + 56.46968215158317 * input[48] + 16.318449347599977 * input[49] + 21.581503276848334 * input[50] + 8.21883594652585 * input[51] + 13.662475283959594 * input[52] + 8.8723912460435 * input[53] + 5.8116611137775065 * input[54] + 7.857862342117723 * input[55] + 6.355081234154187 * input[56] + 8.675874916753749 * input[57] + 6.183569674323047 * input[58] + 5.822853135675329 * input[59] + 6.343328869910607 * input[60] + 6.54288811852771 * input[61] + 7.015371902682592 * input[62] + 5.833466835144883 * input[63] + 72.47563223627537 * input[64] + 22.329634489302137 * input[65] + 26.249779942832816 * input[66] + 16.11380483180571 * input[67] + 12.834046275134293 * input[68] + 12.728767917365825 * input[69] + 9.84333556383412 * input[70] + 8.132769972178465 * input[71] + 8.087115888090958 * input[72] + 8.142966475758554 * input[73] + 6.365359651201108 * input[74]
    var67 = 7.8837664863483425 * input[75]
    var68 = 71.60382351894913 * input[0] + 21.68212143791488 * input[1] + 9.730945480927666 * input[2] + 6.124413886056345 * input[3] + 7.243671485732721 * input[4] + 7.576556835296899 * input[5] + 7.208379872748964 * input[6] + 8.575232435591218 * input[7] + 6.874238434055464 * input[8] + 10.073970778336715 * input[9] + 5.7907115533965445 * input[10] + 7.843007916372959 * input[11] + 6.306988954768791 * input[12] + 8.5421737943182 * input[13] + 8.246550286326167 * input[14] + 6.780171276102288 * input[15] + 72.02071613305037 * input[16] + 11.970727137063772 * input[17] + 6.926668340706209 * input[18] + 4.286552148953379 * input[19]
    var69 = 3.548858649612586 * input[20]
    var70 = var68 + var69 + 3.002739583592968 * input[21] + 2.862052989362935 * input[22] + 3.0454021049305267 * input[23] + 2.812651777992303 * input[24] + 3.1886175957216563 * input[25] + 2.890271868245487 * input[26] + 3.029875213852899 * input[27] + 2.921001605819003 * input[28] + 2.848482256518576 * input[29] + 2.6585969239781586 * input[30] + 2.7580410386073284 * input[31] + 52.0096220754256 * input[32] + 7.732498270995787 * input[33] + 4.213089560868284 * input[34] + 3.4531174498878645 * input[35] + 4.436302718455349 * input[36] + 5.6427035906141 * input[37] + 4.029699359892364 * input[38] + 2.0262102002392175 * input[39] + 1.8660110156071548 * input[40] + 1.410054875322408 * input[41] + 2.0826348090065125 * input[42] + 4.488987453806928 * input[43] + 5.343406644740261 * input[44] + 3.284138800537883 * input[45] + 1.7004606262272841 * input[46] + 3.6876960693411984 * input[47] + 85.11978614356002 * input[48] + 30.412173730854544 * input[49] + 13.542052093893549 * input[50] + 8.974098341177456 * input[51] + 8.912063328867548 * input[52] + 6.351463745288729 * input[53] + 5.082331376561137 * input[54] + 5.205159269478226 * input[55] + 4.772272202624045 * input[56] + 4.070834663322495 * input[57] + 4.562045152019532 * input[58] + 2.9873237393153005 * input[59] + 3.919713196871442 * input[60] + 3.6690759099541843 * input[61] + 3.073597552653088 * input[62] + 3.7519343334837623 * input[63] + 78.70591582739097 * input[64] + 36.11100965181228 * input[65] + 22.36558135746266 * input[66] + 14.862394983639835 * input[67] + 10.532460218712004 * input[68] + 9.836934439509491 * input[69] + 8.708026429181121 * input[70] + 6.386363272272695 * input[71] + 6.244703971467654 * input[72] + 6.142621129120686 * input[73] + 5.481113548110055 * input[74]
    var71 = 5.714932140266676 * input[75]
    var72 = 70.47857060125237 * input[0] + 12.287580035063627 * input[1] + 7.943572804688596 * input[2] + 6.485194687216491 * input[3] + 6.285341287025464 * input[4] + 8.567419655159787 * input[5] + 8.63005955700444 * input[6] + 7.691284203874176 * input[7] + 6.647755532495383 * input[8] + 7.643880463279334 * input[9] + 6.902746013229912 * input[10] + 5.923544364791683 * input[11] + 5.056547615632908 * input[12] + 4.300262598012511 * input[13] + 4.672664874606288 * input[14] + 8.216079688947989 * input[15] + 69.15830478401593 * input[16] + 19.52504821480683 * input[17] + 7.892598492176144 * input[18] + 8.352007102160181 * input[19]
    var73 = 5.336299574872501 * input[20]
    var74 = var72 + var73 + 5.111428398964561 * input[21] + 5.12983928151108 * input[22] + 4.281721562842624 * input[23] + 5.861503230861958 * input[24] + 3.7769736653088675 * input[25] + 2.9569565457571367 * input[26] + 4.176994386938472 * input[27] + 3.316835166601061 * input[28] + 3.076968970463458 * input[29] + 2.6071123551697766 * input[30] + 3.2094725930333468 * input[31] + 46.07823859100563 * input[32] + 49.29509055996162 * input[33] + 29.209816475013604 * input[34] + 19.386965605003883 * input[35] + 9.713033724864697 * input[36] + 14.776524448991939 * input[37] + 13.109254670433625 * input[38] + 9.713290564838834 * input[39] + 9.44347083214277 * input[40] + 9.290657385026236 * input[41] + 10.61215646628097 * input[42] + 10.532172989946828 * input[43] + 7.859910639483681 * input[44] + 8.812625804186055 * input[45] + 9.186380100057425 * input[46] + 7.398311413960011 * input[47] + 8.746530293832585 * input[48] + 49.67924226960038 * input[49] + 31.811373789129163 * input[50] + 18.532699533647726 * input[51] + 13.322614365202142 * input[52] + 10.180114180244804 * input[53] + 15.270942826043385 * input[54] + 13.870895596520477 * input[55] + 9.737935526776557 * input[56] + 9.519327091623417 * input[57] + 10.680934447251229 * input[58] + 10.937338547522298 * input[59] + 6.948990875497609 * input[60] + 7.6921352721643945 * input[61] + 9.36442876531487 * input[62] + 8.607255418452612 * input[63] + 27.132909420775377 * input[64] + 62.38692925486224 * input[65] + 19.249863610975424 * input[66] + 22.287489560930858 * input[67] + 15.085486716381322 * input[68] + 10.30316819801757 * input[69] + 12.585399245017427 * input[70] + 12.892027382385297 * input[71] + 8.932476493631242 * input[72] + 10.84060164682416 * input[73] + 6.918912071219815 * input[74]
    var75 = 9.939267128897578 * input[75]
    var76 = 58.66312382091782 * input[0] + 20.0289943996538 * input[1] + 18.779352888212454 * input[2] + 19.774760553376325 * input[3] + 17.248399850662302 * input[4] + 12.357010646477406 * input[5] + 16.61178420262376 * input[6] + 23.25355483316485 * input[7] + 13.29341966175381 * input[8] + 11.118308597066347 * input[9] + 15.93465231062853 * input[10] + 11.547145541053371 * input[11] + 10.141169165792856 * input[12] + 11.383623988920554 * input[13] + 13.915094076284383 * input[14] + 15.448423553859257 * input[15] + 67.68007862518134 * input[16] + 13.292530298127673 * input[17] + 11.255039199913845 * input[18] + 6.720244221015835 * input[19]
    var77 = 4.4422574877160566 * input[20]
    var78 = var76 + var77 + 4.934618059563208 * input[21] + 3.97931278641971 * input[22] + 3.0202274959680326 * input[23] + 3.4701678636314255 * input[24] + 3.2771078114813594 * input[25] + 2.8671007237378534 * input[26] + 3.1160250675206775 * input[27] + 3.099836243990728 * input[28] + 3.620357408054516 * input[29] + 4.240257128363739 * input[30] + 3.494805831850042 * input[31] + 66.1536437589706 * input[32] + 48.45988896906722 * input[33] + 16.390458248139765 * input[34] + 18.775988021815984 * input[35] + 11.015541966878997 * input[36] + 11.080770095878716 * input[37] + 6.836156147187715 * input[38] + 8.067143157508704 * input[39] + 6.084005831689122 * input[40] + 6.604804073379519 * input[41] + 5.5135920397891525 * input[42] + 5.80558063147962 * input[43] + 5.178535476478165 * input[44] + 5.698250321622722 * input[45] + 6.48298352324546 * input[46] + 5.310980599200337 * input[47] + 14.103228839109155 * input[48] + 61.97749693066115 * input[49] + 27.376888691284453 * input[50] + 19.1228614934007 * input[51] + 18.78437103827718 * input[52] + 17.34867468089279 * input[53] + 14.036819224738078 * input[54] + 9.98002640287513 * input[55] + 11.87057756870048 * input[56] + 10.692328370561285 * input[57] + 10.468536179019344 * input[58] + 9.251677649927949 * input[59] + 9.339151824803743 * input[60] + 8.080641274337356 * input[61] + 9.70251645099561 * input[62] + 7.764564741105604 * input[63] + 7.887467588448768 * input[64] + 34.98568467296286 * input[65] + 10.226779421327988 * input[66] + 18.822448044391223 * input[67] + 10.124754476839353 * input[68] + 13.24913792682244 * input[69] + 9.55004418397586 * input[70] + 9.65542791555163 * input[71] + 9.029583002872133 * input[72] + 6.986593714752543 * input[73] + 8.741599493021408 * input[74]
    var79 = 6.16912625759259 * input[75]
    var80 = 62.927915272340954 * input[0] + 17.73962560459994 * input[1] + 12.39519157328885 * input[2] + 8.360510859392864 * input[3] + 8.58634155608215 * input[4] + 8.743291844844412 * input[5] + 8.791221444888457 * input[6] + 7.558618576011862 * input[7] + 7.575871482198882 * input[8] + 6.0364894228227 * input[9] + 5.580688885148332 * input[10] + 5.8609244398100255 * input[11] + 5.049777510211524 * input[12] + 4.45823700577847 * input[13] + 5.051251514426532 * input[14] + 4.953661569466203 * input[15] + 82.83301180223991 * input[16] + 35.800078444333735 * input[17] + 16.812113474446726 * input[18] + 18.103149993774597 * input[19]
    var81 = 10.868314164166707 * input[20]
    var82 = var80 + var81 + 10.158379213583085 * input[21] + 9.136830218580736 * input[22] + 6.326442929096131 * input[23] + 7.985022118431205 * input[24] + 8.747073955988768 * input[25] + 8.609239569685034 * input[26] + 8.067052505500738 * input[27] + 8.640310903107068 * input[28] + 10.544483122682674 * input[29] + 10.273158336385194 * input[30] + 16.868838542257745 * input[31] + 35.089616548920716 * input[32] + 55.38318395050818 * input[33] + 28.41138185446645 * input[34] + 20.72003893236866 * input[35] + 18.045332936656134 * input[36] + 16.38139467041323 * input[37] + 10.319403194888398 * input[38] + 12.43385509375727 * input[39] + 10.396708876013424 * input[40] + 9.820324659619626 * input[41] + 11.773512916686105 * input[42] + 10.032983034847758 * input[43] + 7.485419828853711 * input[44] + 6.949522508050133 * input[45] + 9.60385444997355 * input[46] + 8.195848315541504 * input[47] + 7.924928303798284 * input[48] + 52.497796957449225 * input[49] + 21.1595432150745 * input[50] + 12.350226452447481 * input[51] + 15.457473837445345 * input[52] + 8.181027883862626 * input[53] + 7.49700300911033 * input[54] + 9.292016669659464 * input[55] + 7.6573143946795845 * input[56] + 8.399554442098065 * input[57] + 9.03149636786359 * input[58] + 5.422125120467833 * input[59] + 8.602064569088995 * input[60] + 7.066316728582766 * input[61] + 6.277802500853833 * input[62] + 8.321316584398488 * input[63] + 7.769570657125758 * input[64] + 57.48059012152028 * input[65] + 26.872058742022418 * input[66] + 13.12355038758579 * input[67] + 14.423699038964955 * input[68] + 12.20570308407553 * input[69] + 9.522131148375717 * input[70] + 12.86682352412351 * input[71] + 12.614612319539983 * input[72] + 6.61612481651767 * input[73] + 7.540045149561669 * input[74]
    var83 = 9.680084558044069 * input[75]
    var84 = 57.72894715135547 * input[0] + 9.46625684657825 * input[1] + 5.547659835935745 * input[2] + 4.638641362105464 * input[3] + 3.098639207402601 * input[4] + 3.116779686024697 * input[5] + 3.19873348268004 * input[6] + 2.2900730270492335 * input[7] + 2.16986256171195 * input[8] + 3.011036383751942 * input[9] + 2.329798877334173 * input[10] + 1.7045100069225416 * input[11] + 2.8502487914901806 * input[12] + 2.401914770845176 * input[13] + 1.5978449608125098 * input[14] + 2.6474235953514524 * input[15] + 74.69703765832006 * input[16] + 18.79391456603103 * input[17] + 10.861064921890188 * input[18] + 8.962013530061549 * input[19]
    var85 = 5.567298916953578 * input[20]
    var86 = var84 + var85 + 4.408406398537108 * input[21] + 3.85260585806388 * input[22] + 3.3247424527882705 * input[23] + 3.1114905976435976 * input[24] + 3.9244749708390763 * input[25] + 2.421421006210192 * input[26] + 2.939949478457843 * input[27] + 2.03472827916422 * input[28] + 1.7122366838230483 * input[29] + 2.712536249490686 * input[30] + 2.555693972843061 * input[31] + 71.61863863646239 * input[32] + 46.659398780354095 * input[33] + 20.79738913801852 * input[34] + 16.37718977044407 * input[35] + 15.861805109961002 * input[36] + 13.459416236190105 * input[37] + 12.607300725574582 * input[38] + 10.50895498738196 * input[39] + 9.611364961414402 * input[40] + 7.846656163560379 * input[41] + 7.755345801233367 * input[42] + 8.764976990581033 * input[43] + 8.80604445297238 * input[44] + 6.854437091153294 * input[45] + 7.140574524437506 * input[46] + 7.505880038131916 * input[47] + 62.36687601422897 * input[48] + 29.58201844152695 * input[49] + 45.97572473851312 * input[50] + 24.03645872410881 * input[51] + 24.639153119331993 * input[52] + 14.999642802916568 * input[53] + 15.808437798811212 * input[54] + 13.372481403717867 * input[55] + 11.794434946130654 * input[56] + 12.468651538916252 * input[57] + 12.508574115951042 * input[58] + 10.73734396330831 * input[59] + 9.790235895466932 * input[60] + 10.24565813352544 * input[61] + 8.598163554629405 * input[62] + 11.591631550033586 * input[63] + 70.08772998265026 * input[64] + 28.681366285510904 * input[65] + 51.50409009338618 * input[66] + 17.32733286922051 * input[67] + 20.838287627857277 * input[68] + 20.50716316701258 * input[69] + 12.633831348277551 * input[70] + 14.803336167492375 * input[71] + 10.994553598030585 * input[72] + 11.586669639696874 * input[73] + 11.838476817267955 * input[74]
    var87 = 12.63258474891293 * input[75]
    var88 = 62.46540607207015 * input[0] + 15.541544784038008 * input[1] + 6.179625239298618 * input[2] + 4.760930342780451 * input[3] + 4.954481123762662 * input[4] + 3.086641860351685 * input[5] + 2.5370692325401425 * input[6] + 2.417985685071506 * input[7] + 2.8536128870164634 * input[8] + 3.307331985370697 * input[9] + 3.7281257057910473 * input[10] + 4.330762990708483 * input[11] + 5.055776770626918 * input[12] + 3.205118856051161 * input[13] + 5.184290723928042 * input[14] + 3.737435270377009 * input[15] + 70.29889935358086 * input[16] + 12.06154279339514 * input[17] + 7.130471933126323 * input[18] + 4.252579236308382 * input[19]
    var89 = 4.351386094040902 * input[20]
    var90 = var88 + var89 + 2.9794072329880223 * input[21] + 2.5689290486640357 * input[22] + 3.8108186862856015 * input[23] + 4.460549733717241 * input[24] + 4.017722827998805 * input[25] + 4.112125758567079 * input[26] + 4.336658194483885 * input[27] + 3.648516880495052 * input[28] + 4.512748739414603 * input[29] + 7.979318824203339 * input[30] + 6.111180400866133 * input[31] + 82.60927330482605 * input[32] + 19.071003174445877 * input[33] + 9.610262617652754 * input[34] + 10.498896451214272 * input[35] + 8.31490022323472 * input[36] + 9.588881963671149 * input[37] + 4.817152999735444 * input[38] + 5.132171005063263 * input[39] + 4.050943707560336 * input[40] + 3.7031341384248693 * input[41] + 3.415627527328931 * input[42] + 4.252043920310724 * input[43] + 5.232073395437362 * input[44] + 5.4871444124068915 * input[45] + 4.853845612404225 * input[46] + 5.280592276834658 * input[47] + 49.62321787980539 * input[48] + 59.585011844525305 * input[49] + 28.503074117510096 * input[50] + 21.926544285677465 * input[51] + 18.049949361297728 * input[52] + 14.165459998371425 * input[53] + 15.008081489256181 * input[54] + 13.766169701857386 * input[55] + 10.9949306483748 * input[56] + 10.082370164655371 * input[57] + 13.505453284996058 * input[58] + 12.291741969545523 * input[59] + 9.54953017409326 * input[60] + 9.640461837154366 * input[61] + 9.95740987375651 * input[62] + 11.328661620161302 * input[63] + 42.63175264214177 * input[64] + 33.011314065918384 * input[65] + 34.17409656478841 * input[66] + 16.43849429145611 * input[67] + 13.261134300758883 * input[68] + 11.326697531820857 * input[69] + 7.935827877350482 * input[70] + 11.172415978601109 * input[71] + 12.113747982368725 * input[72] + 6.793419015649146 * input[73] + 9.475559202402328 * input[74]
    var91 = 8.194611388906237 * input[75]
    var92 = 83.22803624444245 * input[0] + 18.250727004129054 * input[1] + 9.63758475996021 * input[2] + 8.577640468343954 * input[3] + 5.728597860306535 * input[4] + 6.3259429735807995 * input[5] + 4.885321281127756 * input[6] + 3.909505143938594 * input[7] + 3.2886442773075437 * input[8] + 3.808046275102912 * input[9] + 3.674782774100109 * input[10] + 3.420281755496539 * input[11] + 3.358780121362556 * input[12] + 3.6133558663505636 * input[13] + 3.260081000234037 * input[14] + 2.957444352873579 * input[15] + 86.17392955270714 * input[16] + 23.90949392735957 * input[17] + 13.824192720841452 * input[18] + 8.807327731746899 * input[19]
    var93 = 7.429364915258479 * input[20]
    var94 = var92 + var93 + 5.364286713352268 * input[21] + 5.166089370208022 * input[22] + 4.291850763792229 * input[23] + 3.6160564747821837 * input[24] + 3.7809283322127594 * input[25] + 3.9425129248249737 * input[26] + 3.8979977643146935 * input[27] + 3.5117461660166676 * input[28] + 3.4265501257735433 * input[29] + 3.337311711627564 * input[30] + 4.026740267761045 * input[31] + 82.92849864280595 * input[32] + 41.70633058686492 * input[33] + 23.407642075547056 * input[34] + 15.944857416689127 * input[35] + 13.810635503932104 * input[36] + 11.408853169213122 * input[37] + 9.300272714653602 * input[38] + 8.462723128034495 * input[39] + 8.28146741692278 * input[40] + 6.6566134191034365 * input[41] + 5.499594479777966 * input[42] + 6.1542925680195575 * input[43] + 5.954764714384935 * input[44] + 6.771116367043836 * input[45] + 7.913981656589476 * input[46] + 7.743290445814697 * input[47] + 55.56947687787484 * input[48] + 63.59309293690522 * input[49] + 36.99845150909378 * input[50] + 21.548437722144016 * input[51] + 23.158944790691606 * input[52] + 18.13873865406819 * input[53] + 16.87603056184094 * input[54] + 11.71653918205552 * input[55] + 14.581450542960788 * input[56] + 10.546084328420193 * input[57] + 12.48728971925717 * input[58] + 10.768157087992991 * input[59] + 10.534555342279429 * input[60] + 8.653652972871072 * input[61] + 9.26111724816068 * input[62] + 10.425048120338927 * input[63] + 69.04924338225219 * input[64] + 30.399371297581116 * input[65] + 54.29257250112555 * input[66] + 16.971015893146376 * input[67] + 22.96851012693785 * input[68] + 15.459485975090416 * input[69] + 17.09581638747464 * input[70] + 17.826155015530983 * input[71] + 11.344516448753115 * input[72] + 11.475745136318253 * input[73] + 9.363541496236678 * input[74]
    var95 = 13.825572852745555 * input[75]
    return -0.9438264637350159 + math.tanh(0.000029909580336559673 * (var2 + var3 + 5.032541956803122 * input[76] + 5.734587311590413 * input[77] + 5.586186730581141 * input[78] + 5.27050737241407 * input[79] + 72.14700406221591 * input[80] + 33.909466169821556 * input[81] + 23.80534938742248 * input[82] + 17.177431246395376 * input[83] + 11.867216009006626 * input[84] + 9.697559381775262 * input[85] + 8.735200084491538 * input[86] + 7.247399845897981 * input[87] + 7.163655944102887 * input[88] + 6.283384055310309 * input[89] + 6.029038775730915 * input[90] + 5.826278111305322 * input[91] + 6.233437049912539 * input[92] + 5.3056095426352154 * input[93] + 5.104201552335196 * input[94] + 5.789212217319914 * input[95] + 80.94895900185793 * input[96] + 29.3198897900348 * input[97] + 14.434864487262539 * input[98] + 18.90576389461176 * input[99] + 13.310273024421708 * input[100] + 11.902002986021463 * input[101] + 15.66496209698011 * input[102] + 23.97402761334228 * input[103] + 17.01980843376603 * input[104] + 14.704273375426032 * input[105] + 13.092842978455572 * input[106] + 10.28794854897927 * input[107] + 11.674862528215883 * input[108] + 13.151895654725562 * input[109] + 13.336128483259497 * input[110] + 11.88407734892802 * input[111] + 93.4711654157471 * input[112] + 24.186360048456518 * input[113] + 14.297071014513048 * input[114] + 8.786541070369282 * input[115] + 7.657438507882265 * input[116] + 8.80699067820886 * input[117] + 8.91021305140445 * input[118] + 8.247304810458587 * input[119] + 7.644795941865287 * input[120] + 6.837635654448141 * input[121] + 5.162806000963368 * input[122] + 4.533499953965093 * input[123] + 5.881800468815719 * input[124] + 6.886863160099163 * input[125] + 7.072627424395943 * input[126] + 5.319312502429055 * input[127]) + 0.0) * -0.7355214988238709 + math.tanh(0.000029909580336559673 * (var6 + var7 + 6.255220767878757 * input[76] + 5.26222426756676 * input[77] + 5.819690537589368 * input[78] + 6.202830441213365 * input[79] + 53.77912659317932 * input[80] + 27.438355888532257 * input[81] + 16.053421766901895 * input[82] + 9.85014563025395 * input[83] + 13.078331386449046 * input[84] + 9.925150238965266 * input[85] + 7.185041977517491 * input[86] + 7.966879753508804 * input[87] + 7.110274761163554 * input[88] + 6.455937205451789 * input[89] + 6.476728468801285 * input[90] + 6.017163250712547 * input[91] + 5.796458774678334 * input[92] + 4.7225351039509205 * input[93] + 5.610748386607301 * input[94] + 5.626910097469213 * input[95] + 81.69612504245785 * input[96] + 22.326534155891522 * input[97] + 14.208014486015713 * input[98] + 9.245168720850236 * input[99] + 9.039578034585329 * input[100] + 9.001289237304407 * input[101] + 10.943213433273003 * input[102] + 10.969889820453478 * input[103] + 9.623819902612158 * input[104] + 7.230483849410557 * input[105] + 7.344291452019656 * input[106] + 5.721132922661014 * input[107] + 5.525999560155867 * input[108] + 6.4323336141422836 * input[109] + 5.922949928002097 * input[110] + 6.793921673026373 * input[111] + 92.20023299552471 * input[112] + 22.505288737973853 * input[113] + 17.235574522927138 * input[114] + 12.558340699163477 * input[115] + 10.713353347082947 * input[116] + 9.11254430495028 * input[117] + 8.245469451288448 * input[118] + 8.450075057170668 * input[119] + 8.565853500701138 * input[120] + 6.128482555312397 * input[121] + 5.159252849701904 * input[122] + 6.674083851607225 * input[123] + 6.224242690980773 * input[124] + 7.551463732813483 * input[125] + 8.376794144115141 * input[126] + 6.718100984859722 * input[127]) + 0.0) * -0.6487086825515143 + math.tanh(0.000029909580336559673 * (var10 + var11 + 6.171462224249226 * input[76] + 6.518840484389035 * input[77] + 6.720413624225971 * input[78] + 6.4328392095496945 * input[79] + 45.1913513266626 * input[80] + 24.300294457896882 * input[81] + 16.87003560097071 * input[82] + 11.152290945265907 * input[83] + 11.169639294714901 * input[84] + 9.803098073519456 * input[85] + 7.206835240706196 * input[86] + 7.132857547659793 * input[87] + 6.818435032668754 * input[88] + 5.467700423444219 * input[89] + 6.446080719504165 * input[90] + 5.652701345659 * input[91] + 5.787149611387867 * input[92] + 5.51242306260949 * input[93] + 5.785493856263713 * input[94] + 5.455598303910808 * input[95] + 60.873364092175834 * input[96] + 31.90954385932281 * input[97] + 19.279129105452625 * input[98] + 14.383995670406303 * input[99] + 11.414525057762233 * input[100] + 9.487132707240637 * input[101] + 8.404300603882902 * input[102] + 8.246071542784868 * input[103] + 7.336123317996773 * input[104] + 6.143937965660403 * input[105] + 6.151551971803436 * input[106] + 5.870530499371674 * input[107] + 5.456924410832798 * input[108] + 5.34476547543845 * input[109] + 5.492480598223622 * input[110] + 5.327419243782555 * input[111] + 93.34238422124689 * input[112] + 27.586836924398874 * input[113] + 19.031330290413198 * input[114] + 17.440357665480086 * input[115] + 11.419603007551824 * input[116] + 11.32035180421153 * input[117] + 13.313477591507894 * input[118] + 10.9950057364318 * input[119] + 9.743010513754234 * input[120] + 7.59951813118353 * input[121] + 9.53081303394249 * input[122] + 7.08611466924167 * input[123] + 7.282797662235167 * input[124] + 7.627242876218855 * input[125] + 7.494809861428278 * input[126] + 8.05199635239438 * input[127]) + 0.0) * -0.9084254800715038 + math.tanh(0.000029909580336559673 * (var14 + var15 + 5.2270638098513835 * input[76] + 6.081014938190592 * input[77] + 4.585248645746744 * input[78] + 5.591984011374397 * input[79] + 27.362175050846254 * input[80] + 18.302823160992588 * input[81] + 14.106211164451455 * input[82] + 12.662872554439922 * input[83] + 9.133411984168376 * input[84] + 7.770644791787894 * input[85] + 7.2856455699641565 * input[86] + 6.774696903390652 * input[87] + 5.868854267008215 * input[88] + 6.083924704528003 * input[89] + 5.920635350980159 * input[90] + 5.761808381382522 * input[91] + 5.757998334482005 * input[92] + 4.8495650252924385 * input[93] + 5.320583027237824 * input[94] + 4.821173349399042 * input[95] + 86.89841479290757 * input[96] + 29.699601371796216 * input[97] + 17.42770439749129 * input[98] + 14.414494396173133 * input[99] + 10.825838256564076 * input[100] + 9.691784686064382 * input[101] + 12.026645425044048 * input[102] + 9.678755208049534 * input[103] + 10.43345521247163 * input[104] + 10.41289820606882 * input[105] + 7.472611564715368 * input[106] + 7.3807942458682385 * input[107] + 6.743314407508871 * input[108] + 6.056016128402559 * input[109] + 7.0130242181870095 * input[110] + 7.011984005997275 * input[111] + 66.44213058880993 * input[112] + 18.074861374069435 * input[113] + 11.913713436387642 * input[114] + 9.32123247110301 * input[115] + 10.082702524337687 * input[116] + 9.910112358077722 * input[117] + 11.736375178471185 * input[118] + 9.450089664068845 * input[119] + 9.081335333057224 * input[120] + 10.181207794561335 * input[121] + 5.92711142880818 * input[122] + 7.738831728741589 * input[123] + 6.801727324305395 * input[124] + 6.553343632800206 * input[125] + 7.079103832139023 * input[126] + 10.610141454203337 * input[127]) + 0.0) * -0.13803807608967278 + math.tanh(0.000029909580336559673 * (var18 + var19 + 9.8349099019974 * input[76] + 8.00744340514439 * input[77] + 9.582612532066229 * input[78] + 7.741982866086028 * input[79] + 69.86523729739972 * input[80] + 38.10498488448014 * input[81] + 21.614416912362252 * input[82] + 17.69899827349583 * input[83] + 11.009152389214297 * input[84] + 11.718799988569026 * input[85] + 11.882568743528637 * input[86] + 11.580644683148048 * input[87] + 14.038511731629011 * input[88] + 12.163675373907939 * input[89] + 8.358832147719115 * input[90] + 8.331320378996411 * input[91] + 8.664709900463423 * input[92] + 9.578825483248442 * input[93] + 8.868826440918202 * input[94] + 7.187649763418402 * input[95] + 89.18372083706709 * input[96] + 37.31625070340998 * input[97] + 24.120069600790735 * input[98] + 17.52937716497697 * input[99] + 14.252241846830136 * input[100] + 10.390728602569075 * input[101] + 10.583016609826686 * input[102] + 9.738635211899163 * input[103] + 9.855060609679658 * input[104] + 9.001306192620312 * input[105] + 7.550850354781046 * input[106] + 7.0412842243884946 * input[107] + 6.972676429141482 * input[108] + 8.459264783807793 * input[109] + 7.185124498438171 * input[110] + 6.26345081824333 * input[111] + 89.87853065545197 * input[112] + 35.9836920269035 * input[113] + 21.9551940577496 * input[114] + 13.89257323498032 * input[115] + 12.613195104074112 * input[116] + 11.925298506351183 * input[117] + 14.510514940165374 * input[118] + 13.608407019929945 * input[119] + 11.236481986888888 * input[120] + 9.739168364048071 * input[121] + 8.852317185868543 * input[122] + 7.206919875800063 * input[123] + 7.809199848561457 * input[124] + 7.444742459125058 * input[125] + 6.86820094085946 * input[126] + 6.740683566983229 * input[127]) + 0.0) * -1.0 + math.tanh(0.000029909580336559673 * (var22 + var23 + 5.833878824040703 * input[76] + 5.235193223119016 * input[77] + 5.383006303952225 * input[78] + 5.14533618374872 * input[79] + 43.31321052711332 * input[80] + 23.77019282127781 * input[81] + 18.443836950811228 * input[82] + 15.606709274436431 * input[83] + 10.882166867040986 * input[84] + 8.777700491591045 * input[85] + 9.314823584814365 * input[86] + 8.062162299192167 * input[87] + 6.634945296342769 * input[88] + 6.060588388662338 * input[89] + 6.618650710857511 * input[90] + 6.384789053838042 * input[91] + 5.430312665461174 * input[92] + 5.751244454838812 * input[93] + 5.660337315376223 * input[94] + 5.211177101166939 * input[95] + 70.0135887870505 * input[96] + 33.963880697234885 * input[97] + 20.46419833303911 * input[98] + 16.639420438332294 * input[99] + 12.532586700750949 * input[100] + 10.997289449936579 * input[101] + 9.55962787702368 * input[102] + 12.479405137169085 * input[103] + 8.63914159809638 * input[104] + 7.1581007518760345 * input[105] + 7.462536227380476 * input[106] + 6.055034739101091 * input[107] + 9.108249970682433 * input[108] + 7.295895030989317 * input[109] + 9.237594026297511 * input[110] + 8.13251463740005 * input[111] + 72.63559808206111 * input[112] + 20.176281443122384 * input[113] + 15.064060753170857 * input[114] + 19.102572908657976 * input[115] + 12.075800781097374 * input[116] + 10.890883700590813 * input[117] + 12.49633209235001 * input[118] + 10.333177774069913 * input[119] + 8.626908984710735 * input[120] + 8.916940742187869 * input[121] + 8.789824128499774 * input[122] + 8.536425507382226 * input[123] + 7.804408986404853 * input[124] + 8.97371614145426 * input[125] + 10.430142314603511 * input[126] + 8.190066234714772 * input[127]) + 0.0) * -0.3678230598162052 + math.tanh(0.000029909580336559673 * (var26 + var27 + 5.821403570226002 * input[76] + 6.682714707721529 * input[77] + 5.619966282598333 * input[78] + 5.979076036416497 * input[79] + 55.730383539781215 * input[80] + 32.327303295256726 * input[81] + 24.2272174787168 * input[82] + 18.976730272223065 * input[83] + 9.156676191334453 * input[84] + 11.487035547818369 * input[85] + 9.151222170792325 * input[86] + 8.518550697042839 * input[87] + 7.251047491797623 * input[88] + 6.8655213909971575 * input[89] + 5.905642198698955 * input[90] + 6.502195565404106 * input[91] + 7.060528469443338 * input[92] + 5.9275295247567765 * input[93] + 6.499370072006698 * input[94] + 7.30415189634886 * input[95] + 87.07780244965863 * input[96] + 32.11399035483607 * input[97] + 19.467017010553796 * input[98] + 13.233490609105974 * input[99] + 12.252617515168902 * input[100] + 9.305039945412203 * input[101] + 12.924603808292106 * input[102] + 13.88916245825748 * input[103] + 9.509355715778355 * input[104] + 8.151596501989264 * input[105] + 7.310325641029617 * input[106] + 7.3187324686259885 * input[107] + 8.382267421222654 * input[108] + 8.613704700138587 * input[109] + 7.097250284190226 * input[110] + 8.09993637347526 * input[111] + 88.83468302510403 * input[112] + 28.804065947978447 * input[113] + 15.846665942565961 * input[114] + 13.961045657051212 * input[115] + 11.313580278452427 * input[116] + 13.935108987514178 * input[117] + 12.366877290044906 * input[118] + 10.293931115669807 * input[119] + 7.700862020195585 * input[120] + 7.690128849274302 * input[121] + 6.718704557175201 * input[122] + 7.039769657349594 * input[123] + 7.266086105810362 * input[124] + 9.662812568925283 * input[125] + 9.754634054668175 * input[126] + 9.662001254702584 * input[127]) + 0.0) * -0.09256206509284963 + math.tanh(0.000029909580336559673 * (var30 + var31 + 11.431000233722948 * input[76] + 6.717688195044875 * input[77] + 7.665941888807641 * input[78] + 8.443025567587757 * input[79] + 18.5925983718228 * input[80] + 80.5927146732123 * input[81] + 9.792928912011853 * input[82] + 33.85755799888906 * input[83] + 11.620051864062322 * input[84] + 12.788714222362684 * input[85] + 18.22979871150175 * input[86] + 8.664175464128759 * input[87] + 11.068978581305466 * input[88] + 11.626276129264497 * input[89] + 7.6783395638034335 * input[90] + 9.791265885704313 * input[91] + 8.23393160783927 * input[92] + 7.900871345424344 * input[93] + 8.464918775137498 * input[94] + 8.329389284624053 * input[95] + 96.69001661646206 * input[96] + 28.335939853324824 * input[97] + 25.026592416978286 * input[98] + 14.766942568259509 * input[99] + 11.888082482267176 * input[100] + 11.718471806661334 * input[101] + 8.842785641936075 * input[102] + 8.19603426351182 * input[103] + 7.369102273624344 * input[104] + 6.6332138923125274 * input[105] + 5.193119567884699 * input[106] + 5.5167839845724975 * input[107] + 5.802182142763835 * input[108] + 5.5808849381191745 * input[109] + 4.7763541042073285 * input[110] + 5.3119858316322865 * input[111] + 89.32828819403525 * input[112] + 29.835705434469716 * input[113] + 18.096792597999297 * input[114] + 13.25774058002411 * input[115] + 11.113726287477775 * input[116] + 11.875636871249682 * input[117] + 10.703624951209225 * input[118] + 8.506290363183862 * input[119] + 7.399619443122214 * input[120] + 7.053678879252442 * input[121] + 5.575280953723699 * input[122] + 4.972099757857739 * input[123] + 6.942283644033674 * input[124] + 7.200727203462432 * input[125] + 6.05570137383808 * input[126] + 6.424703919631236 * input[127]) + 0.0) * -0.8152881756346805 + math.tanh(0.000029909580336559673 * (var34 + var35 + 7.256692817761141 * input[76] + 8.703670975411987 * input[77] + 8.063601881496847 * input[78] + 7.151258388283827 * input[79] + 31.680131443211067 * input[80] + 23.5196463862215 * input[81] + 15.651276249750783 * input[82] + 14.555847488701136 * input[83] + 10.677705203817302 * input[84] + 9.283017537673555 * input[85] + 10.296932602797963 * input[86] + 7.61903848969418 * input[87] + 7.2128869056610885 * input[88] + 6.83899037164527 * input[89] + 6.8253133307504985 * input[90] + 5.633743480288251 * input[91] + 5.679717713662776 * input[92] + 6.088736624246872 * input[93] + 6.06399211296013 * input[94] + 5.632100710206341 * input[95] + 94.4331110775527 * input[96] + 25.13984681926775 * input[97] + 16.372194939596802 * input[98] + 12.191352222468456 * input[99] + 15.43707171139382 * input[100] + 12.841921558097393 * input[101] + 11.940398768168322 * input[102] + 9.982425958217954 * input[103] + 8.889991988534991 * input[104] + 8.731930327942393 * input[105] + 7.031792882201083 * input[106] + 7.609500501359596 * input[107] + 7.237810939042434 * input[108] + 6.986916803969988 * input[109] + 5.53222358286537 * input[110] + 7.367461162362671 * input[111] + 87.55219362869975 * input[112] + 19.86838457336203 * input[113] + 13.000617899636353 * input[114] + 9.153288659812581 * input[115] + 7.860783161853423 * input[116] + 7.985174022556515 * input[117] + 8.16547115499769 * input[118] + 6.995832671711757 * input[119] + 5.835902071068852 * input[120] + 5.338212708115259 * input[121] + 4.6836799562044655 * input[122] + 5.718863956896093 * input[123] + 5.388330172484181 * input[124] + 5.894576713892507 * input[125] + 5.140391464875589 * input[126] + 4.482839663233399 * input[127]) + 0.0) * -1.0 + math.tanh(0.000029909580336559673 * (var38 + var39 + 8.940823725434658 * input[76] + 9.128308369049876 * input[77] + 7.646305209149961 * input[78] + 8.577365858337199 * input[79] + 72.98246530539268 * input[80] + 69.59398224927698 * input[81] + 24.41137210447476 * input[82] + 17.761588251819028 * input[83] + 19.164430955579355 * input[84] + 10.375650347287964 * input[85] + 13.028294981727452 * input[86] + 8.91543693332114 * input[87] + 8.132379179133903 * input[88] + 10.170587625143966 * input[89] + 6.418431368627057 * input[90] + 7.627724284878644 * input[91] + 7.345509139211686 * input[92] + 5.648550137241014 * input[93] + 7.586690051669358 * input[94] + 6.066467509097485 * input[95] + 94.55860783952801 * input[96] + 46.52328608409911 * input[97] + 27.420395110491413 * input[98] + 17.92711225023488 * input[99] + 15.679896869202986 * input[100] + 11.408921225338895 * input[101] + 10.152847283566906 * input[102] + 9.230442125864126 * input[103] + 8.321507111790767 * input[104] + 8.550631125015503 * input[105] + 7.634753386265979 * input[106] + 6.670832505274306 * input[107] + 6.465482140978101 * input[108] + 7.2715496363459975 * input[109] + 6.08183309682961 * input[110] + 6.258590375446766 * input[111] + 67.83897813068694 * input[112] + 22.46865250810794 * input[113] + 12.39389495153561 * input[114] + 10.853825349738516 * input[115] + 9.500638647009762 * input[116] + 7.548776612971764 * input[117] + 6.1858725495882245 * input[118] + 4.933397648018738 * input[119] + 5.273697724539673 * input[120] + 4.595424582194572 * input[121] + 5.145115751232216 * input[122] + 5.744349959905701 * input[123] + 6.4413730708526735 * input[124] + 6.06362071953445 * input[125] + 5.748933953340252 * input[126] + 4.951445694938522 * input[127]) + 0.0) * -1.0 + math.tanh(0.000029909580336559673 * (var42 + var43 + 8.774677882088323 * input[76] + 8.47099367410567 * input[77] + 8.36758765440145 * input[78] + 7.293531022618352 * input[79] + 65.76672533489668 * input[80] + 70.54477919750103 * input[81] + 27.07233797966574 * input[82] + 16.52490535954029 * input[83] + 20.991078346896522 * input[84] + 13.850918663437676 * input[85] + 10.787828887528333 * input[86] + 11.843573741877961 * input[87] + 9.6629759180676 * input[88] + 8.60256021471022 * input[89] + 9.251213605762949 * input[90] + 7.609783867529417 * input[91] + 7.904556105366408 * input[92] + 8.207943283972204 * input[93] + 6.956493564731753 * input[94] + 7.901020018335441 * input[95] + 78.1802630817885 * input[96] + 57.37967820549502 * input[97] + 23.80438122966995 * input[98] + 20.16322271074653 * input[99] + 18.937643144965307 * input[100] + 14.723240030260044 * input[101] + 12.40528099206773 * input[102] + 9.41455031764257 * input[103] + 9.880562340175 * input[104] + 9.176085034107135 * input[105] + 8.18830000310945 * input[106] + 9.509765504602603 * input[107] + 8.158340996043815 * input[108] + 7.70069242465912 * input[109] + 8.727978472670253 * input[110] + 7.234411199729596 * input[111] + 95.93590384426193 * input[112] + 31.815322293525664 * input[113] + 18.67659921006981 * input[114] + 13.557849110098966 * input[115] + 13.722650614370874 * input[116] + 16.81000553299085 * input[117] + 9.688752854823733 * input[118] + 8.574814836270914 * input[119] + 7.5448594817517005 * input[120] + 6.544478155491939 * input[121] + 5.955608712067977 * input[122] + 5.483268085251577 * input[123] + 6.041843133873542 * input[124] + 5.946797426005679 * input[125] + 6.573408261995132 * input[126] + 7.104213976002651 * input[127]) + 0.0) * -1.0 + math.tanh(0.000029909580336559673 * (var46 + var47 + 6.231107193556522 * input[76] + 5.741700429049224 * input[77] + 5.257300183937581 * input[78] + 5.704199809698545 * input[79] + 45.86905158962057 * input[80] + 41.36895778610909 * input[81] + 19.409578081153658 * input[82] + 16.015004647283238 * input[83] + 12.446557566050238 * input[84] + 12.765068429329183 * input[85] + 10.45453062785334 * input[86] + 9.40264775694419 * input[87] + 7.885732373317722 * input[88] + 7.7487614098321735 * input[89] + 7.572860505457918 * input[90] + 7.370709734890974 * input[91] + 6.303518844765262 * input[92] + 7.035624001480725 * input[93] + 6.779275763512597 * input[94] + 6.504433132466037 * input[95] + 79.40027104924522 * input[96] + 47.85668089366966 * input[97] + 23.306430695070645 * input[98] + 18.51237611952581 * input[99] + 12.31921262028823 * input[100] + 12.40317715714472 * input[101] + 10.619467455569488 * input[102] + 8.934424471511997 * input[103] + 8.512315622115912 * input[104] + 6.61620612183696 * input[105] + 7.6045961024135735 * input[106] + 6.7308932999351825 * input[107] + 5.713790224027771 * input[108] + 5.996122909998857 * input[109] + 5.877239780437781 * input[110] + 6.821450925631848 * input[111] + 86.04581797521996 * input[112] + 21.397578455120193 * input[113] + 13.323153726305208 * input[114] + 9.567434605924035 * input[115] + 8.89581857392541 * input[116] + 9.01187808871206 * input[117] + 6.751191370524877 * input[118] + 6.398679255047156 * input[119] + 6.369000244929635 * input[120] + 4.373091265145103 * input[121] + 5.125629642558598 * input[122] + 4.478814921018435 * input[123] + 4.064732710346877 * input[124] + 6.76457664742985 * input[125] + 4.373391764967478 * input[126] + 5.595862665169748 * input[127]) + 0.0) * -0.2936329619197029 + math.tanh(0.000029909580336559673 * (var50 + var51 + 7.350694747147677 * input[76] + 6.758969940054019 * input[77] + 6.63767869817376 * input[78] + 7.284932324987398 * input[79] + 92.37295257569491 * input[80] + 45.14196330965194 * input[81] + 23.395761246124156 * input[82] + 16.913237623711147 * input[83] + 16.548728355053886 * input[84] + 12.505506908437074 * input[85] + 11.054079247089565 * input[86] + 8.300967801171552 * input[87] + 7.985825049183802 * input[88] + 7.5727591705769965 * input[89] + 6.436515635446117 * input[90] + 6.7193087318941815 * input[91] + 7.735251746590636 * input[92] + 6.398052662636568 * input[93] + 5.78136019773488 * input[94] + 6.38394073777125 * input[95] + 89.00827379340149 * input[96] + 26.392868839809406 * input[97] + 15.782487413456034 * input[98] + 11.948966951523756 * input[99] + 8.835121818843717 * input[100] + 10.920433872890346 * input[101] + 7.095210622328809 * input[102] + 6.131939224052468 * input[103] + 6.964172613369644 * input[104] + 6.8402018254997605 * input[105] + 4.084278353410012 * input[106] + 3.675345422039448 * input[107] + 5.122946773421364 * input[108] + 5.976694753846049 * input[109] + 5.159216233017002 * input[110] + 5.335609425095397 * input[111] + 68.21046003310246 * input[112] + 17.086002814448282 * input[113] + 11.84155875155902 * input[114] + 8.548250016842847 * input[115] + 9.788876400879264 * input[116] + 14.271826644877445 * input[117] + 8.33946212737954 * input[118] + 7.038178240574805 * input[119] + 5.725147293687498 * input[120] + 5.038099538727815 * input[121] + 4.373512175901597 * input[122] + 4.377446123107063 * input[123] + 6.262466359543351 * input[124] + 7.471729900339897 * input[125] + 8.1364119302587 * input[126] + 8.584328508799388 * input[127]) + 0.0) * -1.0 + math.tanh(0.000029909580336559673 * (var54 + var55 + 9.08831180389634 * input[76] + 8.244569903015144 * input[77] + 8.777189474835609 * input[78] + 8.637084215080549 * input[79] + 75.59305094557114 * input[80] + 63.43058617447568 * input[81] + 23.25744767235126 * input[82] + 23.738565730156502 * input[83] + 20.68805275635268 * input[84] + 12.54991131973702 * input[85] + 11.431033111360222 * input[86] + 11.792053276202783 * input[87] + 9.73910538046016 * input[88] + 7.95719765918501 * input[89] + 8.642402744240425 * input[90] + 7.707867206005794 * input[91] + 7.154385954279755 * input[92] + 8.540719140494954 * input[93] + 6.440615424416026 * input[94] + 7.821876904061448 * input[95] + 83.46859319859625 * input[96] + 56.123204354436524 * input[97] + 24.731235399181255 * input[98] + 21.729493347568557 * input[99] + 16.997291987907623 * input[100] + 12.400929009462423 * input[101] + 12.995630626704457 * input[102] + 9.592958356622201 * input[103] + 8.31781660620398 * input[104] + 8.715480604265027 * input[105] + 6.414527598094185 * input[106] + 7.548362369568958 * input[107] + 6.25306194549535 * input[108] + 7.363649895546964 * input[109] + 6.549550310419921 * input[110] + 7.201788372750597 * input[111] + 85.86767486036953 * input[112] + 29.239971222584657 * input[113] + 18.450228080333407 * input[114] + 15.729691928703987 * input[115] + 16.159116561311215 * input[116] + 16.77802730272481 * input[117] + 13.525675899635957 * input[118] + 10.230471347294142 * input[119] + 7.772152834570401 * input[120] + 7.622707599154863 * input[121] + 7.209673453270742 * input[122] + 6.672966728791419 * input[123] + 8.519436481042467 * input[124] + 7.869805894677306 * input[125] + 8.390485057989029 * input[126] + 8.09798483771661 * input[127]) + 0.0) * -1.0 + math.tanh(0.000029909580336559673 * (var58 + var59 + 13.851665467802325 * input[76] + 11.903365985666229 * input[77] + 11.388782981957728 * input[78] + 12.210073176779382 * input[79] + 57.22147383082001 * input[80] + 41.75277054127717 * input[81] + 35.58099917917812 * input[82] + 18.64496963173274 * input[83] + 15.268841509139865 * input[84] + 14.415450508730244 * input[85] + 15.219617677715611 * input[86] + 14.54360796821267 * input[87] + 10.93350353072988 * input[88] + 11.208032738610086 * input[89] + 8.84433403038849 * input[90] + 8.952602940958318 * input[91] + 8.22357174822369 * input[92] + 9.624571336111464 * input[93] + 7.849215396965246 * input[94] + 7.457202063901946 * input[95] + 78.19207265757385 * input[96] + 34.48908184230558 * input[97] + 16.392624171942323 * input[98] + 12.674626834254926 * input[99] + 11.581672691401614 * input[100] + 9.25925951143287 * input[101] + 8.36902667322768 * input[102] + 8.738636549183223 * input[103] + 7.100977242308774 * input[104] + 9.000476558821351 * input[105] + 7.011930770208006 * input[106] + 7.5508207956179465 * input[107] + 9.28749094426642 * input[108] + 9.212505649760297 * input[109] + 9.040744736306952 * input[110] + 7.283147145770851 * input[111] + 71.61520290521929 * input[112] + 24.991601057183008 * input[113] + 15.67618325649724 * input[114] + 9.945632479086987 * input[115] + 9.768401412606101 * input[116] + 10.695704457407153 * input[117] + 10.275277059972419 * input[118] + 9.948675528415889 * input[119] + 6.335907003715539 * input[120] + 6.340430610114093 * input[121] + 8.242028123035379 * input[122] + 9.393156519328272 * input[123] + 5.711045277562814 * input[124] + 5.988131553172796 * input[125] + 6.647574670282493 * input[126] + 6.73913072658209 * input[127]) + 0.0) * 1.0 + math.tanh(0.000029909580336559673 * (var62 + var63 + 12.26866651636142 * input[76] + 14.91375715638817 * input[77] + 12.454285488928122 * input[78] + 14.988002088458735 * input[79] + 72.4561134266219 * input[80] + 36.36827228812534 * input[81] + 50.71464624289227 * input[82] + 15.276048711180048 * input[83] + 19.52811770798639 * input[84] + 13.411968649080519 * input[85] + 13.887136472051207 * input[86] + 14.005100210108338 * input[87] + 10.282730139066906 * input[88] + 13.934902742432364 * input[89] + 9.705752914585064 * input[90] + 14.560321364944745 * input[91] + 14.89870381032706 * input[92] + 10.978605241887974 * input[93] + 13.302474952957462 * input[94] + 11.037309784459497 * input[95] + 82.25715234090768 * input[96] + 36.73758555222106 * input[97] + 25.16721163260182 * input[98] + 16.40446684697573 * input[99] + 10.785575914078265 * input[100] + 11.350023008676391 * input[101] + 13.020212949105208 * input[102] + 16.03793758086354 * input[103] + 12.098626455426714 * input[104] + 10.306113971285045 * input[105] + 10.668706791461156 * input[106] + 10.29216588011505 * input[107] + 10.254068695431464 * input[108] + 7.832522217106861 * input[109] + 10.389607861643844 * input[110] + 16.663327933262067 * input[111] + 54.228201057398394 * input[112] + 15.19424374836519 * input[113] + 14.453110754133858 * input[114] + 11.581244114036458 * input[115] + 15.476811288055288 * input[116] + 9.737183350146394 * input[117] + 20.408714637913388 * input[118] + 10.759434608863945 * input[119] + 9.424538338965935 * input[120] + 10.355535006915977 * input[121] + 9.627813037677548 * input[122] + 9.824132961417098 * input[123] + 5.4062880538471045 * input[124] + 9.12944679537613 * input[125] + 7.37402785014041 * input[126] + 8.142460219562484 * input[127]) + 0.0) * 1.0 + math.tanh(0.000029909580336559673 * (var66 + var67 + 5.515219183977775 * input[76] + 6.207863105475927 * input[77] + 6.439544333316256 * input[78] + 6.619507872070747 * input[79] + 69.87750692348247 * input[80] + 21.3305645861274 * input[81] + 15.142944756402738 * input[82] + 8.850722630582178 * input[83] + 6.372928775729783 * input[84] + 7.089682291169784 * input[85] + 7.783237480530465 * input[86] + 7.043795472258919 * input[87] + 5.753375198711325 * input[88] + 6.186869537790242 * input[89] + 10.042133844152314 * input[90] + 6.845948689019931 * input[91] + 5.568826058104707 * input[92] + 3.746673637984749 * input[93] + 4.407886588182056 * input[94] + 4.273853264125832 * input[95] + 93.78379041936503 * input[96] + 30.24718911029812 * input[97] + 16.449815414972058 * input[98] + 10.683078525427469 * input[99] + 8.549383676375058 * input[100] + 9.959335685436248 * input[101] + 9.597283281316749 * input[102] + 13.140327814347282 * input[103] + 7.115423363377779 * input[104] + 8.432047489412403 * input[105] + 7.311017657950077 * input[106] + 7.3862393594709115 * input[107] + 5.337937470770874 * input[108] + 6.280328725076174 * input[109] + 6.99653086660887 * input[110] + 4.945699874815551 * input[111] + 50.421003984317764 * input[112] + 10.685649747524767 * input[113] + 8.181844251825428 * input[114] + 4.803264663089207 * input[115] + 3.7842043481746725 * input[116] + 4.076653582238828 * input[117] + 11.23885365186641 * input[118] + 5.826108800329771 * input[119] + 4.352789597894818 * input[120] + 3.211426003385243 * input[121] + 4.962177339211341 * input[122] + 4.20976958443102 * input[123] + 7.118124786045423 * input[124] + 3.775481485541648 * input[125] + 4.437381773038376 * input[126] + 6.622056911420594 * input[127]) + 0.0) * 1.0 + math.tanh(0.000029909580336559673 * (var70 + var71 + 5.537655710849634 * input[76] + 6.128981215353293 * input[77] + 6.075251919329073 * input[78] + 6.149362035039021 * input[79] + 64.7743680854004 * input[80] + 45.050043402242395 * input[81] + 25.11165185483891 * input[82] + 20.13197913467191 * input[83] + 19.442141234043063 * input[84] + 13.203298838567619 * input[85] + 13.44044108531312 * input[86] + 10.52389356779614 * input[87] + 10.929948387212683 * input[88] + 11.298661160372085 * input[89] + 10.298963964306363 * input[90] + 8.468481690398667 * input[91] + 7.083055143630623 * input[92] + 9.142997765046509 * input[93] + 6.292568918155688 * input[94] + 8.279543255381903 * input[95] + 50.8921489510643 * input[96] + 35.62489002314987 * input[97] + 34.16000366455947 * input[98] + 22.16306575642129 * input[99] + 21.48649000501777 * input[100] + 17.596015812018187 * input[101] + 14.627848977970608 * input[102] + 12.165588096622177 * input[103] + 11.00076334221255 * input[104] + 11.585098104958444 * input[105] + 10.605200495105901 * input[106] + 10.368025132856953 * input[107] + 8.134470937782003 * input[108] + 8.640048573166025 * input[109] + 8.048563024680226 * input[110] + 7.474367906288494 * input[111] + 78.69306191819766 * input[112] + 29.55576814568348 * input[113] + 27.115311264246596 * input[114] + 17.684239297529217 * input[115] + 13.85088666478302 * input[116] + 14.108454917524423 * input[117] + 16.484870547058872 * input[118] + 11.920482561912106 * input[119] + 11.222610855259331 * input[120] + 8.722525757951455 * input[121] + 11.287621509738898 * input[122] + 9.081204212597289 * input[123] + 8.572705488596451 * input[124] + 9.306492741334507 * input[125] + 9.110955873158924 * input[126] + 9.599940329397812 * input[127]) + 0.0) * 1.0 + math.tanh(0.000029909580336559673 * (var74 + var75 + 8.540720266394736 * input[76] + 6.400140886800221 * input[77] + 8.902756615396328 * input[78] + 7.462542009716268 * input[79] + 66.76919476591563 * input[80] + 47.613804987452056 * input[81] + 25.52138814029572 * input[82] + 18.56369737087583 * input[83] + 12.125242386674696 * input[84] + 11.79615001124989 * input[85] + 12.559108576733163 * input[86] + 12.071316130498955 * input[87] + 11.737373262485061 * input[88] + 9.32077344139979 * input[89] + 9.811895025623743 * input[90] + 10.340473398063992 * input[91] + 7.933218995841926 * input[92] + 7.8377809453546865 * input[93] + 7.833754570642751 * input[94] + 10.789077893264981 * input[95] + 93.60656985425622 * input[96] + 25.929007813837707 * input[97] + 17.739392379206155 * input[98] + 12.433983318508517 * input[99] + 8.832537876127347 * input[100] + 8.162232756486807 * input[101] + 9.012590167364491 * input[102] + 8.476615534939462 * input[103] + 6.490973625054448 * input[104] + 7.589767547146765 * input[105] + 6.658360921943997 * input[106] + 5.8481981711992646 * input[107] + 5.141501120085895 * input[108] + 5.897821262197186 * input[109] + 5.844669016410192 * input[110] + 7.521488785743689 * input[111] + 91.85794972388496 * input[112] + 25.026713797200852 * input[113] + 13.20317919179211 * input[114] + 9.851980874013185 * input[115] + 8.391855821873946 * input[116] + 8.237922979079153 * input[117] + 8.204725658409723 * input[118] + 9.068074476528896 * input[119] + 7.97811244149477 * input[120] + 6.51846815252992 * input[121] + 5.255563450432259 * input[122] + 5.781266690335915 * input[123] + 5.818730469658313 * input[124] + 5.2098530677489485 * input[125] + 5.954816523961245 * input[126] + 6.997917461571861 * input[127]) + 0.0) * 1.0 + math.tanh(0.000029909580336559673 * (var78 + var79 + 8.182002828545322 * input[76] + 6.235400733892803 * input[77] + 7.729951902835156 * input[78] + 7.204222767023948 * input[79] + 12.728916073237416 * input[80] + 75.12232810437058 * input[81] + 20.66319871090798 * input[82] + 24.950956967138172 * input[83] + 21.558431066397468 * input[84] + 11.575234340180703 * input[85] + 15.400811451777791 * input[86] + 9.907803693006574 * input[87] + 11.584663174024008 * input[88] + 7.945963405424623 * input[89] + 10.974495597603408 * input[90] + 6.585770524855107 * input[91] + 9.352805927350765 * input[92] + 7.603260512680942 * input[93] + 7.721827049572885 * input[94] + 7.66091872345186 * input[95] + 59.807274055304354 * input[96] + 48.96904785237872 * input[97] + 21.151392350378508 * input[98] + 13.742515690055924 * input[99] + 15.218041935211454 * input[100] + 10.866796706599391 * input[101] + 7.229475253074687 * input[102] + 10.229038355991534 * input[103] + 8.080817200522347 * input[104] + 8.964890884536604 * input[105] + 7.723903492903906 * input[106] + 8.953895867963224 * input[107] + 7.5994430352052955 * input[108] + 7.1577710342816445 * input[109] + 6.32661667343468 * input[110] + 6.858428830769744 * input[111] + 87.88541618784149 * input[112] + 17.626089194280706 * input[113] + 14.003463545401544 * input[114] + 10.627981775384807 * input[115] + 6.803648372627259 * input[116] + 7.729580339080993 * input[117] + 8.998466784360321 * input[118] + 14.699859435623576 * input[119] + 13.235511865166295 * input[120] + 7.598592658037621 * input[121] + 10.863945415942975 * input[122] + 11.347782624200397 * input[123] + 12.523928350043924 * input[124] + 13.62973166827209 * input[125] + 16.125896931793303 * input[126] + 17.464736338127018 * input[127]) + 0.0) * 1.0 + math.tanh(0.000029909580336559673 * (var82 + var83 + 8.624306245456017 * input[76] + 7.501703064610875 * input[77] + 7.951688553954016 * input[78] + 7.429539427502403 * input[79] + 47.67289947310488 * input[80] + 48.35367825548047 * input[81] + 34.8311870121543 * input[82] + 18.78827918653043 * input[83] + 13.488626588014483 * input[84] + 18.396040658965077 * input[85] + 16.043239412352126 * input[86] + 12.185216270487215 * input[87] + 9.701580709413935 * input[88] + 11.616890465399507 * input[89] + 11.164288909496747 * input[90] + 10.194714381438848 * input[91] + 12.170457365344475 * input[92] + 12.403527520192352 * input[93] + 12.657498479044074 * input[94] + 9.494301817672024 * input[95] + 91.46466986935732 * input[96] + 22.140939935731197 * input[97] + 16.48488376378415 * input[98] + 13.680480035066822 * input[99] + 10.455140345060215 * input[100] + 8.727603091867739 * input[101] + 10.076932736595358 * input[102] + 12.285949268617145 * input[103] + 10.181022554414962 * input[104] + 9.726566649275906 * input[105] + 9.033981991215128 * input[106] + 7.820993646000314 * input[107] + 6.360692936457751 * input[108] + 8.455881772719307 * input[109] + 7.710460861053791 * input[110] + 7.1927204348229825 * input[111] + 81.05739612057917 * input[112] + 23.124803528873542 * input[113] + 16.06296856716751 * input[114] + 12.182769262211837 * input[115] + 10.856872532647715 * input[116] + 8.957405109496946 * input[117] + 13.461426807275782 * input[118] + 9.69179341758085 * input[119] + 6.4300261729158334 * input[120] + 5.65993769141079 * input[121] + 4.431715821258653 * input[122] + 6.134250432841599 * input[123] + 5.150918443907786 * input[124] + 5.779043468869717 * input[125] + 4.292348140791889 * input[126] + 5.758584658486165 * input[127]) + 0.0) * 1.0 + math.tanh(0.000029909580336559673 * (var86 + var87 + 10.964294379170617 * input[76] + 9.670752086955023 * input[77] + 10.430695394530645 * input[78] + 9.673380126064504 * input[79] + 58.309974825624856 * input[80] + 33.65256911540055 * input[81] + 27.444450199051566 * input[82] + 19.590037762998293 * input[83] + 15.734924093212955 * input[84] + 13.604198370428636 * input[85] + 8.038546232623016 * input[86] + 10.10810190949811 * input[87] + 8.29313894795397 * input[88] + 8.508522093434326 * input[89] + 6.5707087031687355 * input[90] + 7.090958721160674 * input[91] + 6.619874144575124 * input[92] + 6.636562343366364 * input[93] + 6.688923900241354 * input[94] + 5.329393185911535 * input[95] + 79.81018581028042 * input[96] + 33.55257914159067 * input[97] + 21.640648323955492 * input[98] + 13.877501099346912 * input[99] + 10.653046338415429 * input[100] + 10.771064194995141 * input[101] + 8.348869940012664 * input[102] + 9.598115114809275 * input[103] + 7.631093811135013 * input[104] + 6.511495192675357 * input[105] + 7.240471169640388 * input[106] + 8.574618474291153 * input[107] + 7.762861280412884 * input[108] + 12.82138368604974 * input[109] + 12.811504591864415 * input[110] + 24.808390112011104 * input[111] + 71.93108736668566 * input[112] + 21.32819312870173 * input[113] + 9.06529844189238 * input[114] + 8.371494490324864 * input[115] + 5.119265809901323 * input[116] + 5.726697496412889 * input[117] + 4.913709565199241 * input[118] + 3.970899734478949 * input[119] + 2.588385757178653 * input[120] + 3.273666271748331 * input[121] + 4.443946584418593 * input[122] + 4.291051690827446 * input[123] + 3.1047581788077263 * input[124] + 5.367455800676895 * input[125] + 8.656310849874705 * input[126] + 9.964900599013987 * input[127]) + 0.0) * 1.0 + math.tanh(0.000029909580336559673 * (var90 + var91 + 8.159015804769169 * input[76] + 7.9528340018171395 * input[77] + 8.101228539151373 * input[78] + 8.708199724445743 * input[79] + 58.3425202620904 * input[80] + 31.486690851698462 * input[81] + 24.945006301807425 * input[82] + 14.222432074607292 * input[83] + 13.727237503473265 * input[84] + 12.80504679222279 * input[85] + 8.70216264121325 * input[86] + 9.139647295663455 * input[87] + 8.017433453460995 * input[88] + 6.952153710903293 * input[89] + 6.642975321083625 * input[90] + 6.260737928255094 * input[91] + 5.82054315741539 * input[92] + 6.195539941478876 * input[93] + 7.636627288208073 * input[94] + 5.369870614010929 * input[95] + 81.21993190986984 * input[96] + 32.55363109544626 * input[97] + 17.859362628842014 * input[98] + 12.35317861663734 * input[99] + 10.011020519287474 * input[100] + 9.060030442675785 * input[101] + 10.718975899878181 * input[102] + 